<?xml version="1.0"?>
<opencv_storage>
<opencv_ml_ann_mlp>
  <format>3</format>
  <layer_sizes>
    108 68 34</layer_sizes>
  <activation_function>SIGMOID_SYM</activation_function>
  <f_param1>1.</f_param1>
  <f_param2>1.</f_param2>
  <min_val>-9.4999999999999996e-01</min_val>
  <max_val>9.4999999999999996e-01</max_val>
  <min_val1>-9.7999999999999998e-01</min_val1>
  <max_val1>9.7999999999999998e-01</max_val1>
  <training_params>
    <train_method>BACKPROP</train_method>
    <dw_scale>1.0000000000000001e-01</dw_scale>
    <moment_scale>0.</moment_scale>
    <term_criteria>
      <iterations>30000</iterations></term_criteria></training_params>
  <input_scale>
    8.1082482423733069e+00 -1.9902613455189846e+00
    8.6363531779555949e+00 -6.6722906575993268e-01
    7.9756221636520550e+00 -1.8464213853580218e+00
    7.1464111171175846e+00 -1.7322078009506743e+00
    1.9624513416645446e+01 -7.4837618039240039e-01
    7.4370959832276533e+00 -1.7500593011063768e+00
    1.2194051357766556e+01 -4.4893201572431956e+00
    7.5578355956106229e+00 -1.6775408292470844e+00
    1.0814012678030648e+01 -3.7777290881548797e+00
    1.0213242010958920e+01 -3.6618584847907623e+00
    8.0969209486239393e+00 -1.5495719761764102e+00
    9.7751505048278773e+00 -3.4449609910065568e+00
    7.5257402614809354e+00 -1.6484451348630702e+00
    1.6493186440419539e+01 -6.8695352372058360e-01
    7.0124732143823794e+00 -1.6026070123419509e+00
    6.8825569666176030e+00 -1.5545153227971205e+00
    1.0626316293493185e+01 -6.6060703493121764e-01
    7.6306480251063382e+00 -1.7073824376289264e+00
    1.1845571313271780e+01 -4.4114548778284783e+00
    7.2779253767538954e+00 -1.4118267326073879e+00
    1.1103881549927349e+01 -3.9756042367156748e+00
    8.1263852685878550e+00 -2.8246099901324846e+00
    6.4862573366281628e+00 -1.4498097607072880e+00
    1.3846808271550927e+01 -5.2783116180767156e+00
    7.5149905746200991e+00 -1.7314148816729247e+00
    1.4206414204034362e+01 -6.8180105053623152e-01
    7.3972253737238374e+00 -1.5526672282081355e+00
    8.2411771074768865e+00 -2.0204056736294458e+00
    1.2354056051172115e+01 -8.8369439641038305e-01
    7.8964496493071605e+00 -2.0595673016295932e+00
    1.2712270131819841e+01 -4.6083454206173800e+00
    7.2434272029809579e+00 -1.2461929310213709e+00
    1.3244471404101365e+01 -4.7461502114671186e+00
    1.2786639037076673e+01 -4.7028734221837238e+00
    7.5558236404672847e+00 -1.8611686490064734e+00
    1.6282630105568632e+01 -6.1104373725604502e+00
    1.5941006964605057e+01 -4.9206285107183092e+00
    8.7969113294751100e+00 -2.1246276507123603e+00
    1.1147225812580579e+01 -2.8828929655827307e+00
    1.8399876325555439e+01 -5.7530408954045225e+00
    8.8597069621026954e+00 -1.8410388880968656e+00
    1.3586642164768559e+01 -4.0149047630627068e+00
    1.1374187851465310e+01 -3.2172817997094190e+00
    9.0661493807233366e+00 -2.2348091791253704e+00
    1.0670801750598816e+01 -3.0125457761773453e+00
    1.0521802457905245e+01 -3.0285625673194625e+00
    9.0886787258035220e+00 -2.0519783107431588e+00
    1.5359215109720372e+01 -4.6970120702093778e+00
    1.0687395143110068e+01 -3.0260550371204280e+00
    7.6022540532189922e+00 -1.5583758343385268e+00
    1.2157499868344166e+01 -3.4436436948658677e+00
    1.0109822327572511e+01 -2.9755931386610945e+00
    7.7122239727320663e+00 -1.6543273865268278e+00
    1.2282628663577317e+01 -3.5564800325644077e+00
    9.8234358404225599e+00 -2.7449960186905922e+00
    7.9647991005761742e+00 -1.7491334682415354e+00
    1.2452743122952493e+01 -3.6622102916370594e+00
    1.3547726134390011e+01 -4.1778350425521120e+00
    7.9907890605758558e+00 -1.7983607340013039e+00
    1.2618365529515343e+01 -3.8470266736815146e+00
    1.2448627643679600e+01 -3.7207591891256264e+00
    9.1982781336008035e+00 -1.6783881656457094e+00
    1.5010159738242011e+01 -4.4374126658151916e+00
    1.3724058020480516e+01 -4.0789501616571631e+00
    8.1632565362529110e+00 -1.9955507824174090e+00
    1.4889904896367380e+01 -4.5408303285135130e+00
    1.5696629278847755e+01 -4.9336894012549077e+00
    9.4138098561522803e+00 -1.7336087563412486e+00
    1.2025441775947991e+01 -3.5026200232818607e+00
    1.3700837428165903e+01 -4.2048074377556066e+00
    8.4061205824623233e+00 -2.1097299995948462e+00
    1.1659427483538117e+01 -3.1753507604150113e+00
    1.1534677273467612e+01 -4.1626624489686330e+00
    7.7804230828642869e+00 -1.7829690525259787e+00
    1.0532035435035381e+01 -3.6895025330289797e+00
    9.0156353179323432e+00 -3.0577416364244381e+00
    7.2924210425110774e+00 -1.5053991265013742e+00
    1.2440062463057314e+01 -4.5960594317857062e+00
    8.3666403436047094e+00 -2.0539378230188179e+00
    1.0609456430216575e+01 -8.5600840159187852e-01
    7.9463562792985121e+00 -1.8603107468303179e+00
    7.2399727450195259e+00 -1.6193621276022383e+00
    1.3897793542722029e+01 -8.4970756360406818e-01
    7.9422839340022939e+00 -1.8289219050083048e+00
    7.9181270733246674e+00 -2.6107796425390681e+00
    7.5586920189246749e+00 -1.5589685032632445e+00
    1.1210572993265302e+01 -4.1072567517112777e+00
    1.2662404264940955e+01 -4.7423237660305588e+00
    8.2275932824763931e+00 -1.5507393137809928e+00
    1.0626278762330072e+01 -3.8029493898205233e+00
    7.3739799840052855e+00 -1.6102044867237542e+00
    1.5363454852751586e+01 -8.8355373475142029e-01
    8.4829074527480195e+00 -1.9784281614349348e+00
    8.4016943398657542e+00 -2.1301825207287020e+00
    1.3311396584842452e+01 -7.9900174953958325e-01
    7.2058710963557386e+00 -1.8643463209016504e+00
    1.0291747411275313e+01 -3.8470772466990812e+00
    7.3524699285895689e+00 -1.1813471664027873e+00
    8.9890878147496718e+00 -3.1100706313426816e+00
    1.0576876126475618e+01 -3.8231441238542843e+00
    8.1501517024459424e+00 -1.8730851666630641e+00
    9.6622866046529872e+00 -3.3092265053758347e+00
    7.3705199441058484e+00 -1.8340783453863816e+00
    1.5050790688353672e+01 -7.3912490133266295e-01
    7.4009056848124573e+00 -1.7502710985947441e+00
    7.7265655896203489e+00 -1.9767474532537710e+00
    9.3888055491257596e+00 -8.1305128306740915e-01
    7.3633478006310451e+00 -1.7127830010467346e+00</input_scale>
  <output_scale>
    5.2631578947368418e-01 4.9999999999999994e-01 5.2631578947368418e-01
    4.9999999999999994e-01 5.2631578947368418e-01 4.9999999999999994e-01
    5.2631578947368418e-01 4.9999999999999994e-01 5.2631578947368418e-01
    4.9999999999999994e-01 5.2631578947368418e-01 4.9999999999999994e-01
    5.2631578947368418e-01 4.9999999999999994e-01 5.2631578947368418e-01
    4.9999999999999994e-01 5.2631578947368418e-01 4.9999999999999994e-01
    5.2631578947368418e-01 4.9999999999999994e-01 5.2631578947368418e-01
    4.9999999999999994e-01 5.2631578947368418e-01 4.9999999999999994e-01
    5.2631578947368418e-01 4.9999999999999994e-01 5.2631578947368418e-01
    4.9999999999999994e-01 5.2631578947368418e-01 4.9999999999999994e-01
    5.2631578947368418e-01 4.9999999999999994e-01 5.2631578947368418e-01
    4.9999999999999994e-01 5.2631578947368418e-01 4.9999999999999994e-01
    5.2631578947368418e-01 4.9999999999999994e-01 5.2631578947368418e-01
    4.9999999999999994e-01 5.2631578947368418e-01 4.9999999999999994e-01
    5.2631578947368418e-01 4.9999999999999994e-01 5.2631578947368418e-01
    4.9999999999999994e-01 5.2631578947368418e-01 4.9999999999999994e-01
    5.2631578947368418e-01 4.9999999999999994e-01 5.2631578947368418e-01
    4.9999999999999994e-01 5.2631578947368418e-01 4.9999999999999994e-01
    5.2631578947368418e-01 4.9999999999999994e-01 5.2631578947368418e-01
    4.9999999999999994e-01 5.2631578947368418e-01 4.9999999999999994e-01
    5.2631578947368418e-01 4.9999999999999994e-01 5.2631578947368418e-01
    4.9999999999999994e-01 5.2631578947368418e-01 4.9999999999999994e-01
    5.2631578947368418e-01 4.9999999999999994e-01</output_scale>
  <inv_output_scale>
    1.8999999999999999e+00 -9.4999999999999996e-01
    1.8999999999999999e+00 -9.4999999999999996e-01
    1.8999999999999999e+00 -9.4999999999999996e-01
    1.8999999999999999e+00 -9.4999999999999996e-01
    1.8999999999999999e+00 -9.4999999999999996e-01
    1.8999999999999999e+00 -9.4999999999999996e-01
    1.8999999999999999e+00 -9.4999999999999996e-01
    1.8999999999999999e+00 -9.4999999999999996e-01
    1.8999999999999999e+00 -9.4999999999999996e-01
    1.8999999999999999e+00 -9.4999999999999996e-01
    1.8999999999999999e+00 -9.4999999999999996e-01
    1.8999999999999999e+00 -9.4999999999999996e-01
    1.8999999999999999e+00 -9.4999999999999996e-01
    1.8999999999999999e+00 -9.4999999999999996e-01
    1.8999999999999999e+00 -9.4999999999999996e-01
    1.8999999999999999e+00 -9.4999999999999996e-01
    1.8999999999999999e+00 -9.4999999999999996e-01
    1.8999999999999999e+00 -9.4999999999999996e-01
    1.8999999999999999e+00 -9.4999999999999996e-01
    1.8999999999999999e+00 -9.4999999999999996e-01
    1.8999999999999999e+00 -9.4999999999999996e-01
    1.8999999999999999e+00 -9.4999999999999996e-01
    1.8999999999999999e+00 -9.4999999999999996e-01
    1.8999999999999999e+00 -9.4999999999999996e-01
    1.8999999999999999e+00 -9.4999999999999996e-01
    1.8999999999999999e+00 -9.4999999999999996e-01
    1.8999999999999999e+00 -9.4999999999999996e-01
    1.8999999999999999e+00 -9.4999999999999996e-01
    1.8999999999999999e+00 -9.4999999999999996e-01
    1.8999999999999999e+00 -9.4999999999999996e-01
    1.8999999999999999e+00 -9.4999999999999996e-01
    1.8999999999999999e+00 -9.4999999999999996e-01
    1.8999999999999999e+00 -9.4999999999999996e-01
    1.8999999999999999e+00 -9.4999999999999996e-01</inv_output_scale>
  <weights>
    <_>
      1.0187510386280996e+00 2.3735218122504151e-01
      -1.7315062268583920e-01 2.8736472154940471e+00
      -3.1889500271492266e-01 1.6050755888114034e+00
      -1.1714624894689123e+00 -1.8691096765007722e+00
      -2.9756582998000600e+00 -3.3967427425822028e-01
      4.6838098852860099e-01 6.8808251549738153e-01
      8.5900744894767039e-02 -1.0188082063858013e+00
      -1.1885251455557682e+00 2.8483299354605868e-01
      -2.9569747154191900e-01 5.2235974937928809e-01
      -1.4847909356858835e+00 8.0076807679676210e-01
      5.9619123609075952e-01 -1.1458641990346397e+00
      8.3433684007027914e-02 6.5779640722067600e-01
      2.1520364571683834e+00 -1.6887581986471278e+00
      1.6320959625168512e+00 9.4012280875715049e-01
      5.5811870575788869e-01 2.2813684255264555e+00
      2.2146653260042040e-01 1.3586067284290702e+00
      -5.2598911197155918e-01 2.2293384513451281e-01
      1.5627359757779320e+00 9.7460709933076550e-01
      -1.3232638980200122e+00 9.9197475871330276e-01
      8.3858092009263252e-01 -1.2013577191716558e+00
      1.0514425904385998e+00 1.4979744293845101e+00
      -2.3658766376805718e-01 3.1836264245315027e+00
      2.4610476524628289e+00 -5.5938112359403762e-02
      1.4543205482202604e+00 1.3611529137977729e+00
      -1.4497170779774633e+00 1.3988910311103069e+00
      -1.2740541641734655e+00 1.2378253506831831e+00
      2.5729158671999591e-01 -7.2368037545709440e-01
      5.9806042500324985e-01 3.5896308230277246e-01
      -1.9088139729154645e+00 1.0281447242070423e+00
      3.9163911205406737e-01 4.3139857489692518e-01
      1.2655325250922782e+00 -2.2195163636720570e+00
      6.8709911336199669e-01 1.1148014315164635e-01
      -4.1362284246389558e-01 -4.6223100021408385e-02
      -3.9018951475061221e+00 1.3253628884750153e+00
      -4.6755033041559840e-01 1.9798748498857079e+00
      -3.4166712262781623e-01 9.2656557461526812e-01
      -2.3156679865060461e+00 -2.1040709887269133e+00
      9.2896774086787159e-01 -3.7094228290973641e-01
      -2.7814816614690780e+00 3.7477873342397988e-01
      1.4389599526555819e+00 -1.9623915559450966e+00
      -6.8120650813524986e-01 3.8486408771145320e-01
      5.0271918272599037e-01 1.1431699120677867e+00
      1.2432761300782282e-02 -8.2923178740847048e-01
      -1.4342771748827883e+00 1.9693821181739590e+00
      -7.6731054398123208e-02 6.8370536352719402e-01
      -6.1129627478655157e-01 2.0009212141282084e+00
      -3.1790404915162253e-02 2.6648373647854480e+00
      -9.0883349232797228e-01 1.7779705007633817e+00
      1.9312800945251418e-01 1.0177973589007555e-01
      -3.6595755813696118e-02 -5.6100248520706020e-01
      1.3823311121378503e+00 3.4874486356311440e-01
      1.4412455329988469e+00 2.6066848107618540e-01
      8.4340020234868129e-01 -1.0742432112920035e+00
      -1.2201422982904178e+00 3.7295035047541025e-01
      6.0088359087663890e-01 1.5406028891308349e-01
      4.0422637685178914e-01 -1.2328356042804147e+00
      2.9612976940721922e+00 -3.0820945628689655e-01
      -2.7441558531542773e-02 1.0829462542663748e+00
      4.6884938698779455e-01 -1.0675683342106426e+00
      9.1936811424922871e-01 -2.0987548813833418e-01
      1.0256689686153719e+00 -2.4557014421156795e+00
      -5.9208364588166085e-01 1.0687259710903794e+00
      -3.3131153753965337e+00 -1.6713353893231653e+00
      -1.3096958822404836e+00 2.6398023380911934e-01
      -3.2719088672443913e-01 -1.0263947546956220e+00
      3.8640857408199625e-01 1.8207707219809459e+00
      2.6155878496696818e+00 1.2480709367941956e+00
      -6.3978069645486224e-01 2.3555674289365185e+00
      -2.7025398319777874e+00 3.4035218234988003e+00
      3.7439744183679124e-01 -2.8764144276430215e+00
      -6.5700667088440579e-01 3.0526295097575118e+00
      1.7238537057376397e+00 -1.7243975206087225e+00
      6.3405941064361437e+00 -5.3237094545687347e-01
      8.7151623849379778e-01 -1.0233635937539736e+00
      1.6824956752932749e+00 -3.8745274118649758e-01
      2.4378286778149952e-01 1.4777368862253568e+00
      8.0289258434791677e-01 6.2137588586293913e-01
      -1.6985916168635806e+00 -1.8369371505594130e+00
      6.0843910326224204e-01 8.7357329414873619e-01
      2.0769886576413703e+00 1.6777743659586847e-01
      1.1336862671891921e+00 -1.3001477373653687e+00
      -1.1189208293812195e-01 1.1424204308610793e+00
      1.1939536129109467e+00 8.4190113476458595e-01
      5.0397077588200401e-01 -7.1291312089966097e-01
      -1.4486846431811804e+00 1.2058057610876223e+00
      -5.5948974242102087e+00 2.3351826552257712e-01
      -1.5313639810517596e+00 -1.7775159244839909e+00
      1.8905987928878179e-01 -2.1264728988315318e-01
      -1.6971999501120660e+00 7.2391679983903856e-01
      -2.7304662449661160e-01 9.0770525173592298e-01
      -8.5598669509584777e+00 -8.0856086071670330e-01
      9.0291377249191551e-01 -3.9131234872998294e-01
      -1.7793896325958585e+00 -9.9354831650698264e-02
      -1.4890701441051719e+00 4.3818349868837098e-01
      1.3185411913621159e-01 4.8982330702429868e+00
      6.2053550348840569e-01 1.1581667131068478e+00
      2.8837059723847651e+00 -1.3063610460208737e+00
      -5.9794751906955457e-01 3.0404708539962428e-02
      1.3058158297135596e+00 -1.5139734213668150e+00
      7.6611100683073946e-02 2.1222047040280030e+00
      -2.1249791286548331e-01 1.2141060750488184e+00
      4.4078048239077638e+00 2.4784876570879824e-01
      2.7323352875198221e+00 6.2107833805587653e-01
      4.1420638869585724e-01 7.0266979434467491e-01
      2.3198051047216553e-01 -1.4198707748665118e-01
      -6.9464307482477994e-01 3.1481909172118133e-01
      -3.3773968203645766e-01 -8.2623313632850381e-01
      -1.6602176952864728e-01 -7.6292607140236668e-01
      -1.1019696124000367e+00 -1.4323038126744603e+00
      1.1039429018882339e+00 -3.5306786593848491e-02
      -4.4263777107663821e-01 -1.1001257514394831e+00
      4.8956020369769621e-01 -2.6289553425555914e+00
      1.1166757865257516e-01 -9.2474631937519614e-01
      -8.7066980664654381e-01 3.6162585787798279e-01
      -1.0930846299344499e-01 1.0583843573950231e+00
      -5.6284019162992105e-01 9.9807114192518775e-01
      -4.8203177519796941e-01 -1.1368879636146654e+00
      1.1314752223623776e+00 8.9145358255645943e-02
      -7.9049131561785047e-01 -2.0299277208032071e-01
      -2.7686965771143029e-01 4.8457494837930398e-01
      5.2376552859116876e-01 4.2434693810659181e-02
      -2.5415221249970854e-01 7.2847556580993289e-01
      -4.3387971565050892e-01 9.8787965381342033e-02
      5.7090935023177702e-01 -1.7734901807998833e+00
      8.6494032307797775e-01 2.2291134089737823e+00
      1.0739936755722312e-01 -6.8053633553837908e-02
      -7.9193893394955617e-01 9.9355866040821250e-01
      4.2404462864058756e-01 -1.7336494529639492e+00
      -1.9886828106587282e-01 -1.6429017560297396e-02
      1.3005118494057555e+00 -9.9180787179910246e-02
      5.6418565201891036e-01 -8.0464107060902768e-01
      -6.5245990807287557e-01 -4.2230428913406071e-01
      -6.2997981102220091e-01 3.8558656963133869e-01
      -9.8491304812786540e-01 9.3062957220167331e-01
      -5.3694708638990096e-01 -1.2222230116946273e+00
      6.4594061111582668e-01 -1.4953334057564269e-01
      6.9744609401021507e-01 4.2367498764189909e-01
      1.2992914814780746e-01 4.7161556378906233e-01
      8.8990917586380969e-01 1.0407942720950516e+00
      3.0986248188392690e-01 5.5173319582524272e-01
      1.7584575849063981e+00 -8.9079545332516122e-02
      2.5260586361471465e-01 -4.8503349336407175e-01
      -3.1757443588109596e-01 -4.7007442998032151e-01
      2.9694101916282728e-01 5.1371889753737354e-01
      -2.7573003356394798e-01 -1.7348932574190195e+00
      1.8142862158573325e-01 3.2983964195038001e-01
      -1.2436679451821315e+00 -7.3645652075450219e-01
      -2.4082882756209198e-01 -5.1775359648701813e-01
      -1.1668436012582886e-01 -6.5557124061064254e-01
      1.1455985825148509e+00 1.6132628304477215e-01
      -4.5553244704943696e-01 -7.0074462424990924e-01
      -2.1576639733164048e-02 6.9186504989892861e-01
      3.3572920374945213e-02 -3.0669087146161189e-01
      -1.5993915376675569e+00 -8.3221448024489275e-02
      -8.6081725229863271e-01 1.1959208826550820e+00
      9.2289089680711020e-02 2.8204366391661068e-01
      -4.2948097394620782e-01 1.3275802253375993e-01
      1.1881262112375657e+00 8.7912271698317793e-02
      -3.0241269174044452e+00 -5.7521743264050484e-01
      -4.7626447858680077e-01 5.2905200631226135e-01
      5.3184667833634847e-01 4.9124087454482745e-01
      7.3489691754322350e-02 1.6491405115886903e+00
      -3.9411040030548022e-01 1.1695084918656857e+00
      1.3328110802917681e-02 -9.0543504232575261e-02
      3.3521394020930784e-01 -3.6461658594341299e-02
      -2.2058731777107160e-01 2.9691991867354006e-01
      4.8814009773460981e-01 2.6279456406679624e-01
      -2.4327145871933784e-01 -3.6978012096645796e-01
      -5.6236950779130268e-01 4.5356111881336292e-01
      1.0068038134783932e+00 2.9481800699509902e-01
      -7.9234630587249466e-01 -1.1661126692703185e+00
      -5.0322667433600443e-01 -1.3626926600088936e+00
      2.0536440520534813e+00 2.6250431042319531e+00
      -1.1795494164788369e+00 -7.3619139555156166e-01
      -3.4778672468965817e+00 1.1534726134279755e-01
      2.8256687492351312e-01 1.5231249311492510e+00
      -5.2845607571941411e-01 -1.5942024384761500e+00
      -1.7230376941312164e+00 5.8176145485616435e-02
      1.6191694947016649e-01 1.4366560133959001e+00
      4.4894059171862166e-01 -2.1380587287259500e-01
      3.6202917427123393e-01 -2.2003654482317767e+00
      2.5979156000186632e+00 -8.8590412891278758e-01
      2.0708160764335157e-02 1.5270925560261808e-01
      -4.3314493106929930e-01 -5.5601656372600883e-01
      6.8157878222402912e-01 2.6805524124745954e+00
      1.1661851757167296e+00 8.5735831025582343e-01
      -1.2666054300040130e+00 8.7212469549941374e-01
      1.6605423821327441e+00 1.4112474289019168e+00
      -1.5439689117519322e+00 2.7542730362525036e+00
      -6.5873322525390399e-01 -3.4293864900824855e-01
      2.5240454949832150e+00 -1.4070348599577762e-01
      1.7102113093114297e+00 1.8632007848761889e+00
      1.9845587335895587e+00 7.2792888586728388e-01
      5.1745910466666212e-01 6.0630758837005849e-01
      3.1208875369809913e-01 3.8560841350704739e-01
      2.6755959040724236e-01 -1.8738805563528573e+00
      -1.6134840757878175e+00 -1.2774437195547134e-01
      -2.1277278973745212e-01 -4.7789303152667015e+00
      -4.9128519359890865e-01 2.4399293415897025e+00
      1.0849523543064148e+00 -4.4076970743041116e-01
      4.6935808163309561e-01 -7.0868556332636862e-02
      -1.1463951905591110e+00 5.5205383965839405e-01
      2.4039966148874345e-01 -3.4680702662519665e-02
      -2.0077138896322442e+00 -7.1199889333195632e-01
      4.5452228185808680e-01 -1.7128212890494203e+00
      -1.4815704463009320e+00 -1.0883587507999931e-01
      -5.2797585329610548e-02 1.9323023298020852e+00
      1.0164569826504730e+00 -8.5444059657057903e-01
      -1.4507024917472613e+00 -1.2631870265204401e-01
      -1.0103377499990576e+00 -9.0312782050902696e-01
      -9.3286363422741070e-01 -6.0869642980734717e-01
      8.9175921294704175e-01 -9.6333935188589304e-01
      -1.2549695935445067e+00 1.0600957147262242e+00
      1.2066185532140907e+00 -6.1534127962430007e-01
      -5.7351747490708656e-02 -1.2132943740268436e+00
      1.5234223635536914e+00 -3.9020027131021034e-01
      -1.1592939333860615e+00 8.6949068091290371e-01
      1.4633163372266395e-01 -1.0594586409934002e-01
      -6.0283136997650311e-01 1.4400043593696326e+00
      8.6933578539291134e-01 4.9070657317629851e-01
      -1.0563609280915853e+00 2.0250968847720760e-01
      2.0226037500277924e-01 7.7448672074410030e-01
      -7.5108399833254225e-01 4.4463250228940021e-01
      4.9478332457715329e-01 1.6908678577256719e-01
      3.1053848704370873e-01 5.1583866455487692e-01
      1.5327774295106147e+00 1.8929692795081494e+00
      1.5120679596880136e+00 1.1175578637686665e+00
      -8.3756206619719431e-01 -5.7662629756635519e-01
      -6.1354369488254956e-01 7.7497159806428884e-01
      -5.0701095483018621e-01 3.9019854407586649e+00
      -1.6389364110570015e-02 1.3796711149266943e+00
      1.3091396073978174e+00 2.6175110628380943e-01
      4.3747776619197543e-01 -1.0326648831163512e+00
      -1.0217879540120498e+00 -1.1070598026916485e+00
      4.8412906324149024e-01 3.6839910386128749e-01
      -1.1376715329476015e+00 -5.7422054395027511e-01
      1.6854565651159045e-01 -7.3352754244144969e-01
      -1.8479426004790451e+00 -3.5893564359212604e-01
      -5.4504910343892321e-02 1.8883244888329218e+00
      7.0512294453730906e-01 -1.6266100924408604e+00
      -3.1317554650287000e-03 -3.3676267387201453e-03
      3.2371234214332062e-01 -3.3717753961999941e-02
      -5.8137013723749309e-01 -1.0824697644437699e-01
      8.3312679738073292e-01 -5.1257504103879759e-01
      -2.7086077249659490e-01 -6.1728549936496180e-01
      1.9042266708667388e+00 9.3002654241774252e-01
      7.1394705891316468e-01 -1.3975090284193021e+00
      5.7760116131025843e-02 -2.8015094787545793e+00
      1.2785795277387701e+00 -1.0786630280419567e+00
      4.2300798110955429e-01 1.3540200888993389e-01
      1.0862405609238324e+00 9.4780667167090893e-01
      -2.7758562964730393e-01 1.6557916819152547e+00
      -5.2282904726408053e-01 -9.4585922484161988e-01
      5.1451057550600435e-02 -4.3809410208097671e-02
      7.4371987210965174e-01 3.3647642536756184e-01
      -1.7456378284913379e-01 2.6185295647296003e-01
      -4.8797087418980467e-01 7.2463527834844732e-01
      -3.7383164760137094e-01 3.9203489803018732e-01
      -7.6535624081800502e-01 3.1816905417086128e-01
      1.6313245393450695e+00 -1.1097016528944331e-01
      -2.6523769985194529e-01 8.2808156400565402e-01
      -6.7703199621278110e-01 2.9977038314772880e-01
      -4.7037464546701013e-01 -5.4092854756965547e-01
      -3.2672452469438101e-01 -8.4703344854818952e-01
      -5.1392002024728767e-01 -1.2636337129529880e+00
      -1.4748056771115092e-01 -1.4334240308149596e-02
      -1.4065922217396367e+00 3.0682873446913415e-02
      -1.8467973385741987e+00 6.1704159338989528e-01
      5.0275020484464994e-01 -8.3072360169789894e-01
      -5.3957226370448030e-01 -1.1004738945094452e+00
      -1.4296165268720398e+00 1.5366755475975916e-01
      -1.0344525678334564e+00 3.1239232967992231e-01
      4.0376130065476812e-01 6.0182677555196951e-01
      -1.8150634086966559e+00 1.4527588825422375e+00
      -3.6949288091979299e-01 1.9353699011312655e+00
      -5.6669063912790285e-01 -1.0751660162605172e+00
      -1.4218920399059007e+00 2.0740231443017496e-01
      2.5959276012810178e-01 8.9420887069571053e-01
      -9.8814206570453034e-01 -2.2579390520219849e+00
      -5.6171089831205645e-01 1.2166937932097477e+00
      -7.9637528881570574e-01 -2.2504567009553300e+00
      -1.5729964850483353e+00 3.7560647066629786e+00
      1.6645145660188385e+00 -2.7759788033154593e+00
      1.7658173336045915e+00 -6.0202950235237074e-01
      -4.5808629419238350e-01 1.4510746175311781e-01
      1.1991097544704670e+00 -2.8279827370188393e-01
      1.6896998837565289e+00 1.3266244355239023e+00
      1.9624978476161412e-01 5.3341959187613519e-01
      -5.4683015163803056e-02 5.9634393139867237e-01
      1.1155622917946741e+00 3.8307969789612994e-01
      -2.5191326780949401e+00 2.7425514120253678e+00
      -4.0332290829417666e-01 -8.8887140588810343e-01
      1.8217097463674237e+00 1.3865163742423359e+00
      2.3126972862750601e+00 7.9502126741214318e-01
      1.3388355988470441e-01 -1.3546852611464127e-01
      -8.6342739387207612e-01 6.4341950669844761e-01
      8.1719073658225075e-02 -1.5356627751427565e-01
      -8.8541031926983216e-01 -6.6048647987925513e-01
      -7.7064094667124361e-01 1.5122836079927402e+00
      3.4942864695708542e-01 7.9262484715692061e-01
      -4.9826142842202531e-01 3.7415136726198001e-01
      -4.8945618629015314e-01 -3.0115888568182375e-01
      -1.4271363337471772e+00 1.3952707134258138e-01
      2.4878354701546576e-01 5.7875840292210579e-01
      -1.5559422366397284e+00 5.7361611981289884e-01
      -2.2230810084857011e+00 5.0379432753705966e-01
      -3.6809950714774536e-01 -5.5806873988613026e-01
      -1.7593805087148486e+00 3.1909912246276173e-01
      1.3813228101576405e+00 1.4364369225924523e+00
      -1.4880234328660560e+00 -5.4037933159392171e-01
      -3.3124819274067580e-01 5.7860173536498583e-01
      -1.0524933908424869e+00 -1.6375206584990543e-01
      5.1303730999281794e-01 3.3839589352145577e-01
      1.3177639264777080e-02 5.3642292201801563e-02
      -3.0464362368905673e-01 1.5318479906535620e+00
      -5.4162421916210368e-01 -3.7202030085626242e-01
      2.2941903465160314e+00 -3.6953186942337624e-01
      1.2927021433719130e+00 -5.7739734518609427e-02
      -4.0407307220592792e-01 -6.0713099043174024e-01
      2.4576318599517575e+00 1.3912145246104903e+00
      -3.8416759049622832e-03 1.8648084892321417e+00
      6.5329930017138826e-01 -3.0396885579543487e-01
      -1.1197233156590103e+00 -2.1008324449521165e+00
      1.0762509130148610e+00 1.0605820405438577e+00
      -2.6217628194334046e+00 4.8204134534493032e-01
      1.8796070686767843e+00 -3.7412369891837871e-01
      3.3388065262733808e+00 1.1511878012587046e-01
      2.1770269120915592e-01 5.0145257919192399e-01
      1.4416244251622918e+00 1.9596597198170973e+00
      -4.5173605887163443e-01 4.8275809925837437e-01
      -3.3546444885369303e-01 5.7566626545137507e-02
      -1.3362721930569157e+00 7.6347896799650761e-01
      -1.2876801009204980e-01 1.5970980696122701e+00
      1.4104552397854151e+00 -2.0303881176051006e+00
      -4.8857924954756327e-02 4.7040923097569803e-01
      -3.8102609022051254e-01 -4.9731704880052041e-01
      -1.9963391579993499e+00 -1.3639453115335489e+00
      -8.2698044626814360e-01 4.4846138414444242e-01
      6.0054717796297208e-01 1.3108828168269121e-01
      -1.7247376089080158e+00 -1.0731670898503569e+00
      1.0580628073108302e+00 -7.1352812144035482e-01
      -1.1554338121654198e-01 -1.1367252673320027e+00
      9.2567077126751240e-01 -6.9688055287536044e-01
      7.8443736646845263e-01 6.7220674142062634e-02
      -6.4961724772699281e-01 1.4790791078179011e+00
      -3.2060440610107588e-01 -3.3678496513711931e-01
      1.1687832838134677e-02 -8.4300997720593096e-01
      7.1928006318619719e-01 -3.8924568753006705e-01
      -6.2716225507921386e-01 5.4308965178660851e-01
      9.3613041058080337e-01 7.1254046157549633e-01
      -3.5860032829501948e-01 -4.0791219175980546e-02
      1.2833524323175016e+00 -7.2732331690779672e-01
      -1.0152725669006724e+00 1.1430530567379926e+00
      5.9509372822112327e-01 1.2960956257221663e+00
      -1.9896155093862453e-01 -6.0412922045075527e-02
      -1.3381851948225520e+00 3.3095208276473623e-02
      -6.8369067037846210e-01 -5.4697358756360337e-01
      6.4109801305672912e-02 1.1460955298816269e+00
      1.3793310572692756e+00 -1.0481580179411436e+00
      5.1747996612463099e-01 -2.3596821414285710e-01
      -5.0300022018246893e-01 -4.5698034871066905e-02
      -5.3057414179662706e-02 2.6449452273767310e-01
      -1.0516236714642110e-01 2.6097737765902346e-01
      1.3430281111819380e+00 -7.3646393394296339e-01
      2.4617651649110850e-01 -6.7325151828122085e-02
      -6.8480467840133386e-01 -1.4274542611804325e-01
      1.5036615977865631e-01 -4.9727885427559937e-01
      9.3802515920401941e-01 -1.8328905071601828e-01
      -6.4030351127929441e-01 -1.8666202976871487e+00
      -1.7367818245833733e+00 -8.2721893367390908e-01
      -7.2159440172306422e-01 5.9385628754107544e-01
      -5.8569269631258825e-01 -5.3656836455928870e-02
      4.7513399514407939e-01 -2.0303557913422879e-01
      -1.0295989488499864e+00 -4.4416346008540053e-01
      4.8910038982428100e-01 -2.1615676628342233e+00
      2.5824581305827671e-02 4.1413832194161955e-02
      1.4979997611502738e+00 3.1917923048752153e+00
      3.3652445912708390e-01 -4.6960383234494529e-02
      -2.8841506329634153e-01 1.3818112344247429e+00
      -1.3852535901716692e+00 -4.0861635206479097e-01
      -1.6939401569916932e+00 6.5169135636027609e-01
      1.3378161210117727e+00 -9.5669004945248937e-01
      -5.8577137284735092e-01 4.2900800820680268e-01
      2.2662599005244006e+00 -1.4557742032087915e+00
      -2.0938156950151514e+00 -3.2426694015026336e-01
      1.2761680336315575e+00 -3.2018931522965701e+00
      -1.2021187068283632e+00 8.2229764767986741e-02
      3.5530455968992664e-01 1.4306338047570508e+00
      1.2226259272171542e+00 1.3212498623324436e+00
      -8.1568616889524641e-03 7.8241932150022386e-01
      -3.6046169953437865e+00 -9.1271968473964404e-01
      7.0633270755752353e-01 3.1860536043989600e+00
      -2.5896965490452333e+00 9.8211497269260983e-01
      2.1038915774669551e+00 -9.3229995082294503e-01
      -9.2638310413201075e-01 1.6602404351863959e-01
      5.7397440549808310e-01 1.4505803955990519e+00
      1.8123335575028618e+00 2.3537867862896902e+00
      1.2771364534422043e+00 5.1504591240642239e-01
      -4.4541517740973507e-01 7.4543204376574068e-01
      -2.1099441936706356e-01 3.2990634905881930e+00
      -9.2004628147153633e-01 1.1866781912039388e+00
      7.7632990939721502e-01 -2.0217544202398523e+00
      4.7626872231753986e-01 -1.4184545995076021e+00
      6.7822391241021449e-02 -1.5173690347208177e+00
      4.6708055607565035e-01 6.3058471304036547e-03
      -4.1861778541544958e-01 -6.8292513667492380e-02
      5.2046357857129766e-01 -2.6126772458833486e-01
      -1.0805107248613663e+00 -1.4549486294631970e+00
      5.3976814936830542e-01 -2.0848348519496449e+00
      -1.0828750420743711e+00 1.3137385482085151e+00
      1.6516962010349663e+00 3.8846416947257695e-01
      1.0334123294562334e+00 2.1337646117740454e+00
      5.9615160026667935e-01 2.2322254419286035e-03
      -4.8382468070589497e-02 -1.5086768067782603e+00
      1.2900525043261715e+00 3.3024854117619622e-02
      1.2866903143530948e+00 -1.0616136631649322e+00
      -5.4355378913117736e-01 -2.0682960152087890e+00
      1.6161734040977931e+00 -3.4222977726409898e+00
      -6.9095801257831135e-01 9.1863360162142560e-01
      -1.3556940511155309e+00 -3.6203357933970154e-01
      -2.3215296733740964e+00 1.9880292264195101e+00
      5.7135521894068442e-01 3.3012428265377691e-01
      -7.5727697034081143e-01 -6.6849746483991968e-01
      -8.3432326976195448e-01 6.7436987851411345e-01
      -1.8009601030061135e+00 -1.3843457059796660e+00
      -1.3478659687845613e+00 7.3000095965249256e-01
      -9.5292761293560768e-01 3.7250187599000402e-02
      1.0948448068023602e+00 7.4554676050722613e-01
      1.9699631115294511e-01 -7.6744754171687357e-01
      -3.4075517393086556e-02 -8.2371327823657678e-02
      -4.0828512789243865e-01 5.1781073414616741e-01
      -3.6523591500612418e-01 9.4525550576899778e-02
      4.8073915297509795e-01 -8.0670237482877438e-03
      1.3507926736056366e+00 9.3983971028964863e-01
      1.7812133039619746e+00 1.9549154904233101e+00
      6.4949247204422855e-01 -4.9755980410998069e-01
      1.4265792562895203e+00 -5.8760617535623483e-01
      6.7838908443786206e-02 1.0889248471431747e+00
      7.8472410495085720e-01 -1.3315298150550634e+00
      -1.4843055830306633e+00 1.2029744802464160e+00
      -8.8298512340834834e-01 -4.3704174957603764e-01
      2.3921613128687045e+00 1.4279557895817499e-01
      7.4662719798170074e-01 -1.5449211310553836e+00
      -5.6047242455301138e-01 8.1497961445287170e-01
      1.2929212640567707e+00 9.9527700160309729e-01
      -1.0061617110417967e-01 -1.3683692041324488e-02
      -4.5685636442762529e+00 5.6135461867122327e-01
      -1.3269975765890216e+00 -2.3587377173069732e-01
      -5.8433597423214878e-01 5.7623448933815480e-01
      3.3806390683469612e-01 4.5068334836644885e-01
      -9.7703548174982502e-01 7.2430544519476792e-01
      6.9112045145339607e-01 3.6279702817935755e+00
      -1.1417951817835352e+00 -1.6324843472553576e+00
      3.8697294390528619e-01 -1.4898531817586072e-01
      -1.0818984878843465e+00 5.3238076147631785e-01
      -3.1038673897692043e-01 -1.5642879308841158e+00
      5.6841561835258902e-01 7.2583242007758886e-01
      1.1448940003877455e+00 -1.0576655174896823e+00
      -3.6501786486480403e-01 3.2603624865683900e-01
      1.8249167197198601e+00 3.5201434679152743e-01
      7.5655884725069744e-01 9.8148569932470453e-01
      5.3043755695346406e-01 -5.3243761971711456e-01
      5.5353265783474404e-01 -1.0528601420066108e+00
      -7.3342936805970649e-01 -5.8808697223553386e-01
      3.2531602393998820e+00 1.1655462314385576e+00
      1.1146229128458942e+00 -6.5707925718526938e-01
      -2.1825032420799653e-01 -5.1932042687088231e-01
      -4.4061807977779538e-01 9.3148943252301233e-02
      -4.9746118292571656e-01 -2.1625723335247797e+00
      7.7001596672800099e-02 -1.4344500248580474e+00
      -9.0144089877748201e-01 4.0910185984299130e-01
      -5.5255015700448773e-01 -2.8492312603165582e-02
      -7.4876365246496934e-01 2.2456796825082062e-01
      -1.3643764461090052e-01 -1.1195380920348934e+00
      -1.0460647450952104e-01 1.1113938172826765e+00
      -3.1767824450535032e+00 1.0160866773577498e-01
      -1.4480887132676856e+00 -8.9686264401448668e-01
      -2.3399187683957154e+00 -7.1893258323429599e-01
      2.8401336409579175e-01 2.0913676964426138e+00
      -1.2688860474362496e+00 -9.6436792786812753e-01
      -4.5113715612379562e-01 -1.4012519554092586e+00
      -7.3705776781598997e-01 2.8494383476117613e-01
      2.0496534129458202e-01 1.6462346793881211e+00
      3.0580754045523434e-01 -2.5688733018778748e-01
      5.6502412274962976e-01 2.1729279827046022e+00
      1.3693310595531114e+00 -1.9025064245503425e+00
      1.9368718341700755e+00 -8.1312168071116964e-01
      3.5814644881452522e+00 -8.9143994152574280e-01
      -7.6590910371033594e-01 -1.6882950607947211e+00
      1.4843016982909338e+00 -1.7531216839254709e+00
      1.7175526174681066e+00 1.8256304062815754e+00
      -2.8187608804046982e-01 5.5442919001361202e-01
      -8.9146135643331426e-01 1.0570502780012492e+00
      6.3231184080456437e-01 1.1944748263417582e+00
      -8.9115198222265168e-01 2.0606402184370438e+00
      5.2315656489868814e-02 -9.3026806627831804e-01
      2.6165180713566691e+00 3.2356110358319001e-01
      3.6201127757867324e-02 8.0400797631911824e-01
      7.0406019823963384e-01 1.4322379206277000e-01
      -8.7746744797416065e-01 -3.4557721739470554e-01
      -1.2854046823822343e+00 3.0438362788643142e-01
      -2.6163904642007472e+00 4.4333772601093999e+00
      -1.3601912869274120e+00 1.0802423209502832e+00
      2.8343824463445216e-01 -2.2568578614840424e+00
      5.3362133133215339e-01 -1.3452040206758387e-01
      1.9837519505828896e-01 -6.7266221408650595e-01
      -3.8558075121259888e-02 -1.9321799319667299e-01
      -2.8094638047000786e-01 1.7355010477477362e+00
      1.8983767161422460e+00 1.4049713749891963e+00
      -5.3777660746192391e-01 2.9341097757556899e-02
      9.9652239780267382e-01 2.5516043153373955e+00
      2.1913280786293018e-01 -8.7481748123966285e-01
      2.8750491327045333e+00 4.6075935075462260e-01
      -1.3148749398118562e+00 -2.5696788530994280e-01
      -5.2166477999368599e-01 1.5943065523154225e+00
      -1.2639329607946839e+00 -2.7137744090332018e-02
      -1.1426282018859013e+00 -1.4447033316576645e+00
      -9.1899427863995509e-01 -1.1888346692039287e+00
      -7.8353808500515598e-01 -6.2889045832667900e-01
      9.7935349610312294e-01 1.0699630867778802e+00
      7.9697436795830601e-01 -1.0351611654437975e+00
      -1.3528713790903804e+00 1.7421800012587525e+00
      -4.8166365512106131e-02 3.9388327459566432e+00
      -9.8747631930189550e-01 -3.1665123413110843e+00
      -2.2248782165205792e+00 3.4013310708586308e-01
      -8.5708053575892329e-01 -3.9010578385672923e-01
      -4.2567127580439656e-01 2.3773949799178875e+00
      9.2072659491124184e-02 -2.5144690071691583e-01
      6.4099528306299425e-01 2.4383236162936325e-01
      1.5881911722934821e+00 9.3344175859911893e-01
      7.4431037954608592e-01 -1.8216783929514828e+00
      1.2478078665313594e+00 1.8899133905521937e+00
      2.6312893882136912e+00 8.7594727424178076e-01
      4.1955896737869347e-01 -2.8706888567925098e-01
      -1.4268139255692027e+00 1.3077142261247446e-01
      2.5323398426536765e+00 1.9099466649163506e+00
      -1.5716090992837062e-01 -2.7036785897715241e+00
      5.7610542116399377e-01 -1.1217788348950881e+00
      3.9169981571492762e-02 1.5248248980906820e+00
      -1.0072318101410980e+00 -1.2409825581625182e+00
      -4.5732394626989603e-01 2.1197284813496076e+00
      -1.5415518606935728e+00 -1.1241221405894413e+00
      -1.6727990158608765e+00 -1.4103927962331457e+00
      -1.7823652383827349e+00 -1.5160078317810162e+00
      -1.6330216794944661e+00 -3.9133389816351516e-01
      -9.3329324589300688e-01 -7.3322194501939075e-01
      -1.7398343170554735e+00 1.3447917788789991e+00
      7.0913988295959074e-01 -1.1257205642518455e+00
      -4.9473222231929748e-01 6.4346196449082005e-01
      2.8231824768490804e-01 1.1754967013887812e+00
      4.2855366440904480e-01 9.3634236710482510e-01
      -4.3706661892338766e-01 3.8139862928099849e-01
      9.1930496294530994e-01 8.0933154883966141e-01
      -6.0799477019751957e-01 1.7247614455035132e+00
      -1.2756656974004330e-01 1.3769328450990608e+00
      5.1639177628674904e-01 -2.5567292190571272e-01
      2.8778531372525651e-01 -2.0489413393631395e+00
      -1.2742902085857015e+00 1.2777288466393821e+00
      5.5147783678244355e-01 2.0828255792202494e-01
      -4.4091318681816138e-01 -7.3720113809214749e-01
      -4.5700726788639200e-02 -2.5752202771316901e-01
      2.5501558926350780e+00 4.7690742844496481e-01
      1.1734685675818982e-01 -1.9439767508976322e+00
      3.3067801872077918e-01 -1.2091569608679074e+00
      -2.9495987973546084e-01 -1.2971249492317007e+00
      2.1472923354029316e-01 -1.5935697977603880e+00
      1.2825143237715306e+00 2.5647841642941133e-01
      7.3010873782969421e-01 7.5618989813687176e-01
      8.7664701043479298e-01 1.1498769319127033e+00
      -1.5018281838433936e+00 -1.1474994016276041e+00
      1.8225935799746104e-01 1.8686837993101058e-01
      -2.7498791846023879e-01 4.7974375722299373e-02
      -7.4403959228828365e-01 -3.6721165610502104e-01
      2.2553927360250745e-01 -8.8694858945477725e-02
      7.0817320086410207e-01 5.3747885599813716e-01
      -1.6377502382190237e-01 9.7002433187749537e-02
      1.0885187008469261e+00 -9.8283958462217180e-01
      -9.3391298263328393e-01 -6.0151814861494279e-01
      -4.3278898388248721e-01 6.0011545771890240e-01
      1.0663987875005749e+00 7.6971508940781563e-01
      -8.4197111037820871e-01 -5.4802928738387591e-01
      -2.3220689963484391e+00 -2.7642795230166689e-01
      -7.7959624083578405e-01 -2.2923253490755000e+00
      -1.9379620599914643e-01 9.9470974110226218e-01
      1.0233067659330208e+00 2.5581722534526563e-01
      8.1915495115206061e-01 -2.2459093468305669e-01
      9.8825236248638570e-01 5.1957595047604999e-01
      -7.9992681890223613e-02 -2.4207676086923411e+00
      9.2040640124128343e-03 -2.5761501750810219e-03
      -2.0575537538781119e-01 1.3381691609760553e+00
      1.1476276115467487e+00 -1.0000595833589756e+00
      -1.2124660104995766e-01 5.5498885678697589e-02
      -1.6126739369814411e+00 9.7526808648161223e-01
      4.5104186852576783e-01 6.5961738965734906e-01
      -6.3620032540244909e-01 -6.8583007730844636e-02
      -5.7826883887705671e-01 -2.8336164702386085e-01
      -2.6240126652435214e-01 7.1920976280634941e-01
      -2.4533951282872033e-02 -1.4537084149918642e+00
      6.2143367097777558e-01 -7.2923004513634238e-01
      1.3695443971463110e+00 -6.8832958185593407e-01
      8.9292105402444477e-02 9.9955880724682189e-01
      -3.1771044430031505e+00 -1.1716896430347963e+00
      -8.1355811593514082e-01 3.9324896894505207e-01
      -1.0206257191433317e+00 1.8964808750269391e+00
      -1.3703309526756140e+00 -5.1062024552498100e-02
      -1.6972330072025590e+00 -6.8886560336289407e-03
      9.2349545913633047e-01 1.1882834793250434e+00
      3.1494987639416814e+00 6.9273419103776668e-01
      -5.0768005720914611e-01 1.0533977629166593e+00
      1.1702105370932601e+00 8.4151972061022173e-01
      -1.9237618565749567e-01 7.5396809566572065e-01
      5.0438377250152189e-01 -5.7492084386689931e-03
      -1.7017511650313205e-02 1.2783919023847921e+00
      2.2273063410768850e+00 -1.5677593704170785e+00
      4.6698671859455664e-02 -2.6078988243583576e+00
      6.3111087291213408e-01 -3.6959002697859339e-01
      -2.3364203118990297e+00 5.3999302646290892e-01
      -5.9079588090591939e-01 -5.5729568181803513e-01
      -1.3984496117151676e-01 -1.3902103814657074e+00
      4.7191849045867396e-01 1.0468177758606256e+00
      -8.8243211212195727e-01 2.5721505525113458e-01
      -3.9403649832940346e-01 1.6539116003277725e+00
      -5.6054402578248408e-01 2.2076678184256043e-01
      4.8391368651913397e-01 -4.2672332661446649e-01
      -5.9608136747065521e-01 -1.4803012536245723e+00
      -1.0439115706520961e+00 2.0076946174388093e-02
      -4.4821520758129113e-01 1.1738740106970360e+00
      7.8433668497187914e-01 -7.8486242816553287e-01
      -3.9810889860692528e-01 -9.3845875235079312e-01
      -1.2194297594527159e+00 9.2628821988639576e-01
      -4.3352261704052591e-01 1.3614733689675770e-01
      9.7835838009910070e-01 -2.8526926132983021e-01
      1.6593797390885492e-01 2.8857466212343380e-01
      5.6824137970504818e-01 4.9154466299947741e-01
      -3.5461955110074972e-01 4.7683586171737929e-02
      2.1820282146087036e-01 -1.6465832004486677e-01
      -6.2038079242950006e-01 9.3112238110859802e-01
      -2.1316688239203355e-01 -1.3654363268179248e+00
      -1.3764466315462514e+00 1.1443022548677069e+00
      1.1507012191587089e-01 -1.0180667600928911e-01
      -3.5929685499570424e-01 -9.3174097722809479e-01
      -4.4167697154785174e-01 -2.5042384298476428e-01
      -1.0387921406309981e+00 1.1268874817375438e+00
      -4.6128069233835156e-01 -9.2260618016499718e-01
      -1.1178122372118893e+00 1.2821055026823200e-01
      -1.6313013559266027e+00 -2.5046058542949712e-01
      -1.2093642582560622e+00 1.4299122869696854e+00
      3.0723688296872298e-01 -2.7144789510686849e+00
      5.5931371621049031e-01 2.0381433042515495e+00
      5.9402138841266705e-01 -4.0673849833193593e-01
      2.7082132748121057e+00 -7.4374605400842231e-02
      8.4048531638070578e-02 1.7188420311946648e-01
      -1.0658143930630702e-01 -8.2578728918023903e-01
      -9.7299377201563370e-02 1.8416436051109278e-01
      5.8199407701674644e-01 -3.2050246983081077e-01
      -4.8088913776745468e-01 -4.9279678638597957e-01
      4.8076589089205302e-01 1.7940454869836864e+00
      1.0159171269570144e+00 -9.6238193366267699e-01
      1.0320369384776114e-01 -1.2365714236874266e+00
      -6.5741556488801944e-01 -1.4965469822307618e+00
      4.6453459059919044e-01 -6.3700904048009277e-01
      -1.9209509419004636e+00 -4.0124601788343328e-01
      1.2491873450072124e+00 6.4850306141810987e-01
      -4.9100660010976072e-01 8.4465488209433470e-01
      -1.1755337300301194e+00 -1.0531138352619522e+00
      6.9707795468614020e-01 -8.9236604819893905e-01
      -6.5340344468991995e-01 4.9377441785191140e-01
      -5.1940446738033985e-01 -5.8209037212763315e-01
      -1.2867004810046041e+00 -1.2450699069782513e-01
      -1.0573417992235150e+00 -7.3211511617661262e-01
      -2.2475942746276359e-01 4.6839495159623490e-01
      8.6809253875656606e-02 1.2607979065347721e+00
      1.0715393747490736e+00 1.4534375636790338e+00
      9.7858502569236117e-01 2.5025100257154085e+00
      -7.8738976346234479e-01 7.2360266641149351e-01
      1.1434328276985271e+00 1.8357652225872625e-01
      1.9723734153464581e-01 -1.1191397820527151e+00
      2.3058177873944019e-01 1.3066952025015566e+00
      -1.0532917448622328e+00 -1.3715307183647640e+00
      3.0487522623212593e-01 2.0460199885941369e-01
      -1.7469675607118509e-01 4.3293533330314099e-01
      -9.4483044542934425e-01 2.6243769639466650e+00
      9.2208722049834069e-01 2.3651294800528539e+00
      -2.9673923940958208e-01 7.6484674827137134e-01
      2.4665823584791200e+00 5.0785394295253661e-01
      -3.9679770230622874e-01 1.2128199614980895e+00
      1.6303321097334895e+00 -1.3996292073734862e+00
      1.0406932335986849e+00 -8.7364102934341703e-01
      1.7082873416670159e+00 3.2314013252957997e-02
      -7.0199072324472145e-02 -2.5904019651020505e-01
      1.5144347588389042e+00 3.6984096545444695e-01
      -2.0008883228266139e-01 5.7579488023426606e-01
      -1.0175618018315247e+00 2.8462117816525248e+00
      1.0439084973825226e+00 -7.2785193578124430e-01
      -3.1737073066277266e-01 -2.9245887343873750e-01
      -1.8959463224046180e+00 -5.0013014031544656e-01
      -5.5918071543323722e-01 1.3201423013758922e+00
      1.6238668501754085e+00 3.1602033863375500e-01
      -9.4936446813514652e-01 8.5209226602584842e-01
      1.7598647150911897e+00 -4.0737585624724276e-01
      1.2991834393852419e+00 -6.3735039360299350e-01
      2.5015602102379924e+00 -2.2549755128428475e-01
      2.0923542526794855e-01 9.9385085403897500e-01
      -1.4967792167795402e+00 5.2174024624844229e-01
      1.2950236919962321e+00 -2.7382391435387793e-01
      -6.5190321249777505e-01 -9.5104314442010585e-01
      1.1051420232124087e+00 5.1470841403297807e-01
      -1.0305890474175130e+00 -1.6394656618262410e-01
      5.6699518581736863e-01 3.2990749302690303e-01
      -5.4065899351298563e-01 4.3723495591178119e-01
      1.2318016147982505e+00 -1.5032471695107630e+00
      4.7899698163776977e-01 -3.8177532509115647e-01
      -4.3299600331299543e-01 -1.3676325493740085e+00
      -1.6055993681756562e+00 -1.9045510104500094e+00
      2.4901784115796928e+00 -4.8354726844942651e-02
      1.7080873215505930e+00 -5.0013130135632000e-01
      -1.5051744333880899e+00 -2.9083896987710106e-01
      1.6652885059136298e+00 1.1911418239547666e+00
      -4.5101414559724011e+00 1.3479460607019087e+00
      -1.3314230668739019e-01 -5.6351058686574540e-01
      5.5751033916890425e-01 -2.3583626212103832e+00
      -1.0784273145564580e+00 -1.1692914486934358e+00
      -3.1651191329286301e+00 4.8617972530767500e-01
      8.6386994285771124e-01 1.9493483872361719e+00
      1.3645627490641199e+00 -2.0471449803697634e+00
      -3.9216602367279230e-01 7.4838180916857755e-01
      -8.6220625110580529e-01 -1.0888177870002971e+00
      -1.2858717156471151e+00 5.1662886920159334e-01
      -2.0930221455213567e+00 8.8803401963349005e-01
      1.4669230595907881e+00 1.3895194336619194e+00
      -3.2718118430239871e+00 5.8132605113652258e-01
      -8.6276288436169923e-01 -7.1823520109574701e-01
      2.4607282588389428e+00 2.1677197575278959e+00
      1.3103076019354474e+00 1.7094078557600696e+00
      -1.2424276846787297e+00 1.8241211952164835e+00
      8.6370988281280836e-01 3.4526063435192760e+00
      5.4744108381093270e-01 -2.5886760856248126e+00
      -8.0319505351027631e-01 -1.0853037668959185e-01
      -4.2909320344045115e-01 -1.5965319164654401e+00
      2.2548248260880586e+00 -1.2152851907304627e+00
      3.0148561262676088e+00 -1.7324961995113817e+00
      1.3073500257353985e+00 -1.5819050210060639e+00
      2.3983620665122932e-01 -6.5663500699928024e-01
      -7.7188566021824734e-01 1.5327650631988989e+00
      -1.6023213681244111e+00 1.4260379078502656e+00
      -1.5953685799239652e+00 4.3010756402563866e-01
      -8.3796671697944303e-01 -9.2346653834457659e-01
      -8.1910259209640757e-01 3.1766492577643777e+00
      3.6339489885122278e-01 -3.2524490554575743e-02
      2.1305434712375306e+00 -1.1897256036373705e+00
      -3.1686992886399662e-01 -1.8142151074940340e+00
      2.5781379812660737e-01 1.8232774454005285e-01
      -9.4192022860632751e-01 1.8474488787829400e+00
      -6.3336395320161318e-02 7.4446266077022638e-01
      -1.5729045893344740e+00 -2.0976455943442747e+00
      -5.7932656512452552e-01 5.1948837064973963e-01
      -1.1195950139975641e+00 -1.2432347663131411e-01
      -1.4709488243728774e+00 1.4920868663942302e+00
      -2.0293503621910456e+00 -1.4806371853027354e+00
      6.3490396262512439e-01 -2.3340360583794260e-02
      -1.2071145708897524e+00 2.7092122269826895e+00
      1.2826452943016973e+00 -2.0318894370618281e+00
      2.7052014772304683e-01 -1.4252984271468103e+00
      1.2509132951728938e+00 -8.3505644766056564e-01
      9.5929661588270276e-01 2.3616749174700577e-01
      7.3152237021049915e-01 -2.3064057030938018e-01
      2.3147083401915944e+00 3.2167708673464981e+00
      4.9394188581056053e-01 -8.9838882812098930e-01
      -7.0203646614795756e-01 5.4528689020847876e-01
      1.5032922291378832e+00 -6.1033497413248816e-01
      -3.3262625523234168e-01 9.8662262091599201e-02
      -3.5731035566125163e-01 -1.2513818993970114e+00
      7.0493800100001469e-01 1.2951808757973631e+00
      -5.4125354270560144e-01 -7.9607125945384083e-01
      -1.8388749150865855e+00 -6.3094685338223752e-02
      2.3946936105282781e-02 -2.4819074777533352e+00
      -4.5514857107998674e-01 1.4569609416843152e+00
      1.0915340799631501e+00 -9.0840671946677209e-01
      -1.1254998234512879e+00 9.8532780480108784e-01
      -9.0359344048661672e-01 -1.5531406131345327e+00
      -1.7619026203537913e-01 3.6765144145910805e-01
      -6.5008257813641657e-01 -1.1635010994816055e+00
      -4.7522373817313335e-01 -1.0016853119762508e+00
      -6.4194417399780523e-01 -3.3009666566867391e-01
      2.1514002360980671e+00 7.0575140307124729e-01
      4.0466398999347908e-01 -5.8479618252774712e-01
      1.0955683882702802e+00 -1.5408609953764671e-01
      4.0871182335454207e-03 4.2222864350457900e-01
      -8.7374043263810486e-01 1.4531725608607311e+00
      1.0492598269447582e+00 3.3589548611753767e-01
      1.9930172314421628e+00 1.0410087092563880e+00
      -2.1768238701834816e-01 6.1504965803269707e-01
      -1.5199101437614879e+00 4.7159812539921458e-01
      -7.6016037759370625e-01 -8.4152953279086296e-01
      1.0207555193210369e+00 -4.3454328037207907e-01
      -1.9168093781089640e-01 -1.0767135638872967e+00
      3.3680508965084688e-01 -6.4657632163681933e-01
      -8.4637090736371157e-01 -4.2391284256559486e-01
      1.1897368762952909e+00 -1.9417097874921432e-01
      1.0248613444617695e-01 -3.0897258034500785e-01
      7.9560546299662460e-01 -1.0674147139858030e+00
      -7.9643204193692252e-02 -2.1491816397216437e+00
      -4.6715173915426469e-02 -1.1362865214260041e+00
      -2.2469400224491003e+00 -1.4669064248124484e+00
      1.4345131669851964e-02 1.5437522589428898e-01
      -8.6591299491023177e-01 -1.3002566817721071e+00
      -5.4404115777318729e-01 5.6133091734934304e-01
      -1.4477591656650104e+00 -5.5274868845792546e-01
      -3.6106494980193538e-01 8.6238024839986060e-01
      -2.2947344434859049e-01 -1.2121401618317227e+00
      -2.4507115681005365e-01 -7.0044871356961150e-02
      6.3448743319233236e-01 -1.1560767283830358e+00
      1.8322706756641186e-01 -2.3151861188611295e-01
      3.6221357652041203e-01 -7.9017450066670880e-01
      8.0137660207537520e-01 1.6119386420422221e-01
      -1.5391816811677108e-02 -1.8423359525318239e+00
      1.9054037655108911e+00 2.2379271109432403e-01
      -8.0360697004118842e-01 1.1001095284460025e+00
      2.6585940270589781e-01 -3.8423998601196202e-01
      6.9458158603246067e-01 8.3953940652585823e-01
      -3.7311865357213865e+00 5.4903812997606238e-01
      -7.0784003368924608e-01 -1.1640953984319049e+00
      2.1580563600783145e-01 4.6909457001320765e-02
      -4.3181525276430827e-01 -2.9965012165873334e-01
      -1.2400086019858751e+00 -1.8705371598410769e-01
      9.7652331465037367e-01 2.3276484763664547e+00
      1.2158631207679673e+00 -2.8223942698649390e-01
      -1.4915686293525179e+00 3.1455674437883441e-01
      -2.5641065622252555e+00 2.0176656557522334e+00
      2.8862094309034669e-01 9.9225986538868438e-02
      -9.7528340916388234e-02 6.3739691753959452e-02
      9.4461461199110064e-01 1.5827130399740312e-03
      -6.1678178705576214e-01 -1.0787927493654264e+00
      1.4257424984388951e+00 3.8135895301122491e-02
      -4.7563027199549207e-01 3.2052425493645678e+00
      6.9959599168792241e-01 1.3674408412455438e-01
      7.5904033686349370e-01 1.0663661927434673e+00
      1.0579175828055649e+00 8.6206393616881916e-01
      4.2223851192292683e+00 -9.3241181403119100e-01
      -2.1454451879506728e-01 8.3373082548740340e-01
      7.1809891451518570e-01 -1.5401671857539875e-01
      -2.5219351239465554e-01 -2.2544248457049716e+00
      -8.7761399850980290e-02 -1.5719510418232920e+00
      5.3606402379185503e-01 -4.9881084348714000e-01
      -6.1685635562319407e-01 -7.0631889828225691e-01
      -7.7883153314049269e-01 -7.2181589701663729e-01
      2.5843191114634156e-01 -1.4141597155238639e+00
      -1.0143474923781144e+00 -1.8980567471766070e+00
      -1.4300630005236858e+00 3.6968751520137377e-01
      -3.7601229171479069e+00 5.4658719459017215e-02
      -2.0320390187273834e+00 4.1100638405563411e-01
      1.0710588086838786e+00 7.3112440229409958e-01
      -1.9296694729302843e-02 -8.6154863135126769e-01
      -3.0964688859579103e-02 5.6335222814786805e-02
      4.1830387206323199e+00 -6.2019211201316971e-01
      -7.7890604451769885e-01 1.1681831957111071e+00
      -2.2374499301185219e-01 -1.0173497696471598e+00
      7.3839342320222545e-01 5.7459122409437213e-01
      -4.7297726727086327e-02 5.7572745367580347e-01
      -1.8786649101351025e+00 3.3873573839293619e-01
      1.3803399534306582e+00 -6.1658543682928824e-01
      7.2377854565926736e-01 -2.2020445451613044e+00
      6.5046315133154864e-01 -1.9641240489953635e+00
      7.1798554047363350e-01 -6.0800320651451700e-01
      1.0310740060929266e-01 -3.9280817454984357e-01
      -9.7257999499453562e-01 2.3573519987078240e-01
      3.3667795965887004e-01 -1.3777761916551731e-01
      -2.5987728409175131e-01 3.3761388679454252e-01
      4.3917994229717255e-01 1.9451079362214763e+00
      3.3501163307580167e-01 -7.7251518845688749e-01
      2.5598624380093005e-01 1.1232347726214900e+00
      3.7188752494165300e-01 -4.1385966520252970e-01
      -4.4039987792894681e+00 1.4970761673431840e-01
      -1.3034489514346390e+00 -1.4430814685411522e+00
      -6.9438162436914430e-01 -8.8051961910052920e-02
      -7.7072908309989785e-01 1.1016552928876810e+00
      -3.3109330855982805e-01 2.1976947878134037e+00
      1.0818860768395268e-01 6.5030096962842043e-01
      1.4005654015711675e+00 -1.9138988677322311e-01
      3.3575823754680606e-01 -1.8947482920291414e-01
      -1.4921279843357851e-01 -1.5449968376884773e-01
      1.0055481479022481e+00 3.6349061275470868e-01
      -1.5236430787337811e+00 8.3523832485003835e-01
      1.8161189313430373e+00 -1.4043689642117207e-01
      3.1557536845573058e+00 9.8906999789862365e-02
      -1.6109887704391471e-01 -1.0966625949613407e+00
      9.9278755850934064e-01 -5.9669021729970084e-01
      7.1370725706371330e-01 2.2964057371868871e+00
      5.0494591728599346e-02 1.5201966554921531e+00
      -2.9680056534780064e-01 -1.7553881265522120e+00
      1.2172086189639675e+00 4.6522082355803618e-01
      -1.6289301004370582e+00 -1.9790884902173460e+00
      -9.9406605091605948e-01 1.1468609125986384e+00
      1.4089300139981737e+00 9.4396771169194227e-01
      4.4678596851482077e-01 -1.1549372293117087e-02
      -1.2489893829745633e+00 2.6699787886161969e-01
      -1.7992272436056502e+00 1.3266647752289875e+00
      7.2774968514036142e-01 4.3275366334358367e-01
      -1.6400492681865395e+00 -7.9228487458690544e-01
      5.0466396539118530e-01 9.5310079882986831e-01
      -1.5143884088401303e+00 1.1634451986514347e+00
      7.2888791398189018e-02 -2.4488571163532730e-01
      3.0552659819383804e-01 -8.7443731146361570e-01
      1.3147494806604634e+00 1.6060677336255429e+00
      -1.0081765196445760e+00 1.9863488466516452e+00
      1.3264215526741371e-01 1.5872438611941695e+00
      2.2142986027201697e+00 -1.6487457770361407e+00
      -5.6333776600622054e-01 1.9619383432772277e+00
      -9.8053296342091201e-01 -1.2866423538998393e+00
      -3.4654697400388201e-01 -2.7387325737924566e-02
      1.7631143155425835e+00 -2.3127749249773339e+00
      9.0330380994009063e-01 -2.9057644618112342e+00
      -9.0677535072038795e-01 -7.3706381928538933e-01
      -8.6958884823523930e-01 1.4006025292430688e+00
      -5.4384114636509384e-01 -2.6213617791028798e-01
      -7.9797734818855992e-01 -9.9557433815833452e-01
      7.9790843682750690e-01 -1.3144400240258867e+00
      -7.4228042275074912e-01 -3.5075681295807176e-01
      9.8335897513801140e-01 2.4197632778719783e-02
      4.7697503718565637e-01 4.5678066880089990e-01
      -8.7243299515405631e-02 -1.5143623301660514e+00
      -1.3538387637571396e+00 -7.8065256679708706e-01
      5.2631672516685075e+00 2.4594543907245014e-01
      -1.6216249845534678e+00 4.1985930876288535e-01
      -1.0922781913882911e+00 -2.3597743283139945e+00
      -2.8101382962450905e-01 -1.2454463750232554e+00
      -9.0979289259650664e-01 -6.0685522765554512e-01
      9.1420010520164352e-01 -2.3001686370077383e+00
      1.5519336578807679e+00 -1.4213989341099607e+00
      1.4594738794482618e+00 -1.0549578519931477e+00
      1.0132894786175750e+00 -1.2162212268091224e+00
      1.8201431503708945e+00 -1.0729401396685339e+00
      3.4961458751921254e-01 9.2497397145497551e-01
      5.3214354760249283e-01 2.1929456020554396e+00
      1.8064630322044166e+00 3.9652956457676963e-01
      -5.0269099765243599e+00 -1.0953361807693849e+00
      -1.3940949578112964e+00 2.6364676897899577e+00
      6.1968982251011839e-01 -3.7789309568804652e-01
      2.0596694022798120e-01 1.4939295881296843e+00
      2.0282917692319651e+00 1.3267535187928834e+00
      -8.0143663666944356e+00 4.8048530902983094e-01
      -1.7718293781742998e+00 -5.8928286779737249e-01
      -2.0079026736343968e+00 -3.5018651723886274e-01
      -2.2569122550359372e-01 3.1736160328704749e-01
      9.0044096135813256e-01 5.8340293356481396e+00
      1.6744745877846570e+00 -7.1646380792333064e-01
      4.7714663612088684e+00 8.1968456571876136e-01
      1.0799076612179805e+00 -6.8908489086533309e-01
      -4.7743795309514064e-01 1.2740635967451357e+00
      -1.8964602978774756e-01 7.7661797127533672e-01
      -4.0678997457737704e+00 -6.1462145353785147e-01
      6.5720108935367154e+00 2.8254432119379624e-01
      -2.6724704036546193e-01 -6.0969692840332479e-01
      -1.2280261802073200e-01 -1.1595683501687732e+00
      6.4685973812619191e-01 -4.3532227575670951e-01
      1.3982228153045304e+00 1.8747511825187066e-01
      -3.0227387622813024e+00 7.0745720912743859e-01
      2.5518512953521921e-02 2.6424953126832795e-01
      6.1744953858204754e-01 -3.2680417346382928e-01
      6.0488221974967338e-01 -1.9072608864650833e-01
      -3.6216196497121944e-01 1.1105492327151467e+00
      -7.7382875287239350e-01 2.3201556235623961e+00
      -6.7171336805663295e-01 7.0283713911952250e-01
      -3.0413653063642032e-01 -9.2795186601009882e-02
      -1.6985734224666840e+00 -2.9448391661794704e-01
      -3.7846510917936776e-01 -2.9184564315438583e-01
      -6.3726268296835809e-01 -7.2588447122072186e-01
      3.7525797095941255e-01 -5.4246453982314435e-01
      -6.9632727570500297e-01 9.7214167208321184e-02
      5.7379497276251046e+00 -7.7818281748925702e-02
      1.4991364061114065e+00 -7.9902159844766818e-01
      5.2546684504983410e-01 -1.4734366838326041e-01
      -1.3227404129680924e+00 -6.9372138217702856e-02
      -7.9117601502852464e-01 -1.6098472767214218e-02
      6.1623760378172037e+00 3.2163943872440309e-01
      6.6170160135042944e-01 7.6094246261606580e-01
      4.2134935478843488e-01 -1.3516513430819210e-01
      -6.8108178890452964e-01 -1.5266664953633899e+00
      -9.8926966909398084e-01 -1.8850347541595531e+00
      -2.0045028284499658e-01 -1.6653419687015871e+00
      -2.2346832537427170e+00 -1.4212664652128866e+00
      -4.9848668953693653e-01 -9.4721048909050823e-02
      -3.6174614348355394e-01 1.3713850029919528e-01
      -4.1523246849488660e-01 -2.1702512750308234e+00
      8.3012697441599825e-01 -2.6934024045100186e-01
      -1.1261415579040289e+01 -1.2125334845350684e-01
      6.9821312567615879e-01 -6.5886607283486553e-01
      -2.5971602242161684e+00 -1.3050338370864665e+00
      -3.5797724974488347e+00 -1.7223511236467162e-01
      5.5492101718903375e-01 3.1344986544046743e-01
      -8.2182010321133490e+00 2.3806336799057175e-02
      -2.2419381727854630e+00 8.2530956773989450e-01
      3.2519223043925111e-01 -8.9422880236745916e-01
      -2.2645542411540522e+00 -1.6526027250997259e+00
      -1.0070397715683759e+00 2.7227417981060356e+00
      -7.2295740747358062e-01 3.3827876778987465e+00
      2.2650093409952960e+00 -4.7994066469843055e-01
      1.7986993239114992e+00 3.8283963870275750e-01
      -1.9711645661571160e+00 -9.7961805481581110e-01
      2.0873779214197657e-01 1.2154820932865837e+00
      2.3876974457680151e+00 -8.3459270876598990e-02
      1.6424781733194282e+00 4.2556848890769533e-01
      -6.8048314587359404e-01 -3.0977950987664266e-01
      2.1159194899780287e+00 -4.3905084199766115e-01
      -1.9467897445903770e-01 1.9326323467677878e-01
      1.8752207035820447e+00 5.8554090040314721e-01
      1.3635362903709054e+00 4.3582183545597702e-01
      2.3951087342686894e+00 4.5614193916909762e-01
      3.8304805216583855e+00 9.3843384357923221e-01
      -8.9421461988825690e-01 -1.2879384679519663e+00
      9.6437314942957131e-01 1.6133066040486195e+00
      -3.6368931256659681e-01 1.7666480747007627e+00
      -1.8581707888491865e+00 -2.0382508442391236e+00
      1.1258327449297774e+00 -3.8358196177334571e+00
      -6.6808620463433932e-01 1.4162113831049918e+00
      1.8230105394472360e-01 4.0660629096862788e-01
      -1.5059843225177225e+00 1.1502459890454280e+00
      -9.4869740584140339e-01 -1.4839123201123796e+00
      1.4655640228440325e+00 -2.6104761668781098e+00
      -5.9421132694128751e+00 -6.6400500881076119e-01
      1.4599537088934438e+00 -2.5558071212549988e-01
      2.1829319800124178e-01 7.5333375025236238e-01
      3.0300673340209288e-02 -4.5049699886805850e-01
      6.1287911469315025e-02 1.3186478518863096e+00
      -2.6241091654042088e+00 1.3605545089607296e-01
      1.3647844846136678e-01 -1.2546409878879530e+00
      -2.5825721730174916e-01 -6.3379844475383673e-01
      2.4061672792948577e-01 9.2445943646620610e-01
      -4.4350931820928857e-01 -1.3161612228547397e+00
      1.1979349573126230e+00 -2.8274704714093013e-01
      2.3293901606704071e-01 3.8745679784809128e-01
      -1.8891805616479918e+00 4.6756140533491353e-01
      3.2912286571248221e-02 1.1426373165319796e+00
      8.4465369649235789e-01 3.8211058124342956e-01
      4.0202620076928278e-02 1.2779229533930350e-01
      7.0363303597259230e-01 1.0097016177626976e+00
      -4.6061917482863596e-01 1.1057227960094608e-01
      -8.3701856928698781e-01 1.8033931876560891e-01
      -6.3023202154688363e-01 7.0722935384223140e-01
      2.5620548965948686e-01 8.1341336879761428e-01
      4.3618970663641604e-01 5.4339736239178615e-01
      5.4393047568702113e-01 7.7813424599260894e-01
      2.0443377853019604e+00 -1.6113861174618119e-01
      6.8580090639499325e-01 7.0269138682209464e-02
      -9.3347212404668223e-01 1.0141802410208482e+00
      -6.4260486432251768e-02 2.0651453491671772e+00
      -7.5528707834942407e-02 -1.5769866613869901e+00
      3.0955831645366083e-01 -1.6454108688779101e+00
      -1.1182282157433896e+00 5.2543237437803090e-03
      4.3132815083580339e-01 -5.6144773405091497e-01
      -4.2221861457767318e-01 -4.0902374041017198e-01
      -2.4232340663123031e-01 -2.6944530493133845e-01
      -1.3870119086883523e+00 -2.8580540436622359e-01
      -2.3846700324785941e-01 -5.8163933216436736e-01
      -1.0804485745680570e+00 8.5085234176491742e-01
      -1.0680199214208745e+00 -6.1315889290896253e-01
      -4.1677730294213533e-01 -9.3443763208486608e-01
      1.4553762100569718e+00 -1.2504557197228208e+00
      -7.5396000820316322e-01 -1.3535794832851922e+00
      4.0522941269252050e-01 7.7557334621014207e-01
      8.1375333422675322e-01 1.3707950679153036e+00
      1.4504844300953346e+00 -1.0804248756736372e-01
      1.0911777580201423e+00 2.7897554126121662e+00
      -4.8440601254025595e-01 3.7978502830486277e-01
      -1.6156745847868699e+00 1.6319622758630605e+00
      1.4966059425549014e+00 7.4224571826527252e-01
      2.6903569534245535e+00 -2.7553878342945146e+00
      -1.3105489514800067e-02 -5.0070848679244118e-01
      -9.6659869105646709e-02 5.2775753294975825e-01
      3.8465858771375949e-01 1.6845614774896886e-01
      1.6631027563269327e+00 -2.2744851053100677e-03
      7.2364950901591352e-01 -1.2437635944061973e+00
      1.3971471276133038e+00 -1.7166697872396830e+00
      -8.7142595532312483e-01 -1.4927441510161934e+00
      -6.3043601073806055e-01 -6.7569413235423537e-01
      -7.0933377830120470e-01 -1.0167730793790308e+00
      -1.1941232279668568e+00 -9.8540165126414925e-01
      1.1802421805138406e+00 -1.0312582744875161e+00
      -1.6449188523259368e+00 7.2694304646320251e-01
      -2.0658529612486261e+00 2.0443025543656690e+00
      -1.4161432743161853e-01 1.9675069299309293e+00
      -2.7357803846397238e-01 1.0618348720602053e+00
      -7.0314283721209125e-01 9.7191614857496222e-01
      1.0670449700916653e+00 -1.5462330732086298e+00
      3.2489758470495111e-01 -1.0040589586170753e-01
      1.3636720195675407e+00 2.7220451658719352e-01
      1.2243503427772582e+00 1.6271440609735188e-01
      -4.1812102180481328e-02 -7.6547058727374917e-01
      -2.7188355052815671e-01 -1.1920559770128912e-01
      -5.6914136945337523e-01 8.6222900641229272e-01
      -1.1027567041526671e-02 2.3794250512723298e+00
      -7.5844447810118532e-01 -1.0140116201369469e+00
      -1.2709996481388661e+00 4.5441601690837924e-01
      -1.4034919106962356e+00 -5.7055126788801402e-01
      1.0743797243251889e+00 -1.6052167315907786e+00
      -1.3165957114377205e+00 -6.5779169665866810e-01
      -7.5549253774205039e-01 -2.6190572087872921e-01
      -9.1766740046047401e-01 3.6463536131397450e-01
      4.4088314799397399e-01 -1.6256070067310233e+00
      -2.0859196175101491e-01 1.1658016771983735e+00
      1.5977400138380746e-01 1.4287507430212976e+00
      -3.2518688387474021e-01 -9.1181432902631177e-01
      8.8141082420412753e-01 1.2007243199694680e-01
      2.5121205292746490e-01 -4.1913099539120979e-02
      2.4518460705376668e-01 7.0660821912291072e-01
      -4.7535760635444659e-02 -1.3891294552040845e+00
      -7.2274345378290783e-01 2.6094623081276733e+00
      1.7407572565794458e+00 -2.5723761712593018e-01
      -4.4578546990977302e-01 1.1724885964952407e+00
      1.7761293359295416e+00 8.2014672815489509e-01
      6.0051613105949597e-01 6.1962474703134740e-01
      9.6182179811562518e-01 -6.8563868122393945e-01
      1.2665109609964464e-01 -5.3051260989681281e-01
      -1.6522032402970938e-01 -1.2231337498943553e+00
      8.4022209223276012e-01 -1.3034133104608900e+00
      1.3219945874450232e+00 -2.3161920953603432e+00
      1.5346800782018058e-01 4.9813101450221647e-01
      -6.4085670040763698e-01 1.4542875053344895e-01
      -3.4388270714027863e-02 -5.2793175539108073e-01
      -1.3967380777226943e+00 7.7099009729397239e-01
      -4.0458202272115784e-01 -7.2777863331622550e-01
      -6.2478310762873590e-01 8.9784203117913730e-01
      -9.2525177256224556e-01 1.1640209190051636e+00
      -1.4677712038322985e+00 -4.2163845097374364e-01
      6.5805114968640144e-01 2.1157398034094166e-01
      5.8924380008929156e-01 -6.2602541765226938e-01
      1.0609014748901804e+00 -7.9552927314797628e-02
      -3.6942502679432493e-01 5.1167092101144862e-01
      9.6557471008337770e-01 -2.8186435045858571e-01
      3.0894534261946399e-01 -2.9377749560133209e-01
      -8.4871097457821909e-01 1.0248688616448884e-01
      -1.6722511947952017e+00 -2.3108446536324098e-01
      5.5500428740889196e-01 -1.2204817176812989e-01
      6.8534182351485329e-01 -1.0132032334734555e+00
      -1.7730739853014130e-01 -1.0270441214454658e+00
      -2.1001937443204755e-01 -5.7315388917973720e-01
      2.7583667064373008e-01 1.3379387403482312e-01
      -7.1734600434380083e-02 -5.9694232546063009e-01
      3.7857569812453404e-02 1.2737330709540669e-02
      1.0208062591859841e+00 -4.3465625059688734e-01
      1.2479318107165587e-02 -2.9362636588839142e-01
      1.1112564374829578e-01 -3.1399622851836273e-01
      8.3460924885277699e-01 -2.9817735016845689e-02
      1.1816807105039107e+00 -1.9146903196477156e+00
      -1.4765642637588210e+00 -3.3002030719143766e-01
      1.7654018825745157e-01 -4.1165116157610364e-02
      6.5003799516830574e-01 2.3323740085429576e-01
      -1.3554337512904626e+00 -2.4793201935392936e-01
      -8.1293024610203690e-01 7.2520634701164943e-01
      -1.0352799163740620e+00 -1.0990894178640562e+00
      -8.2152749959282312e-01 -1.4427725287001452e+00
      2.0048343385299757e-02 -6.1624834597765077e-01
      -6.3557606436658920e-02 6.3470333381072286e-01
      -8.0502284094925292e-01 -5.2512509995581680e-01
      -4.7211114116535691e-01 4.9265308224414717e-01
      9.3789407473851061e-01 4.0424527150585371e-01
      -4.8042769017577119e-01 -7.7931411734179357e-01
      6.0581049140603038e-01 1.0934863220502029e+00
      -5.8359278390813962e-01 -3.2030664268300246e-01
      -8.2971052055857850e-02 -1.8453543782320384e-01
      -3.4599620850211519e+00 -5.2541286696184697e-01
      -9.8277885076114047e-01 -2.4585987001557619e-02
      -5.1876370723786092e-01 3.0457668075599209e-01
      -1.0816135372953015e+00 -1.3412669331026084e+00
      -2.8866089857862143e-01 -6.7394232751650363e-01
      1.1382552222230713e+00 -3.1304596608242652e-01
      1.3232255315503640e+00 -2.0701932755792099e-01
      -9.9160108735276684e-02 4.6118882796410560e-01
      2.6478461429065148e-01 -6.1753466386790934e-01
      1.0990594949601189e-01 6.6935384563365430e-01
      1.0516122525690332e+00 4.4621243825837903e-01
      4.0769497236637259e-01 6.3276946135254675e-01
      -4.8872017816860742e-02 5.2841510475347531e-01
      2.9296917334788191e+00 -7.5723179872624302e-01
      3.4675374117108431e-03 -2.6757342854743188e-01
      2.9578545571353354e-01 -7.7318002805118791e-01
      -8.0443888446329589e-02 9.9130493286069787e-01
      5.4201788525636674e-01 5.4076233087384185e-01
      3.0112585467212054e+00 2.0595630506968635e-01
      -2.2725351912356440e-01 2.9938959753262290e-01
      4.7020755069623173e-02 6.6190074069142857e-01
      5.0514971720957624e-01 2.6361689603238897e-01
      5.9706069875823231e-01 -9.2295566842195043e-01
      -6.0943940564430221e-01 2.3210966153585805e-01
      -7.1451641342816619e-01 5.3804325988573520e-01
      8.4629728714881247e-01 5.2697166052154454e-01
      -7.9501842937231157e-02 -3.8246741853611704e-01
      -7.6144637626696066e-01 -1.6212435476731459e+00
      -8.5795546786082855e-01 3.5334365974375376e-01
      -2.0700072293483718e+00 -5.4702180551779245e-01
      -3.4017910454822969e-01 7.7140199660215003e-01
      -6.1931064580084416e-01 -1.1752564615333025e-01
      -7.1972400500882416e-01 -1.0923379222463874e+00
      -2.4156855877766742e-01 -4.4395156530193568e-02
      -2.0087063767187159e+00 1.0562487842195812e-02
      4.8465758257300812e-01 7.9914666658629452e-01
      -3.2407532814572476e-01 -6.2205401320603682e-01
      -1.2337931764129400e+00 -4.3099483986841275e-01
      1.7367923199330955e+00 2.0207109853066038e-01
      -3.4153701623382443e-01 -7.7102835531353553e-01
      7.2949974554231500e-01 -4.9201313791448115e-01
      6.0089156443576475e-01 6.3927067503494606e-01
      -1.5004063108243445e-02 -6.3719940851230117e-01
      4.4781945126823547e-01 -4.5943962746319955e-01
      1.3927445694728185e-01 1.3831550636367791e+00
      1.0290012124131014e+00 2.9766894459173043e-01
      -8.3018716943712240e-02 4.2687365051357623e-01
      -5.7561678639839164e-01 -3.1361714784853406e-01
      2.9698145538686549e-01 1.8905688349185430e+00
      -1.4331307354247982e-01 -3.3344097561319057e-02
      3.0709102412419909e-01 7.3363608961569293e-01
      6.0139825177574802e-01 -7.1335225683933703e-03
      -1.7677190011364632e-01 -9.2238437777546711e-01
      -6.3175900857463696e-01 3.5884586609449787e-01
      -1.8450698654555864e+00 1.4529603592807985e+00
      -5.1266347727444983e-01 1.0599611813820364e+00
      -2.0768283896010056e+00 -7.8343440979245149e-01
      3.2370557131384016e-02 -2.4601019064636485e+00
      -7.5418711573152622e-02 1.5909995273206836e+00
      1.2185696009221643e+00 5.0921461791520717e-01
      5.8683345709731749e-01 -4.0902925715314215e-01
      3.7379200942337309e-01 4.1555203532846174e-01
      -1.1176131038664279e+00 -1.6647162648667313e-01
      -3.1378466393121496e-01 6.6130113355402553e-01
      5.2136692078300106e-01 -5.0038773029585093e-01
      -1.5095305778634815e+00 -7.8237256771746821e-01
      7.2095870881503243e-01 1.1026187961799239e+00
      6.4823880105358511e-01 -6.4512877791386636e-01
      -4.1321417016046347e+00 7.9146984379226681e-01
      -1.6155706738866920e+00 -3.2317998769901962e-01
      -1.8760339844397320e+00 4.6576011517474886e-01
      -4.4391242757490706e-01 4.8547283638610139e-01
      4.7151521019068421e-01 -6.9933622238262949e-01
      -5.6351513045425905e-01 1.4401026530504252e-01
      -1.2026272768862973e+00 -9.4214403749217024e-01
      8.6022014599535335e-01 -1.0867021720375079e+00
      -3.5209526674619279e-01 -1.1382090596619194e+00
      1.0385970099652269e+00 -2.2375195887245392e+00
      1.1861369777791995e+00 -2.1866786377370842e-01
      -3.7254458865030071e-01 5.0203146670289023e-01
      3.8195208660425639e-01 -1.1385410200494726e+00
      2.5707748042137912e+00 5.6551808540070359e-01
      -1.8500890639327323e+00 -1.0334143241506038e-02
      -1.9242602417886046e-01 -4.0743578470518049e-01
      2.7185224611690623e-01 1.5575275959576160e-01
      1.2926423558507789e+00 5.0173890316286240e-01
      4.0239401700260142e+00 -1.3515725077892635e-01
      6.1670012566147792e-01 1.7784238978626857e-01
      -6.9281695463920587e-02 1.4694518493287219e+00
      3.1533622154498765e-02 2.5818932779330392e+00
      -1.2778628770928304e+00 -1.8085393457089298e+00
      1.1160937826834176e+00 1.8912294538015577e+00
      -1.8569891532710094e+00 2.6945992513612560e-01
      -1.0821813157750461e-01 -8.4945117249913749e-01
      -5.7801343653763448e-01 5.9896153690481524e-01
      -5.6615434079609750e-01 -1.0154761130563350e+00
      8.9042002079927807e-01 4.4917609040016071e-01
      -2.9982025695734880e+00 -5.2874959651333364e-01
      -1.7239487120123526e-01 1.8197012592450534e+00
      -3.3058858442089405e+00 -2.0395261148961010e+00
      -2.5021845469872974e+00 -1.3706656305189494e-01
      6.3632536866775169e-01 -1.3824847652278953e+00
      1.8738330622649337e+00 4.7648944879265548e-01
      7.6263169851849211e-01 6.4025189233771240e-01
      1.0944459818097978e+00 1.0354922857032804e+00
      -4.4487177937232603e-01 -1.2971047168018350e+00
      3.2188168048971422e+00 1.9651782468729224e+00
      -2.8355248836392919e+00 -4.8536376362063638e-01
      4.2069352319520803e-02 1.5573377370500414e+00
      4.5670473258988714e-01 -8.0863237055883452e-01
      -1.1305876407381941e+00 -6.1888316564814083e-01
      4.3714207803109456e-01 -4.0066118059227535e-01
      2.6130637306029212e+00 4.0241077437307959e+00
      -1.9097589897959593e+00 -1.1754452841137211e+00
      1.2063582068409888e+00 -5.7690726470864939e-01
      -1.7202937756177288e+00 -2.5115710400349207e+00
      -2.7249765652501985e+00 -2.2697230584007890e+00
      7.7401739408702996e-01 -1.2435858362386842e+00
      3.8046221513954648e+00 -1.1620088123690844e+00
      -4.3490500030605028e-01 1.9297324486022838e-01
      -1.7482531134240378e+00 -3.3510665030332540e+00
      1.0278819053476749e+00 1.2731056801581275e+00
      -7.4478068999599856e-02 3.0447924958023851e+00
      1.0198549673800850e+00 1.1461685437174540e+00
      -1.9464244119150036e+00 -3.0000739557496376e+00
      8.1053787219509799e-01 -8.1806842235410804e-01
      -2.9440127395409950e+00 2.8963176802019155e+00
      1.9564789280910686e+00 -1.1856339990725695e+00
      -9.7324944071687503e-01 6.4825697221317835e-01
      5.8369452731576321e-01 9.9087455157482907e-01
      2.3137769079631050e+00 -2.0210795400022579e+00
      -4.9713388297815309e-01 -1.6594125292303570e+00
      -1.3362418572254027e+00 1.4274858588294597e+00
      1.6158045621116426e-01 -1.1104556981516744e-01
      -6.7743955606788608e-01 2.9736600505614946e-01
      -9.4350876597146072e-01 -7.5657722173737352e-01
      2.3968536764244064e+00 1.2198078946526012e+00
      4.3914812207745230e-01 4.3402407451764607e-01
      5.9068539341956783e-01 -5.0516123402269153e-01
      -1.3361626724182156e+00 -1.0212147788294421e-01
      -2.8970605793845711e-01 -2.0026522853837966e-01
      -6.0566342398711370e-01 -1.5978230477446831e+00
      2.1379918369818310e-01 -3.4647872472040098e-01
      4.3223207588163615e-01 3.3246090749054258e-01
      1.4451595633550345e+00 2.6005422365530592e-02
      -5.6346958876219511e-01 7.4448479424888048e-01
      1.0100340495994722e+00 -2.6233436608068278e-01
      -5.4140951509808721e-01 -9.2333557779387797e-03
      2.6971902300242973e-01 -6.0316824210633702e-01
      6.7434102525716821e-01 4.4916003455794484e-01
      -2.4752981976607855e+00 5.7118529607667801e-01
      -1.7907147728415229e-01 -2.5602128167536653e-01
      6.7372908000547904e-01 -1.3031341172444241e-01
      1.0648056160586203e+00 4.1963538204360790e-01
      -5.2945951280780146e-01 -1.1002534676726758e+00
      -3.6947076681461394e-01 -5.5455317971797174e-02
      -1.3071694661149162e+00 1.6052673026998446e-01
      3.8759741050085467e-01 -1.3567065924646993e+00
      9.3309569275173115e-02 2.7559343990694840e+00
      3.0116638516323513e-01 -1.8878297409518423e+00
      -3.5722761648644485e-01 2.2037138488897523e-01
      3.6217933293523186e-02 -1.0306763216096686e+00
      -3.7393518370158918e-01 3.3896681147993879e-01
      -8.5424578752518132e-02 6.8048311582355425e-01
      3.3049047610842701e-02 -1.3209356251650017e-01
      -1.5174685044726105e-01 -9.2402328097549294e-02
      6.9929550879155900e-01 4.1641870979771435e-02
      -1.5640805842101111e+00 6.1187253410369680e-01
      -7.9929661424347853e-01 2.5459530767703825e-01
      3.5046260270064862e-02 3.9274077557909381e-01
      5.8955885465664648e-01 -4.6667404787883637e-01
      -8.4836405284588312e-01 -5.1849843622012470e-01
      -1.0000537653427033e+00 1.1527816907645083e+00
      7.3256127120085257e-01 -8.9859684512623961e-01
      -5.7988503989100004e-01 -1.4950569765156643e+00
      7.2143743477083619e-02 -6.1569677012601809e-01
      -1.1739163436369360e+00 -6.3051335838119682e-01
      -9.6447549025645651e-01 -4.3843321137617564e-01
      -7.0344722694326400e-02 -5.4856214345272991e-02
      1.7577561621810786e-01 -1.7178646916094731e-01
      -5.0867264075950114e-01 -5.1488386868749403e-01
      2.0071979658207825e-01 -9.4115818460569201e-01
      1.1230232167796179e+00 3.4959231190962925e-01
      -1.0887646749240372e+00 -9.7367446256858659e-01
      1.1286808256640122e+00 3.9967693911534469e-01
      -1.4081133372259020e+00 -2.2452439640750493e-01
      7.6416031139251850e-01 3.6530060643746143e-01
      4.0419237379065448e-01 -2.8665048970874851e-01
      -1.0592492180163984e+00 -3.1817246404817846e-02
      -4.9829955644544144e-01 3.8633106817656399e-01
      -1.2563457442345476e+00 2.9706520799287101e-01
      -4.3066254276932558e-01 2.1809309599065920e+00
      -1.7583094930087667e-02 -1.1436212832789781e+00
      -6.8355179986074224e-02 9.0419326675162881e-01
      -6.9655128252590048e-01 -1.1963433925263095e-01
      -3.4792901417752709e-01 4.5792233742454003e-01
      5.4418385567520899e-01 -3.5508392123347449e-01
      -1.7691178202725683e-01 2.7644657372943121e-01
      -2.9118053569549746e-01 4.0777311651535197e-01
      -1.3684612514609389e+00 -6.7120515425240956e-01
      -5.6554071495868785e-01 -7.1150716565451033e-01
      -2.6669167932426552e+00 1.8054023515114492e+00
      5.6136754999732828e-02 1.3890990118709516e+00
      4.8557507270738587e-01 -2.1083856246303048e-01
      -3.9787674786015956e-02 4.2081878368055858e-01
      -7.2141155232734333e-01 2.2128973374867844e-01
      -9.5945342000210398e-01 1.9382612577246561e-01
      -8.1257392273780571e-01 2.0493569729971400e-01
      -4.1631337327546938e-02 -9.0813651025254560e-01
      -1.0541533941349006e+00 -5.7993813604627309e-01
      6.5627196181339539e-02 -1.3256870305101991e+00
      6.9317834859330685e-01 -8.3714321496861077e-01
      1.1916391793167451e+00 5.0932711003507625e-01
      1.0886566867563880e+00 3.0025084631160925e-01
      2.8398462363685861e-01 -3.1061423226408869e-01
      1.5231258139292054e+00 -1.2904139614564372e+00
      1.0974947581749617e-01 -5.1571048612829506e-01
      3.1357506452254191e-01 4.0182024659970533e-01
      -4.2542533659179744e+00 1.9134729800631982e+00
      1.4195817785707834e+00 4.9271342904051975e-02
      1.7222276713898694e+00 -4.0269457124689517e-01
      3.0390243019253652e-02 -1.6585574453996238e-01
      -1.8492048023310235e+00 7.6586406636044602e-02
      -6.4066932377961250e-01 5.3796440612816021e-01
      -4.6056677307134752e-02 2.0054640896940670e-01
      -2.1198174988623539e-01 -4.9741110264851535e-01
      -3.2188020725959998e-01 -1.2624220011453517e+00
      3.5147398087819604e-01 -1.9671802020760962e+00
      4.1762258876751884e-01 1.9504216758155131e+00
      -1.8556690194788247e-01 -4.9667923626027743e-01
      4.1193459745157507e-02 3.4011237691645740e-01
      -5.5852260353282224e-01 -9.5271244792373166e-01
      -3.5156358999298767e-02 4.8006893982619708e-01
      1.5028526059064313e+00 4.7824247600454006e-01
      -1.8273130114054789e-01 -9.8309384243295606e-01
      -3.1542375752834295e-01 -1.2166307201946991e-01
      1.7296765017370694e+00 7.8770379817264125e-01
      -7.2582329145653735e-01 -8.5057602203696259e-01
      -6.0693638926070481e-01 7.2805285481065879e-02
      6.8864308188127255e-01 -5.6967939599530848e-01
      -1.0048455703443455e+00 -2.3975927134268882e-01
      7.1733608082427180e-01 6.0068381208455113e-01
      -2.0511393204172984e-01 4.3075005096321156e-01
      -2.0884913522720527e-01 -3.4414273914927751e+00
      1.0952484714561025e-01 -1.1958087128479584e+00
      6.6475522491629924e-01 -1.3288891051712429e-01
      -1.2019526668372367e+00 6.9932005833673716e-01
      -5.1820343794904333e-01 -1.3334500273195979e+00
      2.8068234961770028e-01 -7.5802568307377127e-01
      -7.4640608020144139e-01 -9.0621581454017952e-01
      -1.4566154624028420e+00 2.2728328568186484e-03
      7.1738203355351704e-01 6.6165918552404807e-02
      -1.5767007636882691e+00 -9.4454359961194012e-01
      7.8305681850390174e-01 -3.8541884082060873e-01
      4.4411645535525462e-01 -1.0855367214091652e-01
      1.4913627322798271e+00 -8.3653670999955554e-01
      1.3947639603724810e-01 -5.9542772275708300e-01
      -4.8326702314783371e-01 -3.4316205171059572e-01
      8.2985745554086443e-01 4.4073812039890449e-02
      -4.7619826652670871e-01 2.0073605343888415e-01
      1.4739089869285410e-01 -1.4285649509493537e+00
      -5.2932364783318420e-01 -8.4373546940219335e-01
      1.1115503055261517e+00 -1.4625978787313701e-01
      4.3373959160338643e-01 -3.5782194523330907e-01
      2.4248038738258954e-01 -1.0872840705166367e-01
      -1.1541405914908591e+00 -1.3034727991144761e+00
      7.6685114078507344e-01 -1.6560788726141873e-01
      -2.1870041582644803e-01 -9.1040433235280704e-01
      3.4258416789459678e-01 1.2118565500031331e+00
      2.7596962108908268e-01 -2.0858131034552825e+00
      -3.1113936883673504e-01 -1.1875707573739391e+00
      1.1716704008751435e+00 -7.2130215091908845e-01
      -4.4122262494165387e-01 7.9866315779116459e-01
      4.3750892668031016e-01 -1.1405576253092378e+00
      2.1326479245331703e-01 -2.0784891249502835e-01
      -1.3552473757370470e-01 -9.3389351356686479e-01
      -2.2261580993893001e-01 -1.0406479207353856e+00
      -7.5557889334383621e-01 6.2479210589664624e-01
      -1.1069957777029191e+00 5.9371825664984212e-01
      1.7912659574185341e+00 -3.5147656982976333e-01
      6.3548098251969976e-01 1.3731385624551551e+00
      1.8635090899834547e-01 -4.2764931267967471e-01
      -9.6050415746556803e-02 -1.2046819763560153e+00
      -1.0657623967885310e+00 -1.1781562380444046e+00
      2.0924291950098445e-01 5.1499077320463038e-01
      5.6968527546673464e-01 -2.6248473901549912e-01
      -1.2398493159172552e+00 -1.3803755615857494e+00
      1.1022454148666854e+00 -8.2732792208381284e-02
      3.4546570217331468e-01 -4.7637448395825183e-01
      -6.6372799372119562e-01 -7.2564254759112046e-01
      -3.7373524757172966e-01 -2.6051219281810367e-01
      5.6735147652665618e-01 -4.1602552523656727e-01
      1.0909218886882030e-01 -2.6737403607080568e-01
      5.0452041429881023e-01 -1.9982934473649048e+00
      2.8873133807265160e-02 -2.6139387865159711e+00
      1.4356843550980425e-01 1.0912448077366916e+00
      -1.0863002767676527e-01 3.7255176872586643e-01
      -2.0478904054231442e-01 -2.0332641737010604e-01
      1.4683499717837434e-01 1.6493089229472319e-01
      -1.1847897369437419e+00 -1.2901612593973657e+00
      5.0376180535769999e-01 -8.8860140937460430e-01
      1.0371897082535853e+00 -1.1478492009932896e-01
      3.2512041255872381e-01 -6.5443238108048574e-01
      -2.0384595484172920e+00 1.1815795546932167e-01
      -4.7584074745166560e-01 4.8049056135510698e-01
      -1.5487955741413395e+00 -1.0265337026383976e+00
      1.4000083918334957e-01 9.3430784681074508e-01
      3.2075867271344866e-01 4.2345238133050611e-01
      -4.0838832174098616e-01 7.1634858391733847e-01
      1.1782538621821275e+00 6.7798318364900334e-01
      2.2861296581578987e+00 1.1288305449839253e-02
      -6.6213396897392462e-01 -2.2919081431856294e+00
      -3.5646120672777587e-01 -1.5500003010705110e+00
      7.3512819173227925e-02 -5.9014334149058734e-01
      -1.7054646690377789e-01 1.9309888774159212e+00
      4.9326081085339635e-01 -2.0619145927978071e+00
      9.3796993360761893e-01 1.2843737314358619e+00
      -2.4793828639592501e+00 -9.0809766120702373e-01
      -9.0583159446913741e-01 4.5227151923026832e-01
      -2.4329025161563171e+00 5.3585206630746407e-01
      -4.5370769813404932e+00 -5.6888429562176746e-01
      -8.7162684544188906e-01 2.0418204333622117e-01
      3.0905002969835120e+00 -1.1142067632763257e+00
      2.0445223481885542e+00 -1.1583931604365796e+00
      4.9292413155957765e-01 -2.7215515055261736e+00
      8.4066198106514245e-01 3.3636602383384080e+00
      -8.7790001665906581e-01 -2.6610906621961805e-01
      1.0308395649667748e+00 1.7459471416071155e+00
      -2.5976809738008272e-01 -1.8821059756689806e+00
      3.0872812051052617e-01 1.9269426014233870e+00
      -7.4622777312840449e-01 -1.4985031971859870e-02
      -5.3494770918914858e-01 -9.7641713489573145e-01
      1.1536399711155525e-01 7.8555536596380537e-02
      -1.0482189261961257e+00 1.2045569439182271e+00
      8.5651154230388105e-03 -1.7100792209088624e+00
      -7.6039526713899253e-01 -9.2395111312053868e-01
      1.5060622641847210e-01 2.4597892555437695e+00
      1.7495507056592150e+00 -2.4875748392541519e+00
      1.6700490564543367e+00 1.6098144398766896e+00
      3.1934270819035421e-01 7.3143954672071809e-01
      1.7237867950808923e+00 1.5558348483038456e+00
      8.5474965734059716e-01 1.4878822502480431e+00
      -1.5160528264969060e+00 -5.0465164689825670e-01
      5.5801749990204141e-01 -8.0550394169578343e-01
      8.5526177831516847e-01 5.8918252982504049e-01
      -7.9795950241088809e-01 1.2579344011749380e+00
      -9.5914846227496886e-01 -4.7799318716018008e-01
      -4.4587052076355986e-02 -8.5080681678769879e-02
      -1.0110343168769652e-01 -1.4138626092534643e-02
      2.9428450706556453e-01 -2.3871982565859069e+00
      2.4947226156690121e+00 -1.9159265595728843e+00
      -2.2113480146734599e+00 -9.6466292077449800e-01
      1.6114189141312494e+00 -1.4695812673101760e+00
      -1.8197988007088897e-01 -2.0366502776506277e+00
      -2.0370628341278061e+00 6.1690672749644815e-01
      -2.4544730432761921e-01 2.1668208574472370e-02
      1.6269212283993550e-01 -2.0876014312626853e-01
      -1.3977435177983264e+00 8.9069373664732310e-01
      -1.0842228255947822e-01 -6.5815745173463294e-02
      1.5303423692235405e+00 6.0633617642208493e-01
      7.4929847858466991e-01 1.0016995852016215e+00
      7.1134388635637558e-01 3.6406723041490635e-01
      -2.6262908251441230e-01 -6.6625696731417650e-01
      -8.8715581206298591e-02 7.1282914450901025e-01
      -7.9511269832214104e-01 -3.7442149140148950e-01
      -1.0986301944976491e+00 -9.4954990017745078e-01
      -7.1929348520959324e-01 1.6174805709512347e-01
      3.6197603851223635e-02 -9.5967097414843094e-01
      -1.5483782960599339e+00 3.8691292222062884e-01
      1.0299333760283320e+00 -4.0266237651561515e-01
      9.3360703680272794e-01 1.6925542628451302e+00
      1.5693816850637392e+00 -2.7928853573603298e+00
      1.0465071224898115e+00 -2.1065575238204031e+00
      3.7070018031720953e-01 -9.2553095572966460e-01
      3.3789412642977883e+00 -1.1320152288161733e+00
      -6.1951981850250537e-01 -4.6448766946364317e-01
      -2.9321429677759903e-01 2.4670107286242415e-01
      -1.1738762799340057e+00 -7.2557265305810803e-01
      3.7380324491949823e-01 -1.8784532388354598e+00
      -1.4157069164122046e-01 2.5875919229454944e+00
      -1.3666464525510651e+00 2.0698006298324807e+00
      8.9837226761030320e-01 -1.1333044016436105e+00
      6.2022931895834621e-01 -4.6436245335899873e-01
      -8.1923802543894409e-03 -2.5915957641351067e-01
      5.9954439694910411e-01 -2.3213435732542864e+00
      -1.4864241920007131e+00 -6.5724681902495874e-01
      6.5586583571625767e-01 1.1475034332286858e+00
      2.1616503209830818e-02 -5.5305877785066704e-01
      -5.9931353315221070e-01 -2.9895301939473908e+00
      -6.1014080007565497e-01 1.0140658133522116e+00
      1.1573557651436887e-01 -9.4135792442634314e-01
      -2.4897182216544761e-01 -5.1102830340839678e-01
      2.0404664393076639e+00 -1.8089704749076979e-01
      5.1922684668542929e-01 -1.8449611830092452e+00
      5.9764395337018172e-01 -4.1841235211693939e-01
      1.4511008645703958e+00 1.6063891358930826e+00
      3.0080579690191772e-01 -1.0042373444910926e+00
      -3.6202224333391803e-01 9.1073715434673885e-01
      -9.0158159254565751e-01 1.7924641177621468e+00
      -1.6461540427921870e+00 6.6999585882320822e-01
      8.3973531175502758e-01 -8.3271629623388332e-01
      -1.8436686720652338e+00 -4.6928247459560740e-01
      8.7718296974609400e-01 1.3401839062031202e+00
      -1.2735769292110481e+00 1.4938240508502552e+00
      1.7907137119604018e-02 2.7237898797936553e+00
      3.9173248267667249e-01 -2.1246692244555443e+00
      2.0958540487179276e+00 4.0796405756037768e-01
      -3.1256601549795687e-01 -2.3601143339161040e-01
      4.2389197946338525e-01 1.4678129099521808e+00
      -9.0718893046627405e-02 2.3769097419033378e-01
      -1.3251898297365550e+00 -6.3590727819769421e-01
      -8.7747833085524507e-01 5.1135227841308561e-01
      -1.0587351408567252e+00 9.7501056238458816e-01
      -1.2456676782568727e+00 -8.2596428896609597e-01
      -8.6408714959258359e-01 -2.0077209953048072e-01
      1.1701691399855713e-01 -1.6359730168332520e+00
      3.4686107177305409e-01 -2.5855123583010992e-01
      2.2063299198844474e-01 -1.0995095688176080e+00
      2.0148808038489361e+00 -3.7735803316349686e-01
      -5.9432194574557229e-01 -7.4966266420234784e-01
      -1.5035208229414587e+00 -5.3383579154500582e-01
      2.2389442308228400e+00 1.3132907841511232e+00
      -2.2230345492944097e+00 -4.1878614681082638e-01
      2.1856690236066814e-01 -6.6530203038723834e-01
      4.1741139620107622e-02 6.2034605406609689e-01
      1.0430713416254627e+00 -3.4899308877764094e-02
      -6.9456782903567282e-01 -9.8506651308453042e-01
      -5.8780404525286656e-01 5.7156385223458304e-02
      -1.6407558475893869e+00 1.2530298676448266e+00
      9.8846986621755883e-01 1.9522398207061257e-02
      -8.5599887091646154e-01 -1.6030207519944850e+00
      1.0957030374185885e-01 4.7834585487912096e-01
      -2.5738534288277842e-01 3.6825609421433919e-01
      -6.7272169934931370e-01 -7.7563893493627845e-01
      -8.2409574452844014e-01 2.2944528351341256e-01
      7.5873696102409105e-01 3.8670602935145008e-02
      4.4966211311909055e-01 1.2369675551243745e-01
      1.2640808871810150e+00 -1.0012558872867063e+00
      -8.6476447793973799e-01 -5.0706813662312555e-01
      -6.3435307441629085e-01 1.4969952702323124e+00
      -6.2424663343063791e-01 1.2213907970225046e+00
      1.7874047297964951e-01 -1.2632129753763993e-01
      -2.4757089396032885e+00 4.6689149993654344e-01
      -2.1706116551040178e-01 -2.7400259155894330e-01
      7.9236975436822274e-02 3.6938263627055790e-01
      2.9202574581225965e-01 2.0595105175050452e-02
      1.1069840327601415e+00 -1.5202280241835620e-01
      1.3378625045823527e-02 1.2696355946776450e+00
      -6.9627743719785751e-01 -1.2029557611203610e+00
      -9.5277669736156367e-02 -1.0762036360637105e-01
      2.8307705163007241e-01 -9.2666571167331635e-01
      9.7807615572972051e-01 3.8144155883668224e-01
      1.0422322222518956e+00 1.7649801857586708e-01
      2.5582289063724245e-01 -3.7143157358591411e-01
      2.7776460600834008e-01 -6.7650525606282416e-02
      1.4923576507778880e+00 -1.2151908703171568e-01
      -4.0023271270324295e-01 -4.8413476947267209e-01
      -6.6548678669970729e-01 -2.2462882393437908e-01
      3.1557942465580857e-01 1.4401138424678768e+00
      7.4672942702488121e-01 -5.1680365744956858e-01
      7.9987511127832678e-01 -3.2775301011226421e-01
      -8.2347716451477682e-01 -5.7132959194713985e-02
      7.2682685287395232e-01 8.4268081030427516e-02
      -3.7310175714882088e-01 -5.5111448157413878e-01
      -2.3878287956867916e-02 -6.6140219822281665e-01
      4.8793731315381417e-01 1.0107784377627140e+00
      1.8981145154981699e-01 -6.9221650220956166e-01
      1.9653902229593881e-01 -1.4215169284126605e-01
      3.5554062441154860e-01 4.6114168181860515e-01
      1.0362826138809311e+00 -4.5171615327360509e-01
      5.3526763353917728e-01 2.5403534353085477e-01
      -3.7674418107945151e-01 3.9852967532811751e-01
      2.9690867266966997e-01 7.9762972326093917e-01
      4.3270564976888770e-01 5.1425771915305196e-01
      -1.3940346618111761e+00 -1.2150411781750294e+00
      1.2802785485902428e+00 -2.2268806296057773e-03
      -1.2286103508851818e+00 3.8247863444340707e-01
      9.3622508238908286e-01 -4.7373712419834602e-01
      1.8358292804187340e-02 6.8757843942298003e-01
      7.1979468597716101e-01 8.0865389280624556e-01
      2.6871595050280002e+00 -6.4888524920013471e-02
      9.9618880178533442e-01 -1.0064283686850403e-01
      -6.2266278111439721e-01 -8.3954053280963270e-01
      -1.4547854672369187e+00 7.2189622653730434e-01
      -4.7788136803251002e-02 1.3863110230346246e-01
      8.5978251037013387e-01 1.2049565411798375e+00
      6.9446294160965760e-01 1.4235015300906275e+00
      7.8848777908538914e-01 6.9713051173450669e-02
      -1.9263671322718581e-01 -8.4090425404046054e-01
      -4.3159262401472098e-01 -3.1866028418999842e-01
      2.3367351006801984e+00 3.1994442842558612e-01
      3.3135370223053356e-01 -7.5179788118394111e-02
      -1.4170109497882084e+00 -7.4381200079063581e-01
      5.7208801790485531e-01 1.2770645322321170e+00
      -1.6322017021757765e-01 -1.7182793638300122e+00
      -8.4305807502056529e-01 1.5774732792150095e+00
      2.8604533710387153e-01 1.1744715252243336e+00
      -6.5844864353657467e-02 1.9269185566474512e+00
      -4.6046487142513287e-01 -1.5322965570614708e+00
      3.7752383630217778e-01 5.8621057346246142e-01
      -1.8981846380332645e-01 -3.2190938922920226e-01
      -1.1574295440559037e+00 -5.2581313275962582e-01
      -1.0201437691373341e+00 7.5658253053796154e-01
      5.4497360375763859e-01 5.7715652251269067e-01
      -1.0665250607563379e+00 9.5998041341065037e-03
      3.5577716151447747e-01 2.8348626884106998e-01
      7.1366856033456427e-01 1.0626844391330490e+00
      -4.0341909079792693e+00 -1.0659449292322538e+00
      2.0612367980248516e+00 7.1920874227703546e-01
      -5.5172795205745440e-01 -1.5765587015580944e+00
      2.2521948409435355e+00 -4.9561630610609564e-01
      -1.6676771669382684e+00 1.5689342018225314e+00
      -1.6372168022076485e+00 -9.1127367006087312e-02
      -2.0181846627652091e+00 -1.6005971722112478e+00
      -5.9968676394663334e-01 1.9068879434819890e+00
      -2.3121632099133023e+00 -8.6556509825195893e-01
      7.3844858468276064e-01 -1.0760071588683200e+00
      1.2985283678577155e+00 -9.3914496345650922e-01
      -1.5104446906423461e+00 -2.4995363859398148e+00
      6.3805631549064212e-01 6.1672152355347631e-01
      2.6298151636989315e+00 3.0047571903771821e+00
      1.1982966338486802e+00 -7.8181046297210552e-02
      -1.0559625978117257e-01 -1.5088907763541543e-01
      5.6768993141005786e-01 -1.7580994556810667e+00
      -2.7068264763037814e-01 9.0532878426036478e-01
      2.4884969396667500e-01 -4.4743956583682681e-01
      2.0000387532340711e+00 -7.2080734698899829e-01
      2.5012044011306651e+00 -4.4975505540908499e-03
      7.2191614750655753e-01 1.1247130733718727e+00
      -8.9271207983134260e-01 -1.7572063943008842e+00
      2.6760545894179453e+00 1.4094480232175925e+00
      -3.1841444948278630e-01 -8.4126911759766265e-01
      -1.8811854829702488e+00 -9.7850413823711047e-01
      -7.9413497506475217e-01 -5.0537963048439147e+00
      -1.5343793238118318e-02 5.7773768753802257e-01
      -2.4123365079847252e+00 -2.0085338338258434e+00
      -1.7844616261769579e+00 1.2423288351845096e+00
      4.6675967000723234e-01 9.6681686576289880e-02
      1.3396282542344198e+00 1.6234010626224749e+00
      7.4276998877737727e-02 -2.3206006628641771e+00
      5.7223468177333633e-02 1.5189100475073560e+00
      1.4946312312944385e+00 -1.0844053588235054e+00
      -5.8630308208486281e-01 -1.0514271896349374e-01
