<?xml version="1.0"?>
<opencv_storage>
<opencv_ml_ann_mlp>
  <format>3</format>
  <layer_sizes>
    108 62 31</layer_sizes>
  <activation_function>SIGMOID_SYM</activation_function>
  <f_param1>1.</f_param1>
  <f_param2>1.</f_param2>
  <min_val>-9.4999999999999996e-01</min_val>
  <max_val>9.4999999999999996e-01</max_val>
  <min_val1>-9.7999999999999998e-01</min_val1>
  <max_val1>9.7999999999999998e-01</max_val1>
  <training_params>
    <train_method>BACKPROP</train_method>
    <dw_scale>1.0000000000000001e-01</dw_scale>
    <moment_scale>0.</moment_scale>
    <term_criteria>
      <iterations>30000</iterations></term_criteria></training_params>
  <input_scale>
    1.1777843307034082e+01 -2.7522418089819771e+00
    9.7322473065900752e+00 -1.5478208706381216e+00
    1.2131290147459129e+01 -2.8003035743655404e+00
    1.2153864569803874e+01 -3.1295081343431925e+00
    8.7434557754177327e+00 -1.4178508928974771e+00
    1.3243227174070535e+01 -3.4865542110703136e+00
    1.7984701049302437e+01 -5.9207932386380300e+00
    1.3772871607543781e+01 -4.3302369605606001e+00
    1.5102680415685251e+01 -4.8450878034717118e+00
    2.1476293242489643e+01 -7.2355249887116484e+00
    1.1461399359240458e+01 -3.4864384210405701e+00
    1.8124741069716670e+01 -6.0000456111734186e+00
    1.1558873426145368e+01 -2.7468515447275044e+00
    9.1251227282572618e+00 -1.2334107933192549e+00
    1.1238401079376661e+01 -2.7271895864067299e+00
    1.2828745196003503e+01 -3.5941872513887581e+00
    9.4547263275034990e+00 -1.1918742309957180e+00
    1.2274355255514850e+01 -3.1831956722193993e+00
    1.9218934133402179e+01 -6.4933397438458407e+00
    1.0129907997080489e+01 -2.8845784071263103e+00
    1.7298838738647497e+01 -5.7847818010958481e+00
    2.0591466124454730e+01 -7.0128732733220245e+00
    9.7668777908494064e+00 -2.7582878306293388e+00
    2.0910064170258586e+01 -7.1279515064449486e+00
    1.2625829407448828e+01 -3.4419250810297797e+00
    1.0469595636322106e+01 -1.0213239868029707e+00
    1.2071219729944366e+01 -3.0833700487635638e+00
    1.1233679026393849e+01 -3.1150515685023863e+00
    1.0414404284873102e+01 -1.2829049783305664e+00
    1.2428690526297576e+01 -3.3574014480228351e+00
    1.9180637836757942e+01 -6.5836382919552960e+00
    9.3846758822006766e+00 -2.2496073308603961e+00
    1.9060533980784946e+01 -6.5274343440984524e+00
    1.8885479785234175e+01 -6.4749752901737168e+00
    1.1310934543727351e+01 -3.1646461082118504e+00
    1.9832076676803261e+01 -6.8161886541181449e+00
    1.5901934820580637e+01 -4.4033083645059214e+00
    1.3618476741124125e+01 -3.8386724988539584e+00
    1.4071007045635298e+01 -3.7118796710767517e+00
    1.7981874033293781e+01 -5.1431852153997282e+00
    1.2046598044707538e+01 -3.3474195737872079e+00
    1.6821306811906044e+01 -4.7111877952993115e+00
    1.5094010400517933e+01 -4.1289684372463888e+00
    1.3792170427930692e+01 -3.9480792953302375e+00
    1.8158234678916060e+01 -5.1861448746851924e+00
    1.7481973410354055e+01 -4.9400142434393510e+00
    1.1266343574325189e+01 -3.0648684328526090e+00
    2.0647168569281064e+01 -6.1029427595440922e+00
    1.5137431946482291e+01 -4.1779188390761011e+00
    1.1020823380894239e+01 -2.9003035922918854e+00
    1.4545400125480628e+01 -4.0240570936972704e+00
    1.6993792314010854e+01 -4.9220840058544466e+00
    1.0704310385432331e+01 -2.8080583003613606e+00
    1.7154300674458774e+01 -4.9596018109059097e+00
    1.5690311769212677e+01 -4.4177478059271262e+00
    1.0518014291185930e+01 -2.7523694835855008e+00
    1.7631008395990843e+01 -5.0650840267616717e+00
    2.1490180077709326e+01 -6.4304465134263920e+00
    1.0226427758659581e+01 -2.6601534690169979e+00
    1.9899133437608395e+01 -5.8886524724479896e+00
    1.5021705702871385e+01 -4.3783411673938284e+00
    9.8870585681463918e+00 -2.1053903121429403e+00
    1.5422180083062791e+01 -4.4618849702239025e+00
    2.0108389773459329e+01 -6.1059906627823510e+00
    1.1163808524709617e+01 -2.7711876488346463e+00
    1.8973488606620666e+01 -5.6698302372228788e+00
    1.7686987778689144e+01 -5.2698236217574133e+00
    9.5473028184078128e+00 -2.0806881173305509e+00
    1.7722241521030913e+01 -5.2484857507145195e+00
    2.5603550913450437e+01 -7.9840633949158315e+00
    1.0385872989025916e+01 -2.5871927947933027e+00
    2.3971771630250053e+01 -7.3626996086316456e+00
    1.3638961523745516e+01 -4.4587396818411005e+00
    1.1113025612473592e+01 -3.3317591468171699e+00
    1.7021195752023445e+01 -5.8317679117938335e+00
    1.7614963707870618e+01 -6.0572155900461091e+00
    9.1469734571345054e+00 -2.5230082799715703e+00
    1.8198918040137407e+01 -6.2645246154162555e+00
    1.0173093408242000e+01 -2.2698133877806255e+00
    9.7284754075665294e+00 -1.2166284983008488e+00
    1.0921119781727537e+01 -2.6600407420865921e+00
    1.0758252055308883e+01 -2.8275716972215670e+00
    9.2797947996539882e+00 -1.0734049139393351e+00
    9.5695367915505702e+00 -2.4841579440904935e+00
    1.5273570756401558e+01 -5.1863651561872475e+00
    8.5491357576267752e+00 -2.1484568372755231e+00
    1.5529312138188937e+01 -5.3857695610308980e+00
    1.8839796496937481e+01 -6.6582630201005317e+00
    8.1538942645376196e+00 -2.1656946019734615e+00
    1.6740193704135287e+01 -5.8388302846418476e+00
    9.5272465531955248e+00 -2.3400423356078797e+00
    9.7458158268560560e+00 -9.5728113221965028e-01
    1.0139310056842469e+01 -2.4434425118637431e+00
    1.0929134238757644e+01 -2.8494677607549677e+00
    9.3414425882252345e+00 -1.0632401235711610e+00
    1.0378355729991110e+01 -2.6994944063196855e+00
    1.5989988275893353e+01 -5.6633228015766095e+00
    7.5893586877390735e+00 -1.8410822178035733e+00
    1.5905296274050247e+01 -5.5868693055762648e+00
    1.6331697164277465e+01 -5.6820173078313001e+00
    9.1380945931235509e+00 -2.4093256129729279e+00
    1.4351964122264199e+01 -4.8787088315492753e+00
    9.9797232362608224e+00 -2.5096602545429718e+00
    8.6605850548577052e+00 -9.7735106247851777e-01
    1.0385579197156911e+01 -2.5565713130394854e+00
    9.2624480292714662e+00 -2.2348711554481411e+00
    9.1002627003060859e+00 -1.0775681367966456e+00
    8.6069425278966953e+00 -2.0744420978481046e+00</input_scale>
  <output_scale>
    5.2631578947368418e-01 4.9999999999999994e-01 5.2631578947368418e-01
    4.9999999999999994e-01 5.2631578947368418e-01 4.9999999999999994e-01
    5.2631578947368418e-01 4.9999999999999994e-01 5.2631578947368418e-01
    4.9999999999999994e-01 5.2631578947368418e-01 4.9999999999999994e-01
    5.2631578947368418e-01 4.9999999999999994e-01 5.2631578947368418e-01
    4.9999999999999994e-01 5.2631578947368418e-01 4.9999999999999994e-01
    5.2631578947368418e-01 4.9999999999999994e-01 5.2631578947368418e-01
    4.9999999999999994e-01 5.2631578947368418e-01 4.9999999999999994e-01
    5.2631578947368418e-01 4.9999999999999994e-01 5.2631578947368418e-01
    4.9999999999999994e-01 5.2631578947368418e-01 4.9999999999999994e-01
    5.2631578947368418e-01 4.9999999999999994e-01 5.2631578947368418e-01
    4.9999999999999994e-01 5.2631578947368418e-01 4.9999999999999994e-01
    5.2631578947368418e-01 4.9999999999999994e-01 5.2631578947368418e-01
    4.9999999999999994e-01 5.2631578947368418e-01 4.9999999999999994e-01
    5.2631578947368418e-01 4.9999999999999994e-01 5.2631578947368418e-01
    4.9999999999999994e-01 5.2631578947368418e-01 4.9999999999999994e-01
    5.2631578947368418e-01 4.9999999999999994e-01 5.2631578947368418e-01
    4.9999999999999994e-01 5.2631578947368418e-01 4.9999999999999994e-01
    5.2631578947368418e-01 4.9999999999999994e-01 5.2631578947368418e-01
    4.9999999999999994e-01 5.2631578947368418e-01 4.9999999999999994e-01
    5.2631578947368418e-01 4.9999999999999994e-01</output_scale>
  <inv_output_scale>
    1.8999999999999999e+00 -9.4999999999999996e-01
    1.8999999999999999e+00 -9.4999999999999996e-01
    1.8999999999999999e+00 -9.4999999999999996e-01
    1.8999999999999999e+00 -9.4999999999999996e-01
    1.8999999999999999e+00 -9.4999999999999996e-01
    1.8999999999999999e+00 -9.4999999999999996e-01
    1.8999999999999999e+00 -9.4999999999999996e-01
    1.8999999999999999e+00 -9.4999999999999996e-01
    1.8999999999999999e+00 -9.4999999999999996e-01
    1.8999999999999999e+00 -9.4999999999999996e-01
    1.8999999999999999e+00 -9.4999999999999996e-01
    1.8999999999999999e+00 -9.4999999999999996e-01
    1.8999999999999999e+00 -9.4999999999999996e-01
    1.8999999999999999e+00 -9.4999999999999996e-01
    1.8999999999999999e+00 -9.4999999999999996e-01
    1.8999999999999999e+00 -9.4999999999999996e-01
    1.8999999999999999e+00 -9.4999999999999996e-01
    1.8999999999999999e+00 -9.4999999999999996e-01
    1.8999999999999999e+00 -9.4999999999999996e-01
    1.8999999999999999e+00 -9.4999999999999996e-01
    1.8999999999999999e+00 -9.4999999999999996e-01
    1.8999999999999999e+00 -9.4999999999999996e-01
    1.8999999999999999e+00 -9.4999999999999996e-01
    1.8999999999999999e+00 -9.4999999999999996e-01
    1.8999999999999999e+00 -9.4999999999999996e-01
    1.8999999999999999e+00 -9.4999999999999996e-01
    1.8999999999999999e+00 -9.4999999999999996e-01
    1.8999999999999999e+00 -9.4999999999999996e-01
    1.8999999999999999e+00 -9.4999999999999996e-01
    1.8999999999999999e+00 -9.4999999999999996e-01
    1.8999999999999999e+00 -9.4999999999999996e-01</inv_output_scale>
  <weights>
    <_>
      8.0499770402650961e-01 -7.0859808796781654e-01
      2.0305210211587130e-01 -5.1727572351846818e-01
      -3.6458493683019266e-01 2.6393626048400703e-01
      2.9267658459929358e-01 -3.3840457444717731e-01
      -2.0371309722038786e+00 7.3411476965167211e-01
      -6.8197194731352284e-01 -4.6489524579574987e-01
      7.6996983491904947e-01 2.1561179297371130e-01
      3.8083534337302305e-01 -1.6053470145207119e-01
      -1.2184136466771249e-01 6.7430186194280628e-01
      -4.6880322362442722e-01 -9.0433136119150359e-01
      -1.1235601635755794e+00 7.2923624388787883e-02
      6.2662151208485761e-01 -2.5618690244437536e-01
      1.3202752967631531e-01 2.8391494445230858e-01
      5.7189927021371989e-01 -5.5010304938504739e-01
      -9.2803890337923248e-03 -1.2486865373478089e+00
      3.9257912611964180e-01 -1.0096946080682851e+00
      -1.1103718712411279e+00 -1.8656784789916347e-01
      2.7508772140365340e-01 -5.5695836529133247e-01
      -1.9839983352013363e-01 -8.2196827617079982e-01
      2.0816441706993533e-01 6.1102536678226481e-02
      5.6670600807065270e-02 -1.2182699661942389e+00
      -1.9008856911002842e-01 4.1366440875927488e-02
      -2.5135099154068835e-01 -3.1620494075820453e-02
      1.9071143234427795e-01 -6.9852930213744369e-01
      -4.7739379422453421e-01 -1.3261845172357933e+00
      -2.2250821054727640e-01 -1.1547455773680355e+00
      -4.3218819485706600e-01 -7.7779392821800786e-01
      -8.4993417474104349e-01 3.0570661496650825e-01
      -9.7389155423027604e-02 -4.0488059028259482e-01
      -7.8913753287891719e-01 5.6644876663983790e-01
      1.9173314033626773e-01 5.0991068340721986e-02
      -4.3445526004495272e-01 4.6842676412146755e-01
      -5.3043593273360452e-02 -5.6415000978802299e-01
      5.4244996431212805e-02 1.9028217720627189e-01
      1.1696561883912162e+00 -6.0096806014069737e-01
      -1.4531794511639923e-01 -2.8119608588441625e-01
      5.9334024486305745e-02 7.0489647029166325e-02
      -7.4528461230161480e-01 -4.4121080667653328e-01
      6.4477397038262085e-01 -5.6775258161862363e-01
      3.7601197339479264e-01 -3.3127641952863840e-03
      -8.1807308627993436e-01 3.7100197280868863e-01
      -3.8267442426214299e-01 6.4074054291274429e-01
      -7.0889646932954187e-01 -4.1764539725845595e-01
      6.7386847954559695e-02 -7.8647673547145192e-01
      3.2958961131621362e-01 -1.3969875731389398e-02
      -2.5003739092751381e-01 -9.9511627203825959e-01
      5.8092229717326593e-01 5.0576108007102716e-01
      1.3111708905904935e+00 -5.0325270515991261e-01
      -7.6901089938611711e-01 -1.0726530275787103e+00
      5.4916742792364415e-01 -1.4053627580577588e+00
      -6.1389071417584573e-01 1.7659801971222175e+00
      5.8966886141375663e-01 6.8944878055406345e-01
      -6.0461654026934042e-01 -7.8150724378786074e-01
      -5.0821164058762291e-01 -1.0143725413638709e+00
      4.9107055504244401e-01 6.2002210607633679e-01
      2.4400769105703760e-01 9.9037213587630596e-02
      9.8636059140004906e-01 -7.6748986270360475e-01
      1.6290870310967417e-01 2.7413732946677499e-01
      -2.4751702249528149e-01 1.4067127214188255e+00
      -3.4960677925398770e-01 4.7996073130026873e-01
      7.6843280264019920e-01 -5.8485369432287770e-01
      -2.9015841641137430e-01 -6.5520096470666955e-01
      3.8409569667970039e-01 1.0060337638275734e+00
      1.7192501885635653e-01 1.7942505951645815e-01
      6.5770345345610315e-01 1.1961899477742028e+00
      -7.4008545756866029e-01 -4.6479356171913988e-01
      1.7933451755298269e+00 -9.3601330488685183e-03
      -2.8860129821433012e-01 1.8588903286514932e-01
      6.8940316711068012e-02 -1.3796481117685556e-03
      7.1600404619229702e-02 -3.6586658332629379e-01
      -1.6387685379534039e-01 -2.6055062970340032e-01
      3.9096418737413768e-01 5.3789360531439712e-01
      2.3285079205249731e-02 -3.5787481541300868e-02
      -2.9689036840188243e-01 2.5155010207388778e-01
      -1.2521569972638255e-01 -6.8103362007449425e-03
      3.3210459708271090e-01 -6.8631506252950436e-01
      2.8201154969629388e-01 1.6955956220529092e-01
      2.4832531953308579e-01 7.9610285774074585e-02
      -8.3697509295407180e-01 -1.0612234097389255e-01
      -2.3799620123866289e-02 5.8580212197429572e-02
      1.6874528366207267e-01 -6.4926097232698976e-01
      2.6466598852708623e-01 5.6144249966712002e-02
      -4.4817081398609243e-01 -3.7494312749763797e-01
      2.4877438276914429e-01 -2.0606218338304476e+00
      -4.1521868453951066e-01 5.3110775010747391e-01
      7.8841073887707502e-01 -1.2441117225597524e+00
      2.9941673275675679e-01 9.5271713937403885e-02
      -4.8149459816536833e-01 5.8879327699226702e-01
      -6.1954587559229224e-01 -9.3670195144503998e-01
      -2.5694378840405852e-01 4.8913371240237929e-01
      -8.3234885237299350e-01 -6.2547915728965831e-01
      1.4417270728652556e-02 -6.4149800316001249e-01
      -2.3245690463805849e-01 5.1610431026675641e-01
      5.1592545735756257e-01 1.9462925834867101e-01
      6.3238279767382399e-01 5.6057680286407641e-01
      6.3580800951779703e-01 1.0700925707256126e+00
      -1.0371518386042795e-01 6.8215916154951284e-01
      -1.5900914073514041e-01 4.3651044249166843e-01
      3.1422061061688483e-01 5.6057214278266632e-01
      2.9340306247636821e-01 6.6321786767939428e-01
      -2.1423168181321214e-01 6.0235535555843722e-01
      4.8649549899226885e-01 -4.2835066662571530e-01
      -1.7680366118138796e-01 -1.1077745984752174e+00
      7.7558528396336968e-01 3.5530437035750156e-01
      -5.9091128796030401e-01 1.0113863267547089e-01
      2.7516446033517589e-01 5.6966966908593697e-01
      9.8895455748907968e-01 -7.6594133010259857e-01
      -7.9110577614406941e-01 -1.0187530946162204e+00
      4.6106831617504618e-02 7.2142410473501317e-01
      6.4166418846364393e-01 -1.0919244127490027e-01
      -1.3653879127924853e+00 2.0428355684368060e-01
      -3.4829412803733328e-01 2.1952158702247845e-01
      -5.9988067632142550e-01 -2.8569550745591155e-01
      3.4416563581206644e-01 4.7215419283818816e-01
      9.2162443401490901e-01 -1.2721555465513592e+00
      8.3436920905198675e-01 -1.1665252365837589e-02
      -2.5206225075912381e-01 -2.4104248189405297e-01
      3.0080849957118033e-01 -7.2321995916135695e-01
      -5.6647473124092751e-01 -9.6538363728755114e-02
      4.0677746381617369e-01 1.5871139016271946e-01
      -4.4750502345373672e-01 -3.7279410554900017e-01
      1.5093692068006273e-01 3.5644932148960973e-01
      2.1345888338636859e-01 -6.2638916519232668e-01
      9.9667538917396992e-01 5.8168969555019456e-01
      6.4245378093293379e-02 -3.5471432290259985e-01
      1.7429717273494880e+00 -1.6789586900880994e-02
      -1.6684592839832341e-01 4.3202148707815435e-01
      -5.6386130040172178e-01 -1.0711670975308172e+00
      3.5479211409859812e-01 5.5524610551607012e-01
      6.1982830737937289e-01 -1.7371176242152345e-01
      -7.0160503251756323e-01 -1.9274990279935664e+00
      2.6068075070605101e-01 -5.9081760161540686e-01
      -6.2431996317146743e-01 2.7103398467585466e-01
      -2.9582665569431860e-01 -1.4791526606280028e-01
      6.8674870928595844e-01 3.8819767560953888e-01
      4.7938265933583142e-02 3.9975870054737012e-01
      2.3008051447742442e-01 -5.7248230069763373e-01
      -1.3837260360198513e+00 2.2737295920059193e+00
      -1.7679758805263235e-01 -2.6959235485388644e-01
      -2.7357783953945214e-01 1.3911920672229852e-01
      7.9412751836604276e-02 -3.8954443026702867e-02
      -1.7663234131197156e-01 1.9463213687728209e-01
      -1.0165818666502564e+00 -4.1130205387817204e-01
      6.2019514460854124e-02 7.4684435275486116e-01
      -3.5015592694253267e-01 -2.0997423271518195e-01
      2.7608938373541897e-01 -1.3769286276772792e+00
      3.5491696064678213e-01 -1.0628345170578524e+00
      -3.4249875438384880e-01 1.6311798355138518e+00
      -3.0979649805911014e-01 -4.2301325471916468e-01
      1.3505592895673471e-01 3.9473095128896579e-01
      1.3010594110074702e+00 2.8279019846165537e-01
      1.4613818125903325e-01 -8.7897652272020024e-02
      4.3602282571954248e-01 5.7664472221865359e-01
      -1.1681377055644841e-01 4.2974274754259006e-01
      -1.2889933271400160e+00 -3.2564672278273277e-01
      4.6007234015033988e-01 6.5353464739560030e-01
      5.2840937908336227e-01 1.0611339526488992e+00
      -2.6923412837962030e-02 -2.5289620297861565e-01
      -1.1661620259947896e+00 2.3276078701233596e-01
      -9.2701673759972580e-01 -3.2592032477456612e-01
      -1.4149616555121514e-01 -4.5404957060632473e-01
      1.5338869908373651e-01 -1.5481271948640740e-01
      -7.6126788759485287e-01 5.1319544941337114e-02
      -8.4956171843979922e-01 -9.2717817261623300e-02
      -3.1083022039280522e-01 4.9352322541373278e-01
      1.1632300704210610e+00 8.1873161065514843e-01
      -1.0942820211396727e-01 -4.1803032247310035e-01
      -1.3765666384713049e-01 5.2382620050874351e-01
      3.6561791018282735e-01 -5.3320693535906738e-01
      -1.9841726112653763e-01 -8.6153433128539580e-01
      -1.8985283146834053e+00 -5.5090507682869594e-01
      -3.6968873907349997e-01 2.7917913934192984e-01
      -4.6031995855730778e-01 -5.6388917329402732e-01
      -3.8292019370915753e-01 3.4809516595358764e-01
      -1.0326937036538877e+00 -7.2323730767754793e-02
      -2.0305923260994951e-01 6.3002830226786088e-01
      1.1007791012019574e+00 4.4621051597549505e-01
      -2.7107597250071763e-01 -6.9299371142324942e-02
      -7.1194931024313138e-02 -9.2533118051228813e-01
      -3.2741900790757744e-01 4.2765668021588882e-01
      4.2560123701269253e-01 2.7053940179059249e-01
      5.2111535555128674e-01 -4.6731299165276158e-01
      8.0875350150158481e-02 -7.9879956462932278e-01
      -4.9087862922598197e-01 -1.8596053476306451e-01
      4.1786390329358797e-01 -1.5613181505135465e-01
      4.0244032877794655e-01 5.7914667571641520e-01
      1.5643131252869782e+00 5.2541457487889276e-01
      -2.0223816038946762e-01 -2.0051527361527648e-02
      -1.0218722165825329e+00 2.7598938420537711e-01
      3.6995565627334071e-01 1.9006787488791813e-01
      8.5257348444170108e-04 -8.1083082439012044e-01
      1.1199306809918206e+00 -3.0227016093292536e-01
      -1.4525574046198289e-01 9.0727135360318970e-02
      -6.1637458531045752e-01 4.1035072539907830e-01
      -1.0199724577246225e+00 6.3474515738470016e-01
      1.1042233195944957e-01 -3.0345687395534499e-01
      8.0989100616771914e-01 4.3166975935367563e-01
      9.2657637170592805e-02 -2.0575184996411307e-02
      -2.0492203755399996e-01 8.5687307413327723e-02
      -4.4445654764924419e-01 -1.1647725257847363e+00
      3.5602453181895455e-01 5.5637339088980264e-01
      -5.0606362923872672e-01 -2.1375917617620194e-01
      -1.3457421705411206e+00 -1.5922530929019899e-01
      -5.6723203085646190e-01 -1.9330684667076958e-01
      3.9649819505997214e-01 7.0407583069595192e-01
      8.7638274958156104e-01 -7.9033491815642998e-01
      -9.1023525614940626e-01 -8.6920598473809241e-01
      -3.1821822145613493e-01 -1.5674804885461302e+00
      1.8854273009379605e-01 -3.3577213587302812e-01
      1.9727200555175645e-01 -4.6320500359579253e-01
      3.5177995375297388e-01 1.1747229671648216e-01
      -4.1740255632922491e-01 -1.0739766820452381e+00
      7.5865778557008556e-01 -3.4012552935078033e-01
      1.2585944850363602e+00 -1.6565202327679937e-01
      -6.4805038937537890e-02 -2.6838336941673396e-01
      5.6495723241183349e-01 5.5155991929510917e-01
      -1.6765044655561240e-01 3.5214029531704227e-01
      -3.7484979923450545e-01 1.6473748588297401e+00
      5.7701073901873856e-01 2.2204902654175402e+00
      2.0390575209554590e-02 -1.2307742484382795e+00
      2.3437240996203507e-01 -5.9120377121910450e-01
      -1.1920313185736551e+00 -7.1194538639535732e-01
      -8.8678916739236641e-02 -4.0097027039404948e-01
      -3.9411329818004076e-01 -5.5048148086605608e-01
      -1.4360577319605581e+00 5.3536238807249406e-02
      6.1386474028513927e-01 3.8061656433408353e-01
      -1.6271583758555774e-01 6.8964847684994002e-01
      -8.7445633189493377e-01 4.8269759761933012e-01
      -1.2328471066283848e-01 -2.1724160496634728e-01
      -4.9635924697597762e-02 7.1067183169833914e-01
      -6.5928978675673011e-01 -4.0968489198345607e-04
      -3.4304963949771411e-01 3.3489570843423261e-01
      1.6657953478256740e-01 -6.3166378275111845e-01
      -4.5261843103175692e-01 5.6063815873182787e-01
      -4.5165507365689073e-01 -2.3592530598701092e-01
      1.0218473602986800e+00 -1.2713576666095714e+00
      -1.1495756049904717e+00 2.0400328878250179e-01
      1.1364652033976721e+00 6.4244660912239371e-01
      5.5714184189232407e-01 1.0579280529948785e+00
      2.0751307200785868e-01 -4.1773976720874373e-01
      -1.4675707668210719e-01 1.1931583332765219e+00
      8.3194402177032958e-02 -1.2019727556118107e+00
      1.4482356249797051e-01 4.3366085874145571e-01
      5.1053093854189380e-02 6.6150926477137245e-02
      2.0748882560795132e-01 -8.6774073298964860e-01
      2.1403668250859595e-01 6.1225785140351041e-01
      -9.2063687403006494e-02 2.2535877309207453e-01
      3.7705216671719288e-01 -4.8919763417658596e-01
      3.7445482752188447e-01 -6.8924668291978214e-02
      -5.4045099006047016e-02 4.3558489426267005e-01
      7.1462018081133327e-01 -1.6726926995382999e-01
      -1.7224136333732196e-02 6.2610217850136540e-02
      -1.3916035552525824e-01 3.1494711309549145e-02
      5.9618172854682117e-01 5.0368339485353086e-01
      -1.5289427247028331e-01 1.0199837427096432e+00
      -1.4850172568696076e+00 6.8988480908202976e-01
      2.2405378761047640e-01 1.3890986907237274e-01
      -1.8078867256600541e-02 -3.0679792354581958e-01
      1.2166200835442269e+00 1.6767733268557955e-01
      2.3145705605620426e-01 4.6355938989830603e-01
      6.5781134810692282e-02 2.8182233242729404e-01
      2.5211894902837378e-01 1.8902603802146692e-01
      -7.6775277457771107e-01 -2.8268246213225384e-01
      7.3955354663382011e-01 1.7120757140002812e-01
      1.1511592097008199e-02 -2.8693366940389953e-01
      -5.4190951031084189e-01 1.6844063571853538e-01
      -1.3153268467933437e+00 -4.4055408870699211e-02
      1.1221112936322003e-01 5.6687093604585848e-01
      3.9848447525297967e-02 -3.7747588763892342e-01
      1.6780319529207519e+00 -8.3157728349684334e-01
      1.4918532853833510e+00 -7.1328937086350230e-01
      -2.4993319106690073e-02 -5.5626231927010626e-02
      -9.0771699461648081e-01 8.3675877990388736e-01
      -2.8661829408176853e-02 5.9201964495733295e-01
      1.9338433739361879e-01 -1.0389645572859389e-01
      1.2482861437415782e+00 -3.8224742328019012e-01
      -1.7072063857999117e-01 5.4190746437829174e-01
      1.4839528301555560e-01 4.7962651994796968e-01
      2.4869430072130491e-01 -1.1621685184132122e-01
      -7.8199962659893030e-01 1.6780047847416285e-01
      -3.4635166702337195e-01 2.8153283418327780e-02
      2.9836426614343525e-01 3.2806281517376499e-05
      9.5337677730485682e-01 8.6437311405801398e-01
      2.0896134092984339e-02 1.2836014495152018e-01
      -3.1361974699930661e-01 -1.0508950604181186e+00
      -3.0963032200259505e-01 -7.6047610716348535e-01
      6.4377447027654730e-02 5.0190687697244507e-01
      1.2497262256059823e-01 -7.8435452903384872e-01
      1.8647171979684712e-01 -5.4191185084552973e-01
      5.3301246548810251e-02 -5.6911517300246191e-02
      6.9760933588903340e-01 -7.5183166371287802e-01
      -2.1275230754326180e-01 6.6234829153658314e-01
      -2.6021032544337469e-01 8.1924279022029090e-02
      -1.4943925994465215e-01 1.6831602152714550e-01
      2.3748727520830148e-01 7.1287227706865186e-01
      -1.9747479978215673e-01 -7.7016741678248415e-02
      5.9030639530689732e-01 3.5034553520884515e-01
      -2.0187873326715042e-01 -8.8919200317406166e-01
      -4.9944506844051922e-01 3.8319291519177617e-01
      -5.9817719074311063e-03 2.3261157627074630e-01
      -4.7880297977313890e-01 6.8214178640941769e-01
      9.4058407703113700e-01 6.4565206940784525e-01
      -4.8869460400035224e-02 -6.9861699066692551e-01
      -1.9889068075091915e-02 2.6838244599479283e-01
      -5.5857478105679892e-01 -2.9266619294270640e-01
      -3.2626261611260310e-01 -1.0402330302579361e+00
      -1.0287271740088479e+00 -1.2625004714593394e-02
      -1.2925454351420515e-01 -4.8149204267303308e-01
      1.0027391887616759e-01 2.8585949491660401e-01
      2.2382077492071628e-01 9.4618280078861389e-02
      4.1819271924528445e-02 -1.0750071710558116e+00
      -9.2074072007651853e-01 -1.3769449619460421e+00
      1.5992637784044506e-01 -1.9296009157835828e-01
      2.6970202755353778e-01 -1.7996846465818400e-01
      -1.0956689380521945e+00 -1.0613781936116151e+00
      -6.9767641965928195e-01 9.3449605948192760e-01
      9.2887618644302949e-02 -4.2255353081774791e-02
      6.5345366175778397e-01 -1.0163048071298177e+00
      -4.4963222601161223e-01 1.2522122588053528e+00
      -1.1267958281482950e+00 -3.0487305846491515e-02
      6.1750142320714230e-01 4.0405124307829010e-01
      -2.7845329755273218e-01 -4.0876924149371141e-01
      3.4746570127671078e-01 -5.0349398795201887e-02
      -1.6477114742718862e-01 1.3699703035340083e+00
      -1.9997235823211820e-01 7.9549695112648799e-01
      5.3602491079330994e-01 -1.0589546267799668e-01
      8.1125398682659902e-02 7.9682651094499501e-01
      6.8139524269476404e-01 -3.5208768528567658e-01
      -7.6441341833439769e-01 4.4060815488745314e-01
      1.0227783971467299e+00 5.2165818816471698e-01
      1.2757554394807208e-01 1.0550860508608521e-01
      6.7093628317004861e-01 -2.5439968250391587e-01
      4.1222594841030302e-01 -2.8570914766629307e-01
      2.7396225470035135e-01 6.5225024840660206e-01
      1.1006205589290576e+00 -1.5831076404739999e-01
      4.7738465514723660e-01 -1.4310212237565870e-01
      -8.2029434142469725e-03 -1.2105206320897002e-01
      1.7241186001719538e-01 4.1761605532161000e-01
      -3.2071297261273807e-01 -1.1735661627042596e-01
      -2.8283287899791859e-01 3.6349445882986026e-01
      -2.9990625241524344e-01 2.6116928856486776e-01
      1.9232330969108891e-01 -6.1111397042463789e-01
      -7.0750043827673337e-01 -2.2268495924849829e-01
      -3.9547872482787799e-01 1.8535650570663742e-01
      3.5467343642628391e-01 8.8010501546270925e-01
      6.7456010018098855e-01 -3.7666481148153197e-01
      -8.6147827171527594e-02 7.7997186986625100e-01
      1.5404367334217953e-01 -3.9437065056128977e-02
      1.4009428209774066e-01 -7.8410985080590068e-01
      3.1237290379178723e-01 -1.0157130432206605e+00
      -8.6893831122189638e-02 -1.1624443133905422e+00
      6.9585201436021038e-01 -1.9566166886817751e-02
      7.4455102130510697e-01 -2.2013939072815614e-01
      5.8979732943558842e-02 -6.5896865434845719e-01
      1.6736069066450283e+00 -9.4688421948066748e-01
      3.7197553018841208e-02 1.7237267797254127e-01
      -1.4920723787555674e+00 -9.2096403394553883e-01
      6.6242042277622015e-01 -9.2726134502276691e-01
      -7.4049311272930088e-02 -2.0485982349347540e-01
      -1.4266882704336048e-01 -7.2572992598016439e-01
      -5.3997349732179545e-01 -1.2251608689410305e+00
      -9.1395115211334044e-01 5.6364796005881823e-01
      8.7854962688446026e-01 6.4133948488732406e-01
      6.5793979568804795e-01 -4.5142292763771780e-01
      -3.5873665080284822e-01 -2.5653049609930345e-01
      -2.3715066814055205e-02 1.8724076083142169e-01
      2.2290010899140791e-01 8.1959277758980953e-01
      -1.8640098065691715e-01 -5.6607062256689611e-01
      -2.3077224121876680e-01 2.4924634173366650e-01
      -5.3996375535845520e-01 3.4585083000131378e-01
      9.9726914357780072e-01 4.7798223857807737e-01
      -2.8133958239932882e-01 -2.0892093255915550e-01
      -1.0281703592089979e+00 -7.5733691994299157e-01
      1.2857477216612381e-01 -5.0328342518720115e-01
      -2.6372074278516100e-01 -7.8304506782026695e-01
      -3.1197046824445118e-01 1.0368983047460327e+00
      -1.1734978198116570e-02 2.6528165747151145e-01
      1.0279706755273534e+00 2.1963181369888521e-01
      2.4249044995953473e-01 2.2015749766854750e-01
      -8.8434037362282836e-01 -1.4976818701718636e-01
      -3.3831968428277198e-01 6.7318010057496214e-02
      7.5340246299693625e-01 -1.2122834698288425e+00
      -3.8865217165483673e-01 -6.7683898617309746e-01
      4.3589345343643293e-01 -1.0528218740508415e-01
      1.2902479667763431e-01 -6.6529503566257875e-01
      5.1864077348985471e-01 -8.1410634968047091e-01
      -5.7477535108940866e-02 -1.5489929621631196e-01
      4.6879150304361944e-01 -2.6544010225641240e-01
      -8.6911560033725543e-01 4.4774441945480570e-01
      -1.1505953881123254e+00 -7.0623941568353554e-01
      5.8669873740344236e-01 7.3382837495524778e-01
      -8.4473433005063416e-03 -7.6345823817500180e-01
      -3.2071864170628406e-01 7.9116339593111229e-01
      -1.1767325540340121e-01 -1.1744632419867833e+00
      1.3613868923038494e-01 -1.8897145202310503e-01
      -2.7420469702327738e-01 -1.0964427140931131e-01
      -5.0091292356263406e-01 4.5453205514277083e-02
      -9.8609410415906618e-01 8.1725773753073583e-01
      -2.9638940136773084e-01 -9.2867616101197448e-01
      -1.7234942751596363e-01 -1.5796242619577405e-01
      1.0960323030291053e+00 -5.5355196237498272e-01
      3.5389335848666154e-01 8.6022164866376105e-01
      4.7872082865737065e-01 -4.7023747265496074e-01
      1.8486588146800431e+00 5.5873305962821174e-01
      3.5501797328977336e-01 4.8182834327009361e-01
      1.7518094158295419e-01 1.2632963176110282e-01
      -2.6510614307619673e-01 -1.6733665802802775e-01
      -2.0406870047815431e-01 3.6139392535996323e-01
      -9.1376701142001904e-01 6.7330389527067713e-02
      9.1990209273724932e-01 -1.0869614191658810e+00
      -2.1751207132919931e-01 -2.6226925241021209e-01
      7.4339213804506121e-01 -2.8904967402202308e-01
      -1.9287506675507335e-04 -7.4186276463906242e-01
      -7.5382943560104110e-01 -2.2035495317175818e-01
      -8.2858818049879629e-02 1.8392663788852778e-01
      3.1579442683626835e-01 2.9945203201268616e-01
      -1.2124845600682796e+00 1.4635756069839927e+00
      -5.0694330642090391e-03 9.0500013165215032e-01
      5.2222831020870686e-01 -1.3984010747609790e+00
      -3.1190963315483361e-01 3.3692747082457425e-01
      -8.8931405647296558e-01 -4.4205138870581434e-01
      -1.0381029509936806e+00 -3.4980141784471486e-01
      4.5836176670133216e-01 -3.1689821782338506e-01
      -5.5132500152795549e-01 -1.7130662491048934e-01
      2.1124256796716185e+00 1.6212277780916409e-01
      5.1391759201761734e-02 3.6902535354879729e-01
      -4.4326513946438073e-01 1.4542165268472315e-01
      2.1151271990810255e-01 -1.6163127277008688e-01
      -3.0302022540062523e-01 1.2961484004105464e+00
      -3.7433358150583379e-01 5.0910085560725760e-01
      4.4803005679816427e-01 -6.7949487686482213e-01
      8.5328838527017975e-02 8.1787172923396534e-01
      5.8024664209126620e-01 6.3359144931190256e-02
      -8.4368977992134364e-01 9.3408781769582194e-01
      6.2122227467863655e-01 -1.1022656156695176e-01
      -1.0608448686542604e+00 -4.6160690404402394e-01
      2.1023738429794325e-01 -1.6251277271414077e-01
      7.1009865162156882e-01 9.1979923573103595e-01
      3.5202842768743892e-01 -1.7778764461467098e-01
      2.8494815640590365e-01 1.3534413354630082e-01
      3.7076102273318556e-01 1.2863190489803653e+00
      -1.4921979256289521e+00 -1.5072891113338710e-01
      -5.7812467013650570e-01 2.9412085104850416e-01
      1.5718872380973742e-01 -4.6118589724814224e-01
      4.9070577494754136e-01 -3.9988475669627316e-01
      2.3292822374141006e-01 -8.9908326407258987e-01
      6.3720208658995214e-01 5.2762573832372095e-01
      1.0131009059660010e+00 -5.8254489634029261e-01
      -4.6988980912462852e-01 8.7697310892069691e-01
      -3.8829630112596786e-01 -9.1591817066615691e-02
      4.3204509837120281e-01 -1.0074173090470070e-01
      -7.0169702198423312e-01 -5.7020951615857032e-02
      9.0533141918742766e-01 1.8679855993330208e+00
      9.3986116978458834e-01 -1.7905169523268324e-01
      -3.6479662140016389e-01 -7.4453069991733112e-01
      5.0365639329918810e-01 3.0654758539044685e-01
      1.2071229068534188e+00 1.0121548749169254e+00
      5.4735496158520225e-01 8.2874164720818866e-01
      9.4339398732494595e-01 8.7742234990594925e-01
      -2.0604457762713246e-01 3.4792984437339708e-01
      4.2614162066615385e-01 -9.8923986031879430e-01
      1.7872054604029930e-01 -5.7882342628148031e-01
      3.5398719760410730e-01 3.1668848273931899e-01
      -2.6081108918530349e-01 5.4007281802697715e-01
      5.2341167192622529e-01 -2.7779210723625464e-01
      9.4657861160119969e-02 -1.6209819253886945e-01
      7.5025668390655387e-01 4.7875456125462547e-02
      -2.8746546036740128e-01 3.0794316238494535e-01
      -7.5822315218323846e-02 2.3892359584355996e-01
      9.9833487137763466e-02 1.3882414525082148e-01
      -1.8526490631218806e-02 -6.5621056459617266e-01
      -1.0838090698219473e-01 2.9131087328253025e-01
      8.7491871774752117e-01 6.6974187396637996e-01
      -1.0710255348910522e+00 -3.7977638617477966e-01
      -1.9249591890748680e-01 1.4134936983142402e-01
      -3.3303572608757820e-01 6.9974008155635459e-01
      9.2910184393374518e-01 3.0761284696016367e-01
      3.8923390552068088e-01 -3.6962539942194422e-01
      3.2319923158303293e-01 1.7135823540264288e+00
      -1.7210350697956475e-01 -4.7183911337141737e-01
      1.9239998172635306e-01 3.0279512262955299e-01
      8.6620963681757945e-01 -5.2965495466886903e-01
      1.3670951083399914e+00 2.3882684110277150e-01
      1.6209804366630429e-02 -5.2250079516061587e-01
      5.7225292779966774e-01 2.6895738941379393e-02
      -3.8033670750153314e-01 9.1285880961016252e-01
      5.9522917979690582e-01 7.6546989566909071e-02
      1.1219205627912936e+00 -6.5530892962701071e-01
      -3.0712661891074799e-02 1.2010809845362669e+00
      7.8748936334141051e-01 1.6537791782680247e-01
      8.3336010529326807e-02 5.1055136443365545e-01
      -3.2304442063698285e-02 -4.2961503063734967e-02
      -1.0194805039495573e-01 -6.1867682017358672e-03
      -5.7702107190597991e-02 -2.1918140874972764e-01
      1.3843873199649132e-01 3.7600973184704939e-01
      -3.0456219175661864e-01 -3.3393286141898676e-01
      4.2429755716211548e-01 -3.4674866618924011e-01
      -1.1680395456094219e+00 9.7104066399641176e-01
      5.0474232304305133e-01 -1.1030978630189487e+00
      -4.2448669332792732e-01 -8.9100626734024926e-02
      1.3679911639234490e-01 2.1013670412632340e-02
      -2.5258576982287012e-01 -1.3130776133608568e+00
      -5.3412657761927285e-01 -5.2722841716338920e-01
      -3.2259092207162182e-01 4.1209118628161251e-01
      -2.4730159549123026e-01 9.2837329376265609e-01
      -4.0867254133823316e-01 3.0675377263939818e-01
      -2.5468336383969243e-02 1.1428661785635041e-02
      -4.1853725723412388e-01 1.6822634691518532e-01
      2.4345289772362214e-01 -6.0989246797340302e-01
      -1.3252948906547024e-01 -4.3580367722223950e-01
      1.9103620193273699e-01 6.8275214959961361e-01
      -1.9173370097685732e-01 3.2716555558520954e-01
      -6.1229399088162204e-02 1.4177482687168319e-01
      1.7150212711930909e-01 -3.9775885061830385e-01
      2.3333218393034960e-01 -6.8347686223190623e-02
      4.8567104050318742e-02 -1.2035912826715212e-01
      8.3807283153057188e-01 -4.9666043821531680e-01
      -1.6728021242776308e+00 3.5132909842168647e-01
      -7.7428531715890536e-02 1.2465557721998961e+00
      1.2057491550606190e+00 -1.4400185888442005e-01
      -1.5333921993053774e+00 6.9698584758195314e-01
      -1.8319010215302531e-01 1.2331998082869181e-01
      7.2068825902317679e-01 5.3361241051467523e-01
      -1.3123533197115540e+00 -8.6789598751038421e-01
      -5.6475348177350271e-01 1.1043821101225120e+00
      -5.8021569905884507e-01 1.1430175452994275e-01
      -4.8722347470279342e-01 -3.8180275554494247e-01
      -8.1612937792985552e-01 -6.2008931766609930e-03
      -3.7225450502048379e-01 -3.3776425821849548e-01
      2.3725214356159682e-01 2.1874088428983664e-02
      -1.4732032961614661e-01 4.6983092451841668e-01
      3.4029103797938021e-01 1.1695539972391851e-01
      -2.2782410680281989e-01 4.6469151170040546e-01
      -5.5869882325142051e-03 4.9525391039680072e-01
      9.4099004573543543e-01 2.2573184283477063e-01
      7.5104515891768575e-01 -5.6950326686851405e-01
      2.5454669847605735e-02 -7.0741757027941599e-01
      -4.1537072389742680e-01 -2.4052617372580332e-01
      5.1696696468503101e-01 -2.5101794023310725e-01
      6.2475908651747479e-02 -1.4475078169586664e-01
      1.8312918966065244e+00 -1.5018529240061327e+00
      -2.6472986598398385e-01 -3.7613323062431020e-01
      6.5328028772083835e-01 1.3093774178656288e+00
      -3.8999422940256040e-01 -4.0764647503561219e-01
      -4.0979882309992266e-01 -7.3210124734169407e-02
      -8.4894235699584286e-01 -3.9910198238798650e-01
      -8.4936027669995606e-01 1.1057075297657057e+00
      -2.0755760167990708e-01 -6.3843052673520273e-01
      -5.8280655998125241e-01 3.9105741965082091e-01
      -5.3229463665415799e-01 1.6520258757124770e-01
      -8.6986968965964265e-02 -1.0039094896778742e+00
      -4.1856200666406645e-01 -4.7845149945630677e-01
      2.0613002930206384e-01 -5.4923473731878714e-01
      -6.1275173615364298e-01 -1.6051014102797967e-01
      8.9063388250293467e-03 1.9940359552280401e-01
      5.2762754004214552e-01 -8.3944201877329816e-01
      5.5789250975320015e-01 -6.5957632541079447e-01
      -2.6220919672084864e-01 -8.4718583623085375e-01
      -9.2014895487933357e-01 -2.9146058070149305e-01
      -1.7811652447849027e-01 4.9390415631904794e-01
      1.5710655233503047e-02 1.0973605252249985e+00
      -1.5688756485049427e-01 4.6746462541795680e-01
      -1.4038577765943522e-01 -4.6085979083605599e-01
      2.9458923904579163e-03 5.4644033700295613e-01
      -2.7041563937759588e-01 6.4547684236707614e-01
      -5.9043894815032705e-01 2.4930680440239317e-01
      1.3822975723968722e-01 -9.3934560841178494e-01
      7.4781828547665541e-01 1.5534180512236781e-01
      2.7548901903740580e-01 2.3544607477113511e-02
      -1.3727137341759782e-01 -9.7603564038381524e-02
      2.5711427407044879e-01 -1.7878128574688826e-01
      2.4029656780778116e-01 -1.3306433068247106e-01
      -1.0073724323412063e+00 -1.4069193668879154e-01
      9.3009858778205301e-01 -6.8479835029167591e-01
      1.0164941074563612e+00 7.2687378610627393e-02
      5.6770490996425182e-01 6.7157393703336654e-01
      -7.5632407141925373e-03 -3.3785559394038972e-01
      9.1904609179359531e-01 4.9822499950964699e-01
      1.4948785810864529e+00 3.7977897008010714e-01
      1.4099331911026924e-03 -2.1929421552616193e-01
      3.7573177810917002e-01 1.7867762069240711e-01
      -4.8010279241763293e-01 8.8605674696318734e-02
      -3.4887653591165541e-01 -3.1153176409822559e-02
      -8.5747534571601136e-01 -7.0855226168135745e-04
      -3.6520186752494405e-01 -4.2328900937958058e-01
      3.4723002316077017e-01 -5.6690249214181843e-01
      -9.1247616050758207e-01 2.2246096659074963e-01
      -5.2356457619312270e-02 1.5699856625680464e-02
      -2.9156065700116163e-01 1.2071518255722948e-02
      -6.4136091107233761e-01 -8.6971463625341061e-01
      1.2529295672415246e+00 -1.0241674592815291e+00
      4.4780640226439006e-01 7.7693684479130595e-02
      -2.5143097354410332e-01 -1.1771195683944979e+00
      1.1748563640645955e+00 -2.8365337939104152e-01
      -6.1003338197442601e-02 5.9678825842064476e-01
      -7.2065752431294497e-02 -7.5169133893129525e-01
      1.0958228116849016e+00 -1.1668655894917818e-01
      5.6889964283018746e-01 9.4914936634706748e-01
      -5.9657383455832026e-02 -5.1287094435713843e-01
      6.2078659052136997e-01 1.0401037923773793e+00
      -2.5521446739200188e-01 1.0958771318073781e+00
      4.4887072078851004e-01 -1.5093766433088845e-01
      -4.2783278950833711e-02 2.3188901983520449e-01
      2.0819847837102679e-01 -1.7477688170300329e-01
      7.1558220580640333e-02 -1.7042640391308611e-01
      -6.3272071716314005e-01 7.0841198662169358e-01
      1.0993666673244151e+00 7.4848800400665338e-01
      3.6051625258221376e-01 -3.8383111641811496e-01
      -1.2011115014025520e+00 3.5071595520443083e-01
      -1.9095051518977879e-01 1.6572906661139378e-01
      7.8862669107764516e-02 -1.0023157189466335e-01
      -3.8464510878131014e-01 -5.3632995431163710e-01
      1.8083069759353182e-01 -8.4868964588890122e-02
      -4.7373217201542295e-01 7.9703753894172502e-03
      -2.4314399322819730e-01 1.0834418328077180e+00
      -5.5754596614805296e-01 8.9365110488080257e-01
      -5.5988859955431580e-01 -4.6696563864104024e-01
      4.5154311128552754e-02 5.5877423364591350e-01
      2.2616588692805836e-01 -1.7650287231790146e-01
      -5.8996009607073940e-01 -4.2561115015688272e-01
      2.4976387325099222e-01 2.1481130238937560e-01
      -6.7792739273003566e-01 3.8646644609202974e-01
      4.5497334581599636e-01 -1.5786749738578942e+00
      3.4231503310576633e-01 -1.3105393416661549e-02
      -2.1238499286050136e-01 -6.8458867505229337e-01
      -1.5862803092376485e-01 -3.4345138197046254e-01
      -6.1645346076530017e-01 -5.5473680402984571e-01
      2.8526262936534985e-02 -3.6858921646130960e-01
      5.2424563560653326e-01 3.6573854931592281e-01
      2.1264861011432289e-02 6.8293111012774854e-01
      -2.3163671717965259e-01 -2.0952796175909183e-01
      3.1207621511240780e-01 4.7055898339918978e-01
      7.9625498303728615e-02 -2.8145175359183056e-01
      -4.1136322623313343e-01 4.0717819573355996e-01
      1.4962514819192885e-01 -4.5070484924032628e-01
      -2.8252848890822169e-01 7.8017886865850372e-01
      -2.8714554893860605e-01 -6.9714208885226980e-01
      -3.7879225500702318e-01 1.6156088880619049e-01
      6.3422675889080049e-01 4.3096544178044210e-01
      5.9587323199198283e-01 1.0552555812183528e+00
      -1.8839938174513438e-01 1.2238023164416343e+00
      -1.8691937996444263e-01 -1.4304402940746386e-01
      3.7070160671255864e-01 7.3001373049931984e-01
      -4.0620181502261077e-01 -7.1644812307711769e-01
      -7.1859902535749742e-01 -1.5499195756006462e-01
      1.3050202455035134e-01 -6.5955334342721647e-02
      -1.0467838746139732e-01 5.4573681520726380e-01
      4.3036707947931857e-01 -4.0562472917974990e-01
      -1.2627138070612551e-01 6.3917341971356167e-01
      8.6960214073867581e-01 1.1828564672028841e+00
      -5.4915962027121257e-01 -1.1259465601367090e-01
      4.7177378019933591e-01 7.5045455129450572e-02
      9.4271234765890410e-01 1.6075675011253447e-02
      1.2500177646289931e-01 5.6734538232208331e-01
      3.0482683343968375e-01 -3.4374682070916018e-01
      -4.9169729062829565e-01 6.9085337185415785e-01
      2.9046026413590481e-01 -9.7384278496073257e-02
      2.3570111574953065e-01 2.3866799644842124e-01
      -3.0167929331910204e-01 5.5850316532498934e-01
      -3.7770048515557812e-02 -6.6950560982021601e-01
      -1.0596935207582800e-01 -5.5182226138549573e-01
      2.4229255401453506e-01 -2.4792231489245997e-01
      1.2606558559212691e-01 -8.8312745949643756e-01
      2.5989025477439523e-03 6.1823519223091328e-01
      -5.8200713725058417e-01 8.1793290935418628e-01
      5.4604522590250471e-01 -1.8567452745590396e-01
      -3.9945147568545564e-01 4.8725458744246264e-01
      -2.5067213855354115e-01 -1.4736857185042465e-01
      -2.1611801595712074e-01 -1.4233984203062366e-01
      -3.5297635677394235e-01 -4.5560320126544396e-01
      -1.3486737916458597e-01 3.7095675484405577e-01
      -9.2522303555323385e-02 -1.4024815656970848e+00
      4.8887475178946116e-01 -2.4341919819494334e-01
      -6.4482969392218659e-01 -1.5650715067625456e-01
      7.7438475825952635e-01 8.1253832789465519e-02
      3.0007511254898750e-01 -3.9790905033169066e-01
      1.2126205002365854e-01 -7.4012897835481373e-02
      -1.5604216225862366e-01 1.7886666295226133e-01
      1.0122371676811014e-01 -1.7665542279708786e+00
      -5.2416169422363135e-01 -1.7663261607487168e-01
      -2.1494128127641637e-01 -1.5793752225533716e-01
      -3.5351775271209146e-01 -5.7766826535233151e-01
      -3.1479629779287777e-01 -1.0369038664393861e+00
      1.7256537850198299e+00 1.0496666934530319e-01
      5.8646610106639907e-02 -1.1575858009609785e+00
      1.1443208858667697e+00 -3.9355551881786754e-01
      -6.3229438305402408e-01 -1.4660945077206919e-01
      -7.2322974841498200e-01 -9.0691572673571241e-01
      4.9503458416294854e-01 -9.7975953584713471e-01
      3.7044898579613716e-01 -5.9380150932908182e-01
      -1.0992917094183636e+00 1.4118905683954774e+00
      7.6142309344029921e-02 3.0067551986182217e-01
      3.9089672157836397e-01 2.8754799463202718e-01
      3.4044066363043568e-01 3.7971249661666838e-02
      1.7701137182930080e-01 2.4787806175364918e-01
      -4.6392625867053922e-01 -6.0292626170467756e-01
      -1.0050889399919360e+00 5.1043258220378318e-01
      5.4503537713691319e-01 5.4777216604030199e-01
      -1.2326246116887385e+00 4.9083639427016162e-01
      7.1253739213738432e-01 -4.5186927827419199e-01
      -1.2505510505493348e-02 -4.1056419113064135e-01
      9.2262757253727168e-01 9.7388464067934744e-01
      -1.0371523654089821e-02 -6.5840864743956862e-01
      9.4442413596538793e-02 1.3389415965541193e-01
      -3.7298500691307590e-01 1.4981468991188123e+00
      -5.7922096654727018e-01 8.8662445118690547e-01
      -8.6684833122081273e-01 9.7150005045493548e-01
      1.0513204792376167e+00 -9.4830892650890752e-01
      -7.8447470954318466e-01 2.8530630004519658e-01
      5.7020030234536345e-01 -4.0890684484615558e-01
      -9.0202186753749503e-01 -1.2707515910587752e-01
      -2.3313462067863322e-01 4.3757367753653381e-02
      -5.6705772502339535e-01 4.5013587435746280e-02
      5.0883392570418751e-01 -2.6626606085627241e-01
      -5.3137576793383279e-01 2.6595651524366287e-01
      1.5650172229154533e-01 4.5472692816482935e-01
      -4.8559680577767550e-01 -3.5817986360612168e-02
      7.6987477803077034e-02 8.6135554387417601e-01
      9.1426781420047776e-01 -1.6640484087442894e-01
      5.0996359757468235e-01 3.7432063081421535e-01
      4.4783311152695893e-01 -1.6643604823747615e-01
      -9.4828697995595790e-01 -4.3096288152369250e-01
      8.3621010336417179e-01 -3.4791761021196749e-01
      3.3794160819995805e-01 -5.4213823779474057e-01
      1.8739259597252528e-01 3.7674283716605236e-02
      1.1338887137939498e-01 3.7662364099482465e-01
      3.3564369951142525e-01 -1.0517656860468880e+00
      7.5027662668526607e-01 -1.5665751543588640e+00
      2.0367046658297427e-01 4.6511111246098141e-01
      2.8764668323993903e-01 -1.4896242032367090e-02
      -1.0223811375720353e+00 -7.4151509930875137e-01
      1.4968040463770521e-01 5.2917856507734407e-01
      -7.1391130595367458e-01 3.6817458502884017e-02
      -2.5194307037858044e-01 1.0505116517371235e-01
      -3.6039121193568419e-01 2.3430301985163025e-02
      -4.0793156400023116e-02 -7.2869392246953782e-02
      -1.4597003581058832e-01 3.1658957402480131e-01
      2.0929606378564594e-01 2.9025887269386169e-01
      -5.4062386520003236e-01 -9.4380682790842024e-02
      4.9213822868388524e-01 -5.5368609577309946e-01
      -5.2662749016812935e-02 8.4670955411703019e-01
      4.0143979477432373e-01 -3.2647040388164006e-01
      1.0153478215442382e+00 -3.2235048108824282e-01
      8.3003049459041400e-01 5.5637423846017198e-01
      -1.1456489414303517e+00 1.0964661438873841e-01
      -3.3010074460152261e-01 3.4398619925178442e-01
      4.1520417431564988e-01 -1.0270724390658215e-01
      -2.3714511042579656e-01 5.0562250203681891e-01
      -2.4081576576538719e+00 -1.3148151917355229e+00
      -3.2072931725646132e-02 -4.9744341051615087e-01
      1.3507006518302017e-01 3.8005012002263555e-01
      -1.3035410224296153e+00 1.6714301765054582e-01
      4.0408358525282534e-01 3.0418287827653284e-01
      5.9921215929053906e-01 1.8165736926399285e+00
      1.0922820040031362e+00 -3.1113628068607968e-01
      5.1057061434092788e-01 6.6373504585235432e-01
      3.2802004031837251e-01 8.8745349303102372e-01
      3.3126883964018616e-01 7.0137294493431879e-01
      2.7354796735405285e-01 -7.7960436976392578e-01
      6.5200141645469845e-01 -7.6557612319443491e-01
      1.3876249067648241e-02 -8.0957817234431662e-01
      1.5628226246878636e+00 1.4296394670670736e+00
      1.0853475110730435e+00 1.3422480448285491e-02
      8.5842216667074367e-01 3.4616201107467731e-01
      1.1471952599966381e-01 1.2899601970304451e+00
      6.7538022276260024e-01 -2.1237259256576710e-01
      2.4833741443680335e-01 3.7945918384241872e-01
      2.4633866210027469e-01 -5.4075156357663590e-01
      -1.2166227994957284e-01 -1.0625073333843207e+00
      9.3296014374928160e-01 9.3477006551668892e-02
      -3.4997045560952435e-02 3.5007907137403604e-01
      1.2087074000534510e+00 -5.5548909202112606e-01
      -1.0712588706564405e+00 -4.6637637200510662e-01
      -2.0134941595469125e-01 6.5328189470722664e-01
      -1.3633477883657605e+00 2.2642628624351455e-01
      5.0310536140551754e-01 -8.0075125647235224e-01
      -1.5644614627610032e+00 1.2449340848878874e+00
      2.2380390381521953e-01 3.7941562146815583e-01
      -2.8132981860108291e-01 -3.1634171397492410e-02
      6.8247384992245019e-01 1.7128045519434299e-02
      -9.4939205481516531e-01 1.8992798407918160e-01
      -1.0147276907902436e+00 -3.3971854194337936e-01
      -2.8780776363909366e-01 1.8338287391629732e-01
      -3.2564974920145950e-01 3.0134688924848635e-01
      9.6176551127547805e-01 -4.5731197515454441e-01
      -2.2962972512243669e-03 1.4234036121787988e-01
      -1.1359252288079409e-01 2.9008985591425734e-01
      -6.1010736940840804e-01 1.1131064413327507e+00
      4.0546127367413942e-01 4.1922400002770387e-02
      1.9726212933300340e-02 5.3801006892372361e-01
      2.7928969802104076e-01 3.6147433855009942e-01
      1.8688769053100510e-01 7.2563174434615629e-01
      9.1924239713270528e-01 2.4139864061562608e-01
      -7.4925264613218456e-01 -7.5201296344397617e-01
      -1.0550862469962423e+00 1.5939489795716397e-01
      2.7481258061310139e-02 -7.9601813501079388e-01
      -9.6159435346342095e-02 -1.1119753941065085e+00
      2.2235088902287517e-01 6.1805271924597094e-01
      5.4279195832974059e-01 6.6849076450315403e-01
      4.7393477303694820e-01 3.8534230651476237e-01
      5.2658175823830249e-02 -6.3049419471029555e-01
      -8.5585168336833306e-01 -1.4633231555197588e+00
      -1.3527783977024720e-02 -5.0055294542878104e-02
      1.7511185219262779e-01 4.8624252087203601e-01
      -9.0361269347170181e-01 -1.4244759967605194e-01
      1.0615313487185501e-02 -9.2559368207027992e-01
      5.4898812286114533e-02 3.1181262691742789e-01
      -8.0282111237459752e-01 -5.2724218941606737e-01
      -2.2093813555784572e-01 -1.9706448371785668e-01
      3.0724382646781484e-01 3.7521439778391275e-01
      -7.3706058787491913e-01 -3.3558587252351280e-01
      2.2519351364736287e-01 -4.8029145017716317e-02
      -3.4413103870786282e-01 1.0973623139573653e-01
      -4.4891646096218191e-01 3.7779343776538721e-01
      -5.5432894680398970e-01 -4.0816203329890205e-01
      1.0944760247673281e-02 -2.8743312658634462e-01
      1.6282019557566385e-01 3.6541985109046791e-02
      -5.4957535267339008e-01 -2.0195477632650522e-02
      -5.6597684982635010e-02 -2.6107098533522857e-02
      2.0229433259465965e-01 2.9854668507532361e-01
      1.1535012104449650e-01 6.8511913275590297e-01
      -6.5808437909379180e-02 -7.6262505744481257e-01
      8.1802159190476051e-02 1.1711703459993472e-01
      -1.2110349322886502e+00 -1.4405389295490689e-01
      -4.4269181896599491e-01 1.2314042313306418e-01
      -1.0395493703761645e+00 -4.1324642961290586e-01
      3.5277780060939445e-01 2.7903414344758154e-01
      2.2095801482020971e+00 -4.8302745574918304e-01
      1.8803790925432559e-01 -8.5234546706752101e-01
      -3.4952999272580587e-01 8.0716374332274587e-01
      9.1002721441301127e-01 1.6947169018305019e+00
      2.4235785656094955e-01 6.5829312242466284e-02
      -4.5581070833978077e-01 -3.2215496859678655e-01
      2.4537222633870096e-01 1.1525135998108536e+00
      2.0367036698661203e-01 1.4279726912792276e-01
      8.7688150275822974e-01 -5.3395994747369591e-01
      -4.6837847313269232e-01 -1.0921405053523583e-01
      7.1673572929497797e-01 1.6560300382466686e+00
      -3.9342269580570938e-01 1.0831264517004009e+00
      1.3018920069278486e-02 -9.2389549617966404e-01
      -1.3608950175983658e-01 -3.4885275403070143e-01
      4.1023611538878096e-01 -5.1215874017694218e-01
      -9.2538655827957533e-02 1.9950089917199770e-01
      -2.6642073483427120e-01 4.9532553762808457e-01
      -9.5846240186202392e-01 -3.7518306045643418e-01
      -6.2345761434439567e-03 -1.0808013077893290e+00
      3.6025808882901411e-01 3.8130452258629627e-01
      3.4972851855187767e-02 -8.3195728033847371e-01
      2.4851960045879656e-01 3.0166983938645031e-01
      -1.4627729860391211e-01 -3.5963649294833727e-01
      -1.2847221366740207e+00 -6.0813682190111806e-01
      1.3226462299731487e+00 -1.1376732619425171e-01
      9.8411962368341432e-01 1.1144705132256763e+00
      1.2436294186837025e+00 -5.5372872585250421e-01
      1.8139426759720700e+00 3.2888432639973236e-01
      -1.1031717281943894e+00 -1.5429132923325652e+00
      1.2500285318818012e+00 8.0003031588063778e-01
      4.6588837557565477e-01 8.7887707883307409e-01
      -1.4503237612006259e+00 -1.7521631802908306e+00
      -4.9764686518141761e-02 2.8123767631971153e-01
      3.4378679949817081e-01 -1.9527280732068861e-01
      9.3847044696148199e-02 -4.2183863735880245e-01
      1.8095404350628483e-01 2.8917295913621366e-01
      -6.6467245528017249e-01 -8.1831639163444947e-01
      -5.6178796107765216e-01 -2.8830880154338923e-01
      -7.3608423289268354e-01 -6.6702697560239804e-02
      -5.7117922485118555e-01 6.0450114101921071e-01
      -3.1781618861096711e-01 4.3691930457612477e-01
      -3.0256041950829987e-01 -7.3083708564028271e-01
      -6.9990380423022003e-01 1.4208891563182224e-01
      6.2941301210517095e-02 1.6428179339254728e-01
      1.0670482108190094e+00 1.3662380043548478e-01
      1.7147587617241419e-01 6.1041099578327207e-01
      7.9082950983597222e-01 7.4339142696931415e-01
      9.2189458921310174e-01 1.5885892963742643e+00
      -1.2143956739048760e+00 3.0861509573537993e-01
      2.1480471676153887e-01 -3.8290262765912431e-01
      1.4063335993186990e-01 -4.1036136091462488e-01
      2.5978497491277888e+00 3.4330051243629306e-01
      3.4098391402181299e-01 -4.9293376663838359e-02
      2.1236430128532208e-01 1.2606435244277381e+00
      1.0799356970257487e-01 -9.4516229952689157e-01
      1.1384163523484541e+00 1.3661730064726070e+00
      4.5984213389585021e-01 -2.3855510040217229e-01
      -1.1174342893717841e+00 1.8872702960751322e-01
      -1.1038057730149609e-01 5.1824189330419712e-01
      5.4125372192685628e-01 9.8829391747229167e-01
      6.6276043325812217e-01 -1.0598477611448724e+00
      -7.8486250970821758e-01 1.3040729816061740e+00
      6.0131260070272208e-01 -5.2286084311058334e-01
      -1.7204372017219480e-01 -5.1117419406967346e-01
      -4.1364581992939914e-01 3.8401025227913260e-01
      1.9481318431217329e-01 9.3678714917468842e-01
      -9.4276101021540326e-01 -3.1812602090128245e-01
      -9.7703664231818332e-01 -1.3269516681717386e-01
      1.1233000509287541e+00 -7.2479455346058230e-01
      -2.1462445546094673e-02 4.9025108510505072e-01
      -5.5592215005271073e-01 8.4767959719761407e-02
      6.4943116289678593e-01 1.2309486571168052e-01
      1.2400662571121590e+00 2.4332050967260763e-01
      -3.0449235748692599e-01 -6.5881402922562493e-01
      1.6723907981416541e-02 -2.6428164236691531e-01
      9.9759503283418194e-01 -5.7894952039741410e-01
      -1.0287319090685684e-01 -1.1524449323348800e+00
      1.0586011887689282e+00 2.4870446177662592e-01
      1.2019276088891838e-01 2.4134421353413313e-01
      1.6955796426623770e-01 -2.2192110671299259e-01
      5.2473715453414849e-01 8.0072842234008201e-01
      4.2572194051659479e-01 2.2804205754379267e-01
      2.2847674936070045e-01 -1.0693189420487678e-02
      5.3126852493451587e-02 5.4134274585416690e-02
      5.7769444319048902e-01 -7.2983021292688277e-01
      -3.6460663630715057e-01 -4.6521100518312769e-01
      -2.5562060191227026e-01 -1.1132626134686203e+00
      -1.1802969927667810e+00 -8.6880019063794078e-01
      -9.9170733425318194e-02 6.1535715431707542e-02
      -4.5704858467578491e-02 -7.4962032667323875e-01
      -2.9172135381529879e-01 -1.2461405068405050e-01
      7.5670819237764519e-01 1.5322504488628199e+00
      -3.3642127303018504e-01 -1.1176801014909747e+00
      -1.4722632831498830e-01 3.8226443703319934e-01
      -4.2700813746452328e-02 -3.3788134341915693e-01
      8.6604555181022932e-02 3.5393811253074353e-01
      -4.7524989482469127e-01 3.8658322571561204e-01
      -2.2288622515369516e-01 -2.7201945122515675e-01
      -3.4123285789582575e-01 -3.3664894802334200e-02
      -6.5670335113065714e-01 9.8596950916280235e-01
      9.0731507865312466e-01 3.9017463438168344e-02
      -4.1256513540181691e-03 1.9118115222032543e+00
      6.5324615658766505e-01 1.3417297129606434e+00
      2.9216956934560634e-01 4.4092149078171555e-01
      4.0541230560230912e-01 7.0035973917130645e-01
      1.0672397172521943e-01 2.5485270273407229e-01
      6.4020942601992481e-01 3.0990948039337785e-01
      -9.1995592138528770e-01 2.2297967307050701e-01
      4.7982541401303375e-01 -3.3775983760156508e-01
      -5.9301468586971842e-02 5.3652020858733585e-01
      -1.0758396188181385e+00 2.8240419598593719e-01
      -4.0985246036123169e-01 -5.9428111855513355e-01
      4.1298064181297084e-01 5.3341097623186262e-01
      -5.6270058673515233e-01 -2.9306324099642045e-01
      -3.2113456759715214e-01 2.0663058910480769e-01
      -3.2473206893495332e-01 -6.9521181375484997e-01
      7.1365229702737898e-01 -5.7241484957484612e-01
      6.6357653182998300e-01 -1.4996121863626319e+00
      -9.6831316751426783e-02 5.5538814994126351e-01
      5.8822905025132410e-01 -4.6509295892168026e-02
      -3.1405570560259011e-01 -1.0051378993047484e+00
      -8.1594782523159359e-01 -5.7630817730449235e-01
      4.1426748165390381e-02 1.6636985180798036e+00
      5.0702171989425804e-01 8.0059835817312153e-01
      -1.0959194865442894e+00 -2.5144063877404177e-01
      -2.2612077478954842e-01 7.6366640501996808e-01
      -4.2445772132758763e-01 -9.7081351632040436e-01
      2.7951106169768608e-01 -4.4870166002983958e-01
      3.5239341201975150e-01 6.5354475967799097e-01
      -4.7155668311365646e-02 -6.9847154885230500e-01
      -6.6501544647351762e-01 -4.5079538994525287e-01
      8.7440965692233097e-01 -1.0537087525562695e-01
      -1.8288906565881738e-01 -1.5566146940540454e-01
      2.0397929246839186e-01 -9.8430595736499149e-02
      -3.3867001676509728e-01 -7.9503282124823804e-01
      -5.5447156754567040e-01 1.5725493502245566e-01
      9.3677753997368135e-02 1.8584217075103851e-01
      1.3980698634144511e+00 6.2807765895540957e-01
      -7.9122600284734765e-02 6.3442961569609913e-01
      -1.1628570737437576e+00 -9.6225039215685856e-02
      -9.3886877805671301e-02 -9.0591134537165621e-02
      -4.7248972555072410e-01 -9.3756288483027062e-01
      -2.9160476381011663e-01 4.4731172654862861e-03
      -6.2357652020066390e-01 -2.5851109575366499e-01
      1.5493654540886295e-02 6.7210187548891731e-01
      -3.9072461632729016e-01 1.0197152516920849e-01
      3.8037952440186668e-01 2.3659229141361302e-01
      7.5171559462249804e-01 1.2687199217912106e+00
      6.8914480358674102e-01 3.3393431637205245e-01
      5.7651168072681691e-01 8.3448204376606583e-01
      -7.7755330287620628e-01 5.1503977616610497e-01
      2.6922275935526552e-01 -1.4275997803236751e+00
      3.6229198738993273e-01 -3.9314248946477608e-02
      -1.1298897361609679e+00 3.9860386050113500e-01
      -2.0831266083375158e-01 -1.6453898697336500e+00
      7.5644672877410266e-02 -1.0820992700579063e-01
      -9.3965065542403015e-01 7.2318142529141649e-01
      5.1695610046992246e-01 -4.1544388406771099e-01
      -8.4452182087039573e-01 9.8167823530589460e-01
      2.5525856185813350e-01 9.1984556808817786e-01
      -1.3844310210360791e+00 -7.7253386364726107e-01
      -1.0661119855917747e+00 -1.7959691352058667e-02
      3.1378896334756251e-01 -2.2071318801838177e-01
      -4.3247544933089760e-01 -4.5506048943997929e-01
      2.3293536682879276e-01 3.9157828475693501e-01
      -5.4250589905300217e-01 4.9884205746941451e-01
      -4.3384986585923507e-01 -4.7389043140593390e-01
      4.5683613281101876e-01 4.8640322873603703e-01
      2.8675047298875445e-01 -1.1541391827612690e+00
      1.3531666159464275e+00 6.1363010174301280e-01
      1.8070021536465936e-01 -1.5523468135229088e-01
      -1.2167729691725898e-01 3.6970860435099728e-01
      4.8344476368116124e-01 -1.7425305674667126e-02
      -1.0363692785965227e-01 3.5039118126150637e-01
      2.4626060623909551e-01 -9.9789028684285422e-02
      -4.6941604048503466e-01 -9.8096075346166406e-03
      5.9228331810939316e-01 -9.4545730748644224e-02
      2.0858712493456741e-01 1.2477581501143982e-01
      1.7290083983540067e-01 -2.9081776326666320e-01
      -5.5091370390930516e-01 -9.5871569879598062e-01
      7.4486525261593439e-01 -1.8034368799669276e-01
      7.5347035340878180e-02 -6.8499837728879284e-02
      3.0348645968537274e-01 9.6074565815394175e-01
      -4.1181487828299274e-01 6.7695619023502107e-01
      -6.4806642660695857e-02 -3.3682233993629446e-01
      -1.8612989391086085e-01 1.0211945639138440e+00
      -1.0944201232792168e-01 -5.1438129964949786e-01
      2.2212549226144809e-01 -2.8289293924952874e-01
      -3.6374382656229387e-01 2.1215238249377841e+00
      5.1418888681443464e-01 -3.9423686292752874e-01
      7.1162589689790046e-01 -1.2180677860991167e-01
      -6.1284549727657822e-01 5.3354779252164763e-01
      8.9070825347026192e-02 5.7128960696444098e-01
      -3.5401553006093567e-01 -6.1789978317807600e-03
      1.9196949446039321e-01 -3.2793519921015279e-03
      2.7775890294087408e-01 -2.1372983572990639e-01
      8.5036763726104003e-01 -2.7773114819488454e-01
      6.8405730270416321e-01 2.0089367432159175e-01
      4.9098815267661028e-01 -1.9551416083192580e-01
      -5.5959916949987132e-01 8.1713254942382907e-01
      -1.4249565312787928e+00 -2.8468108514189616e-01
      2.8492751425106561e-01 -3.6240575814551723e-01
      7.7554161704770516e-02 -3.9408822879934674e-01
      6.6496997938219171e-02 -7.8804936188370867e-02
      -7.0713393058485363e-01 -3.6825246653911825e-01
      1.8680820119213906e-01 -1.7493878474444402e-01
      1.6313434817508288e-01 3.3584815696060250e-01
      -1.2092567635114944e+00 4.2490684243595600e-01
      3.4118592759565641e-01 -4.8644035122732310e-01
      1.0992758200687185e+00 4.8719690807629237e-02
      4.8763459335295989e-01 -9.2281185097941076e-01
      6.4709294746163326e-02 1.2185432000666094e+00
      4.4493786902047561e-01 3.4677016023650326e-01
      1.6053035619987649e-01 -1.1816533767691781e-01
      -1.3142413621909965e+00 -1.1668092404431711e+00
      4.2795897939205307e-01 5.5053840713348190e-01
      -5.3196740275149579e-01 -9.2201600438915055e-01
      6.5818226339063424e-01 9.2106488930975255e-02
      -1.1183636450867060e+00 -1.1046101485438585e-01
      1.1411217749881941e-02 -9.7039300784531357e-01
      -3.3951659617295749e-01 1.1517506626905608e-02
      1.3582239438922752e+00 1.5959616039887277e+00
      4.4842566267106604e-01 -9.6804509540131678e-01
      -1.0244374848169426e+00 6.5070708731356475e-01
      -5.9326512655064487e-02 -4.4493210477707806e-01
      2.2617078698341445e-01 -1.1992796092951011e-02
      1.4901223808838282e-01 6.7827136726526960e-01
      2.4027751831682342e-01 1.3849017834880992e+00
      -7.7501926322693049e-01 2.3217941782988788e-01
      7.6471767319023320e-01 -5.4716149997073159e-04
      -9.4568483532912709e-02 -1.5359609913937014e-01
      -1.8100307777756265e-02 -5.5238138896489611e-03
      -7.0669968767988978e-01 -3.9990704185152409e-01
      -4.5224365164022472e-02 -1.3178052929135387e+00
      -9.9732263092967777e-01 -4.6794475961390475e-01
      8.8058710434218501e-01 1.0372115900866890e+00
      1.5511720708905269e-01 -6.9893258689065360e-02
      1.8395645422417636e-01 -4.5618807807213485e-01
      -9.0348676486891633e-01 -7.5252927811665826e-01
      3.7297959785058027e-01 7.2742063413533328e-02
      -5.5790144474882142e-01 -2.0715641810184110e-01
      -1.6292382485323323e-01 2.0666241296416701e-01
      7.9384948072462713e-02 7.6514576249117039e-01
      -7.1622031092357574e-01 5.2858942273084175e-01
      -1.1991985500044568e-01 -5.9133622552726672e-01
      1.0286465987514659e+00 3.5528224408693188e-01
      2.2219961162349622e-01 -7.2818904427502398e-02
      -2.0593895659479514e-01 -4.3998462272037947e-01
      6.2273789887510522e-01 -3.3367718664936924e-01
      -1.5165910530585175e-01 5.8168572702068666e-01
      5.3681765033227621e-02 6.3991973192183516e-01
      1.2546048625967252e-01 -6.6381741541320566e-02
      -7.5008046313372934e-01 9.8372171835810029e-01
      -5.6629716378511163e-01 -4.4813950394621577e-01
      -8.4504268481747957e-01 3.2081031185556574e-01
      9.4110433037828711e-01 4.1854188438467532e-01
      -2.3433851779689427e-01 -6.3345744731651699e-01
      -1.6063796421812501e-01 -4.0854840537472842e-01
      -2.3202724370161873e-01 2.2903425601947328e-01
      -3.1738491258510915e-01 9.4379121988891923e-01
      -1.1745793005918171e-02 -1.0058472337958424e+00
      -8.4336159540674849e-01 -6.3180697100580963e-01
      4.1059349543727669e-01 -4.9711557236052095e-01
      3.0418764252971270e-01 -2.9485082941239787e-01
      5.3479182687788070e-02 -8.6306554112203793e-01
      -4.6244695873938896e-01 -6.8514725705794621e-01
      4.2632155236276315e-01 -9.7964808082366947e-02
      -7.8052072341076117e-01 -2.3766590412671346e-01
      -3.8686008675688910e-01 4.2510245966521981e-01
      1.7956301825625484e-01 -1.2429333623980038e-01
      2.6902065163346367e-01 1.4452464528107833e-01
      6.0814970936736978e-01 -7.7182938735397022e-01
      2.2976319138898385e-01 1.5983863539887735e-01
      2.0530089314059285e-01 -1.9630611117104479e-01
      -1.0459183214377452e-01 -6.9554735902019993e-02
      1.3745941062711969e-01 5.4001443647325481e-02
      -1.0808863188908651e+00 6.0740259378501818e-02
      -5.2243286025229263e-01 -1.2553602499816479e+00
      -8.2300996504851856e-02 6.9242438752619662e-01
      9.3344091338105739e-01 4.4239160879022921e-01
      6.2104347849881003e-02 4.9073257927075881e-01
      1.4032786468712849e-01 1.0718713670990345e+00
      -7.3769556713018913e-01 -1.9553867306202682e-03
      -1.0504196330524778e+00 -1.4791385765505853e+00
      9.2412376524566664e-01 8.6874393455127319e-01
      4.4783829374562290e-01 4.2114746290637367e-01
      -1.0714580752165019e+00 -5.7374447826260877e-01
      1.9475112329821959e-01 -4.8112798988085859e-01
      -2.6304269085949294e-01 -5.9934352640349145e-02
      9.8401076958263689e-01 -4.6278665952199899e-01
      1.1140396263961618e+00 2.6105704931063273e-01
      -1.8191526543105632e-01 2.4277540616476682e-03
      1.2722084008421275e+00 -5.5569844248723543e-01
      6.3478805371061586e-01 -4.9675442133824871e-01
      -3.0119425881984435e-02 4.9878474230397779e-01
      4.2530718984795640e-01 4.5835000172333074e-01
      -1.5449350203325516e+00 6.6383320955679975e-02
      -5.1267500987365422e-01 -7.9197707771296311e-01
      -3.1685726449162377e-01 -3.0086954088152795e-01
      1.8024017347223770e-01 6.9354958552114165e-01
      8.1325231105781437e-01 1.2630439324837675e-01
      5.4671984033967891e-01 -9.5394257713032748e-01
      -2.2281599426079735e-01 -7.8990044230266709e-01
      -1.9447316923201230e-01 6.0669260853008555e-01
      6.2899404600381237e-01 -5.1103306713142016e-01
      1.2566772181657622e-03 -1.0308654566508690e+00
      -6.3315768056080557e-01 -1.0681662420256863e+00
      1.2824303514724050e-01 -2.0058457409741248e-01
      4.7900643529437043e-01 1.3547737447752708e-01
      -1.2746947389588805e+00 9.9205878386720570e-01
      4.3563436525390642e-01 -2.5472969642892573e-01
      -6.9308800378061897e-01 1.6603441950258277e-01
      1.7326804300538828e-01 9.5949317460971323e-02
      4.3644495241826026e-01 4.8270863044595513e-01
      8.3117489432292455e-02 9.7305000478973377e-02
      -1.4188535139682896e+00 -5.9698626498630802e-01
      5.9355092198303729e-03 -7.4105334290599223e-01
      -2.3258946301302574e-01 1.6828591705523158e-01
      -5.0640627607754329e-01 7.8970495143114133e-02
      -5.0673942575834532e-02 1.6977364128085093e-01
      -1.5222671905208855e+00 -3.4573504031660562e-01
      1.9094056520120814e-01 -2.2060282617653724e+00
      -5.0483518256196369e-01 -1.3590806728676719e+00
      -2.8919822521539162e-01 2.4674482078218987e-01
      1.2012548428621692e-01 1.9122283807025975e-01
      -6.1531369813027870e-01 -8.5097351272338406e-01
      -4.7587969144051862e-01 -3.5294451617559292e-01
      -9.0717122344742007e-01 -7.6603498546033633e-01
      -9.7362770512004559e-01 2.0458971576223506e-01
      5.0348821133678656e-01 -2.9645572589769542e-01
      -1.1807523046790191e-01 -5.3883473656749936e-01
      -9.1954742167422987e-01 -5.3186567511030958e-01
      6.0948748577690268e-02 4.0384312279781523e-02
      5.1258880767967852e-01 -2.2456854734555503e+00
      -7.1019732078780262e-01 1.0488037897732732e+00
      5.0562783409956480e-01 6.4741687654705504e-01
      -1.0697322853233675e+00 1.8661524967992979e-01
      1.4536138034128430e+00 1.1252961113908464e+00
      7.4350524197026047e-01 -9.4930762173795002e-01
      -1.1303298277991796e+00 -2.9727264744847831e-01
      -1.5224782407533377e-03 2.4427600120154255e-02
      -1.3553682700572374e+00 -2.5575774633809206e-01
      -3.3247477131620901e-01 4.3976281684551016e-01
      1.7831629311451039e-01 -6.5849913755031922e-02
      2.4992947641155638e-01 -1.2457373717937528e+00
      5.1268643442215996e-02 1.0128167785941979e+00
      -1.5926240054231682e+00 -1.5684840911386450e-01
      1.3055227181847717e-01 -2.1902753949331577e-01
      -3.2513376420379958e-01 -3.3597866482382260e-01
      -7.0748139924745068e-01 1.4198731490259272e-02
      6.4941350346855942e-01 -1.2976055320712734e+00
      1.9183940154335222e+00 2.5339191513068299e-01
      -5.8997067652700608e-01 -3.1044297129049153e-01
      -4.9134540679281724e-01 9.2889288041314610e-01
      2.6533704525407198e-01 6.4130111609085261e-01
      -7.5524232643569855e-01 -4.9292283610320797e-01
      6.1194588330887245e-01 -5.4271408908548757e-02
      -1.1869967466829856e+00 1.1112257787319582e+00
      9.7632533889839190e-01 -5.5902553263539580e-02
      -2.5231491133998002e-01 -6.2214379894113325e-01
      -3.0066178427118978e-01 -8.5525468752056200e-01
      -4.9714118716944727e-02 -1.5216028625673561e+00
      -1.1109707156598156e-01 3.2454046827978901e-02
      2.6927930279951832e-02 -1.7024308292826187e-01
      1.0923433540874912e+00 -2.1295599736710150e-01
      -8.2144085676045697e-02 -1.7748920810480062e-01
      -7.3211781758392547e-01 -4.5991532035238453e-01
      -4.6033736482586268e-01 6.0803796579391478e-01
      -6.3562655289109271e-01 -1.0728957493971880e-02
      -1.3320710366939017e+00 -1.2731192749310092e+00
      1.6449896892228114e-01 1.1906695436105625e+00
      9.3666745658377892e-01 8.4645379882514460e-01
      -6.0203727886262703e-01 -7.9437436261563654e-01
      -2.8996475862356180e-01 -8.9481422082190842e-01
      3.5816553704226303e-02 -5.4963337592882522e-02
      4.9933322176539013e-01 1.3465093763782741e+00
      9.6965460059451336e-01 2.1553994502489221e-01
      -1.0545264323819031e-01 -3.5557960257278393e-02
      -6.1431303119509895e-02 -3.9642109427551156e-02
      -1.0333696980244271e+00 -1.2121252744502918e-01
      -2.8504789302518857e-01 2.7524330842367628e-01
      -1.4533848688505216e-01 1.1281998914073878e-01
      1.7608522016965551e+00 9.0789983369163485e-01
      -1.3491471603583232e+00 -6.4872432465284990e-01
      -2.9923053257397580e-01 5.1953192511457424e-01
      5.5462249381819151e-01 5.0476380980926716e-01
      -1.9077288025741870e-01 -1.7909128107310143e-01
      2.8626701030139873e-01 -1.6981354693251927e-01
      1.2527238335374819e-02 5.9453834547296580e-01
      -1.8781276189186868e-01 6.9886954258225376e-01
      -9.8458849905702875e-02 3.4503126577529603e-01
      7.5097836015884079e-01 -1.0087490083599088e-01
      -4.2214445954646052e-01 -1.3874711604545203e-01
      8.9089312021386435e-01 -3.3743068010898086e-01
      3.8722354943927656e-01 5.7657913607127376e-01
      -4.6206755128150523e-01 -7.2601424643024226e-01
      -2.8196043372446439e-01 1.1228122793962863e+00
      -3.7182231721771952e-01 -9.6484526319376407e-01
      2.9365606123134647e-01 1.5007778852819828e-02
      -3.5676034128708833e-01 -5.4444578784364661e-01
      -9.9822796665550037e-02 1.8355232858550565e+00
      1.1016824163669900e+00 -5.7587156267891892e-01
      7.6509697026005408e-01 1.5126805709291413e+00
      -2.7574893102679959e-01 1.7918794190870863e-01
      1.0844630451626340e+00 2.1183808302451643e-01
      -3.2001042407137786e-01 -5.3888582496478521e-01
      1.8170417798328313e+00 1.2169164593023876e+00
      -6.7468135501200621e-01 -5.7815512940437652e-01
      4.1314673092045417e-01 8.6820650080854622e-01
      2.8160761809629996e-03 1.1213600329876164e-01
      1.7010119671170346e-01 -3.3408481287160979e-02
      -1.7618034379723266e-01 5.2273654450409368e-01
      8.8609344339119867e-01 -6.7876286847295708e-01
      -3.4535398556213687e-01 -3.5571726535215226e-01
      6.8355740254258424e-01 -1.3203605988248124e+00
      -2.6390797155206269e-01 9.4250437006697455e-02
      -2.2139025906871423e-01 -5.2308097740839432e-01
      -2.7511703637014395e-01 8.6466101140437113e-01
      8.4237741573417544e-03 2.0641582141549128e-01
      1.7518994112669917e-01 5.9789884078506483e-01
      -4.8838142593689643e-01 -8.3841751317720448e-01
      2.5164000188189883e-01 1.4567739137627151e+00
      -1.6635336988152902e+00 6.3037091173074034e-01
      -4.8013981337864126e-01 4.1617259977285864e-01
      -8.8003094345984245e-01 2.8232218024719880e-01
      5.3982063892174570e-01 -8.1458228384225839e-01
      -7.0733389882543618e-01 -1.5514773614660669e+00
      -8.5670114186071555e-01 1.5288372607302203e+00
      1.1687246408287209e+00 7.7335153940724222e-01
      -8.4046279936055834e-01 5.4085157799214179e-01
      -5.1958747380299886e-01 -3.7636943150816909e-01
      -2.2494841316719708e-01 7.3016673483130368e-01
      3.1094689115773305e-01 1.0208392835883706e+00
      2.1013426176317015e-01 3.5502964590819336e-01
      2.9199782892172166e-01 1.4952089911862348e-01
      -2.4434150968566784e-01 2.1947169972027317e-01
      -4.0069783928220226e-01 -8.3795059734192900e-01
      1.8154643617183295e+00 4.7550515630783130e-01
      1.8531475211457284e+00 2.5375971980598111e-01
      -5.7202026875058931e-01 1.4907789254163531e-01
      1.1817407174537047e+00 -3.6476309194040257e-01
      7.3157808103538158e-01 -5.3850530578167022e-02
      -1.3099981867606658e-01 -7.7413176024073849e-01
      5.3081034586799913e-01 -1.4426803423854802e+00
      -4.6490593454035051e-01 5.1210215896128164e-01
      7.2892443203807942e-03 -9.2173787852065447e-01
      -5.2153663366109071e-01 -3.2022411955614066e-01
      -5.0191232690605159e-01 9.4011448703048242e-02
      4.7860387327561893e-01 -3.4637036192090487e-01
      -1.4518178469965567e-01 -7.1228220725664582e-01
      -3.7542726527053949e-01 -4.3044763360535576e-01
      -6.4719552526143864e-01 4.3467476945618538e-01
      -5.3605546093110856e-01 -2.2210981121778278e-01
      1.2538074828920818e+00 -7.9556318185064215e-02
      -1.9249108152930799e-01 -9.7405044899822768e-02
      8.5801360120366976e-01 -1.0980341577291830e+00
      -2.0479529505161850e-01 -3.5737074155252513e-01
      -1.5513392901866461e+00 6.8802310486884743e-01
      -8.5789893916275273e-01 7.3226713427975459e-02
      -2.3579064687623563e-01 -4.0543110646430380e-01
      4.1370937897322729e-01 -8.4287661785959103e-02
      2.0858195586940784e-01 4.6851346273042960e-01
      -5.5769237173574437e-01 -4.1280245629061635e-01
      3.2717652660005125e-01 6.1970621933895531e-01
      -1.4238892859087733e-02 1.0129658057221694e-01
      -9.3855543434468658e-01 -4.5181496973128649e-01
      -5.7486221916384683e-01 -7.6837388661826833e-01
      1.1377147542823352e-01 4.8325031085131316e-02
      4.2057538489428364e-01 -1.8552190245054806e-01
      -5.3395138789011110e-01 7.8263632203230360e-01
      3.2152333550755885e-01 -5.6183885961147617e-01
      1.3981492179584298e-01 -4.0593035211847772e-01
      8.1546628808986754e-01 -9.6993770955383710e-02
      -6.5622338459706364e-01 5.5996603095846398e-01
      -4.3260824917836593e-01 -2.1776365500374881e-01
      -3.1640659100295015e-01 4.7215692935720249e-01
      -8.3055904372674594e-01 1.2398519720896919e+00
      -1.5735195021984100e-01 1.0366131706372236e-01
      -3.9628192630309234e-01 6.2336905158436895e-01
      3.8131199810920607e-01 2.6183715952882397e-01
      -3.9046825650227551e-01 -7.0763668663185217e-02
      -4.6933129857310624e-01 5.5783360202697019e-01
      1.1070375395911776e-02 8.5951773416192111e-03
      2.6084077451869914e-01 3.6099297785872614e-01
      5.0903011369916884e-01 -3.5280594437796353e-01
      -1.3468605272466921e-01 2.2766892598344840e-01
      -1.6107821012896564e-01 -3.6091447597666854e-01
      4.4078005281686794e-01 -5.9947530350537992e-01
      7.4463092348070836e-01 1.9062297425428995e-04
      2.7548888424279833e-01 -6.0866442634146323e-01
      4.2391168825285715e-02 -8.6652931619695917e-01
      -9.4874717677188525e-01 3.0315668197697172e-02
      1.0187532063526488e+00 3.5606160270116072e-01
      -1.2620778289639936e+00 -6.3993375404566821e-01
      1.0943067697131878e-01 -2.5916314064888774e-01
      8.9502716871198029e-01 1.1881647007160967e+00
      5.1151191987764855e-01 1.2036859939675132e-01
      -8.5763712438819772e-01 -1.2147959669280013e+00
      4.1078452846122143e-01 -1.3348933691420926e+00
      1.3116306828982838e+00 -2.7652350829268368e-01
      -3.7327903089778969e-01 1.0507845356473653e+00
      -4.4915228501867283e-01 8.4185008217925217e-01
      -5.3518873595416006e-01 -5.5388177645375805e-03
      -1.1820562132460076e-01 1.5186749288067602e-01
      -5.2932572767773944e-01 -1.5380760984570602e-01
      7.3490457322592947e-02 -1.4839246465046458e+00
      -2.0676386163533307e+00 -6.4121532268129455e-01
      1.8280966811498944e-01 -4.5367215821468143e-01
      7.1988223532294601e-02 -4.9684637425794709e-01
      5.9244332932142407e-01 -6.7914706286088877e-01
      -6.0785336216032326e-01 6.7639451764901237e-01
      -1.6815899986586666e-01 -8.8002187544733013e-01
      -3.5269514748024609e-02 -8.4391784139104720e-01
      4.6712300922280084e-02 -3.3349844987312688e-01
      -1.7229236804850795e-01 -4.4802710402220580e-01
      -1.2011507298572419e+00 5.4064317757121849e-01
      -4.9156087007173432e-01 5.6186274299758721e-01
      -4.6620262726811473e-01 -6.6906448256641257e-02
      2.0687558111796911e-01 1.6678687838399606e-01
      2.6488141097351925e-01 -9.5610595906220647e-02
      -7.0295645053210831e-01 2.6906810912014138e-02
      6.3839347565257387e-01 -8.3053638004362759e-02
      6.4980913647847405e-01 5.9156544935580668e-01
      6.6892036504198304e-01 -2.2787409245462639e-01
      3.0968743922751424e-01 -9.9945840336093883e-01
      -1.4935076393348596e+00 -2.6139912135339871e-01
      5.2066140541831807e-01 5.3846717159877020e-03
      -7.6581968464628603e-01 8.9526878160999868e-01
      1.3554043416558770e-01 9.3247596015138667e-01
      2.6642599676509288e-01 6.2288547096926261e-01
      5.0982236485884302e-01 -4.8639748876485539e-01
      3.8101900619713641e-01 1.5122543188551513e-02
      -5.5531499400199114e-01 9.5577736733180829e-01
      -8.3034590851338930e-01 -1.4477351337882587e+00
      -1.2234691916060580e+00 8.2759605667448899e-01
      -8.8307599949214444e-01 -3.3882913543179641e-02
      1.5668509210592457e-01 -6.7375562812974091e-02
      4.0616596568102320e-01 2.8058829874069036e-01
      9.9602112969220582e-03 1.2979642077060655e-01
      -6.6096225588776603e-01 9.2315886703882777e-01
      1.9545172488738266e-01 5.3889669308129273e-01
      -6.9825062792006343e-01 -1.5291248734072089e+00
      -7.2792535013564041e-01 -8.7210081889011259e-01
      -2.3587473779664167e-01 6.5654724408871601e-02
      -8.8438948933401665e-02 3.0333310169533317e-01
      -1.6133200361948368e+00 -3.5801305618520329e-01
      1.2467713470301027e+00 2.7257613345100218e-01
      1.5834061571446886e-02 -3.5544863376217084e-01
      3.7167638973322165e-01 -4.3571276948078841e-01
      4.1604444792717028e-02 -6.5933127212785700e-02
      5.7293144015737429e-01 1.8231241779053324e-02
      -7.9638437781250992e-01 6.9579967742181237e-01
      -7.6035473043139923e-01 6.3751051577700180e-01
      -1.1384522571373188e+00 -1.9416001723218632e-01
      -2.0781007537495250e-02 -4.5760172955984824e-01
      -7.2395866860884173e-01 -5.0974120036810275e-02
      -3.8713704641046237e-01 1.6338841720559724e-01
      5.5140147698689279e-01 7.8573313705353864e-01
      -8.2335959520856083e-01 6.9987550338899673e-01
      -1.3734399977865993e-02 3.7961873567836502e-01
      -1.0412512161161873e-01 -4.4225673906007512e-02
      6.2642358763398798e-01 -1.5603354324461534e+00
      5.6358216050864118e-01 -1.1015458327899739e+00
      1.7769406080984593e-01 1.5586039793129499e-02
      1.3877422456903116e-01 -3.9661283656410101e-01
      1.8357483077557027e-01 6.7913664419243225e-01
      4.9297887181538734e-02 -1.1161093420633537e-01
      3.3043746060605381e-02 6.7990822537067652e-01
      9.8106317916318708e-01 1.7278162070657582e-01
      -1.6801651158244235e-01 -2.0869260479555327e-01
      3.3842895105731763e-01 -4.7457589470365141e-01
      6.1245817977885619e-01 2.0610977282211143e-01
      -4.7085597545786934e-01 -7.9463638944853643e-02
      4.5745601745784725e-01 3.5998826049719457e-01
      8.2517166305642736e-02 1.7539105653683893e+00
      -1.1853356590678135e+00 8.4341842374846210e-01
      2.6663152531878820e-01 1.1008483282675320e-01
      5.8473629705408092e-01 -4.6158069581098360e-01
      4.6031715672376727e-01 -6.1012903567372534e-01
      9.0665040062176083e-01 -1.2827414345630568e+00
      -1.9423415272219222e-01 -6.4569771828020803e-02
      -3.1385754448562264e-01 -2.7694030689619142e-01
      1.9366437518273294e-01 -3.9874348851000892e-02
      -3.5740632997454014e-01 -7.6427727784028265e-01
      6.3509530370354750e-01 -8.0470781651499257e-01
      -2.4812672329709370e-01 2.5359691852899102e-01
      -9.0394630633794426e-01 9.8832423041067774e-01
      1.0651758558985074e+00 -1.7468477000185882e-02
      -1.1209832882503973e-01 1.7512616761981816e+00
      -3.1398257768786697e-01 2.4933027389993437e-01
      1.0007219159839125e+00 -3.6944735678888063e-01
      -7.8942795903648721e-01 3.7903541716879524e-01
      6.5695284995830094e-01 -2.2627667708851976e-01
      3.6997043441574101e-01 -2.3906965834825236e-01
      -4.2184805912659634e-02 -3.4942418537627590e-01
      7.7671431303402250e-01 -1.3045917616432416e+00
      1.4020189539786991e+00 4.6680035538757055e-02
      7.1781515523887340e-01 6.9160325779401233e-01
      6.0823124784294824e-01 -5.4400372489489680e-02
      -8.6902261749246190e-01 -1.0206266325478455e+00
      1.0008349938321033e+00 -1.1850629995354163e+00
      2.7814582529906695e-01 -6.4555819993557778e-02
      1.1035648015933983e+00 -6.5150355019051087e-01
      -6.4288478392588888e-01 5.0180802126415625e-01
      -4.2952375540017135e-01 -1.9270240205144235e-01
      -9.6836610994968142e-01 1.2093345817232284e+00
      4.2467144066211250e-02 -1.4064872048833508e+00
      -4.7067414954549774e-01 7.5626430482654039e-01
      -7.7378056333425405e-01 4.3376861884562537e-02
      4.2213564441711234e-03 2.2646635879711263e-01
      -9.2645550463367954e-01 -4.5463655871297481e-01
      2.4577289578821479e-01 -2.5441581085026205e-01
      7.8552440831208181e-01 -1.9968206501995709e+00
      -4.8692404036873338e-01 -1.5972280283891329e+00
      4.3681238395072819e-01 3.7105052679917799e-01
      -3.3583673506452150e-01 1.4214847402255077e+00
      4.6291855347995292e-01 1.8894913044130290e-01
      4.1873686379194536e-01 -1.4889135698183015e-01
      1.4032138362424856e-01 6.6292024468040833e-01
      -5.1977065470421979e-01 -1.4336028760892019e+00
      5.4610718093073596e-01 9.4298015152296938e-02
      -3.6978432428235980e-02 -7.2626022159274428e-01
      1.1164089225434358e-01 5.5112020549556062e-01
      1.7870190010010265e-01 -9.8715197366016494e-01
      -3.4538575968323237e-01 -4.2128249373504023e-01
      -9.4933988293007171e-02 1.8783142786338283e-01
      4.1910764590270355e-01 -2.1511109417527347e-01
      8.8925783538967718e-01 6.0331665063802309e-01
      5.5914799758736111e-01 -2.4643067727392946e-02
      -2.7966649256667711e-02 -4.9359260777956127e-01
      -3.4719885208284995e-01 -2.8898014984471115e-01
      -2.6170184487605141e-01 6.4629678536338733e-02
      -8.3262938175429235e-01 2.5467864215578007e-02
      6.7455744858934630e-01 1.9594225040698252e-01
      9.7369800507683513e-01 -1.0682458971920394e+00
      5.1046688789497230e-01 -7.1617586149383938e-01
      -1.1175751020460999e-01 -2.3268734564023275e-01
      -3.3716031518080203e-01 4.8335995441345980e-02
      -1.0961260937102670e+00 -3.3403499477299059e-01
      1.4759926172828925e+00 -7.4226872371834007e-01
      4.2819212336139717e-01 1.8311389555316246e-01
      -5.6279114859824098e-01 -1.9546679711398077e-01
      -3.1156547768278614e-02 1.5753346865299936e-01
      -3.9922364728867399e-01 -3.4225397839171212e-01
      -2.5095899423405632e-01 1.6656871821871203e-01
      -3.4195617156848002e-01 -1.4916914545341489e-01
      -9.6394428231955120e-01 1.0648087128570465e-01
      6.1209779002814579e-01 -8.2220369154816619e-01
      2.1053390536662503e-01 1.9009365396111610e-01
      -3.2101446236343384e-01 4.7722103786791770e-01
      2.2017713031789454e-01 -9.4491399781345864e-01
      -5.4679490258227259e-01 -1.7538698736911190e-01
      -1.1243395585772438e+00 6.2143549951091792e-01
      9.1957289988415369e-01 -3.3776931460421095e-01
      -2.9691821659829417e-02 -9.2846766047228757e-01
      -2.0205975208863658e-01 -1.7910385759943227e-02
      -3.6748627690964869e-01 3.7621435778540685e-01
      -5.9951053726514247e-01 -3.5828285493621331e-01
      -6.8516356088122943e-01 3.5200652944901251e-01
      -3.4083682250638858e-01 1.8167373196905984e-01
      2.0563456363995805e-01 -1.0775616567444833e-01
      -1.5595283764684589e-01 9.8728867991099058e-03
      1.2595120286666400e-02 -4.6283255403616097e-01
      4.6942353287224492e-01 -8.7543040314296849e-01
      6.7982997298997916e-01 2.3168334304648577e-01
      2.6036772080067183e-01 2.9499731267723089e-01
      -3.2827693963709509e-01 -1.2423767995594419e-01
      -5.8214752900920097e-01 1.1331979845521896e+00
      1.5201881313659038e-01 9.5485536922720071e-01
      -1.1063297205615302e-01 -1.3755604292071217e+00
      -2.4875530390170877e-01 6.4086925453026289e-01
      4.6513436431461136e-01 5.4078372488314708e-02
      -3.3315616189738145e-01 2.8172160209270758e-01
      1.1773060902613254e-01 -1.2718517043586826e+00
      1.2829511691256576e-01 -2.3888791814226526e-01
      1.0569633720618015e+00 -9.2463563285953274e-02
      7.0096879501871423e-01 6.6964265320222338e-01
      -7.9562203819041943e-01 -2.6138511240795310e-02
      1.9737549366693008e-01 3.5150851008779560e-01
      2.2068757191281499e-01 -3.7401796624289768e-01
      8.5705296891955285e-01 5.2383349657964806e-01
      -4.7964743796140835e-01 1.1989680188891969e+00
      4.3192559203992997e-01 1.2487188328865252e-02
      -1.3705353413667873e-01 -1.7407573837954005e-01
      -6.9033746922391892e-02 2.6298888237708229e-01
      -9.5605849778521712e-01 -2.3849646920078907e-01
      1.3409699367724590e-01 1.0464850866807671e+00
      -4.5095273956814158e-01 9.5898749338222969e-02
      2.2314908938734525e-02 -1.5564796878645454e-01
      -6.3694241613605096e-01 5.2328803780785738e-01
      -1.5172339768567566e-01 -5.1215939842572200e-01
      1.1595154115781568e-01 5.4245906086674478e-01
      -5.6121748316366871e-01 -7.4045536104188303e-01
      -1.1187240130566503e+00 -6.2083578628737135e-01
      -2.1914028660431775e-01 3.3739208867724912e-01
      3.4707895430037206e-01 -1.3536803559633332e+00
      2.6148155916500371e-01 9.3912787194904179e-01
      -5.6300183456367281e-01 -4.2982188725715398e-01
      -1.0025481648406327e+00 -2.2740815620982466e-01
      3.9946984591682888e-01 -8.9137968156171077e-01
      -8.3327554353948363e-01 1.7021882404734912e+00
      -6.4566190893917086e-01 -1.0283554726228183e+00
      -1.5056708767548732e-01 -3.1128457086209282e-01
      -7.5709127318626268e-01 6.2179016352796235e-01
      2.1062776003084699e-01 4.1995245112355423e-01
      -2.8839553909649279e-01 -8.9860767146588005e-01
      6.2087476281536635e-01 8.9445699593046368e-01
      4.4891429018226531e-01 1.4590163776280625e+00
      -3.5791048065624520e-01 1.0232323252543631e+00
      -7.0380683650643372e-01 5.2662518680433534e-01
      -8.6698435261407436e-01 -9.4468924316989566e-01
      7.2028527758466088e-01 -7.3389837175970896e-01
      -3.3835875145772409e-01 1.1356395901553651e+00
      1.8712488331973490e-01 -1.0082717924818969e-01
      -2.4260899792023510e-01 8.6700111836027094e-01
      -5.1752178845468932e-01 -3.3079369022000499e-01
      -4.9651625198456156e-01 -4.1513422811477624e-01
      3.6311251618567442e-01 -1.7135168354325275e-01
      -9.1178491137243711e-01 3.9126226353205640e-01
      4.1986788424027377e-01 -7.2768439829928611e-01
      1.3095310254101458e+00 5.0937296857970771e-02
      -8.2676257556265387e-01 5.6459926470679556e-01
      -1.3118199292736502e-01 8.8646676598455598e-01
      3.7614404012089575e-01 -2.1885945232606274e-01
      -2.8962270772443854e-01 -9.5632773938347415e-01
      2.9101241914307346e-01 -4.5218715452621239e-01
      1.3228513253527914e+00 3.7258861698029949e-01
      6.1032492900866195e-02 -4.2693577961440349e-01
      5.5955411810342004e-01 7.3212306689328444e-01
      2.1364542103597459e-01 7.7820164927573243e-01
      -4.0703150882270799e-02 5.7959243894188206e-01
      -2.8540343125081657e-01 -3.4478928544194376e-02
      3.7413086856612036e-02 -4.5794971011570673e-01
      2.1287569551484595e-01 1.3155005366163625e-02
      8.7218949284180198e-04 5.7277730409136279e-02
      1.3484849288743814e+00 1.0381437049694673e+00
      -9.5734562431418180e-01 5.3877350220887776e-01
      7.3902828791346103e-03 4.7933719281961447e-02
      -6.4467463887327436e-01 -1.0495149753582020e+00
      -1.6918667128929659e+00 7.6512068467794236e-01
      1.1086623280199672e+00 3.6534548930020522e-01
      3.3062517695913457e-01 8.0030489965397245e-02
      9.8746882365216804e-01 6.3025502145821047e-02
      -5.0715335341161782e-01 3.9781541945419313e-01
      1.3020448617224417e-01 1.0667057629353576e+00
      6.5279735321891741e-01 1.8554305389750397e-01
      -1.2183572725672103e+00 6.4336154793919986e-01
      -2.7708849770606619e-01 -5.6359169260537212e-01
      4.1326920186994043e-01 -6.3946357051909608e-01
      -1.1342176674478273e+00 4.6178459769630276e-01
      4.5736093158736157e-01 -8.2558573253476583e-02
      2.7107335742742239e-01 -3.4316341293761321e-01
      -2.4111679316497839e-02 3.3442808596067547e-01
      -1.4831557246611629e-01 -1.0700676486639742e+00
      -5.1637833595275495e-01 -9.7910805338795023e-02
      5.6026254508290733e-02 -6.4260061998229612e-01
      1.0874960696204741e+00 9.6628900267095412e-03
      3.0720045852457151e-02 -5.4261366566122915e-01
      6.6515617037993668e-01 -4.2312606761859384e-01
      4.9539479483220644e-01 2.5114540914056399e-01
      -6.5467144403475019e-01 9.0447562355367134e-02
      -5.8816775314972314e-01 2.7759657375445984e-01
      -1.0471209859968299e-01 1.2021111248545768e+00
      1.9332007604505166e-01 6.5719592166242424e-01
      4.2507521391424669e-01 2.3065595611974415e-01
      1.0987114044468900e+00 7.8010156273246967e-01
      2.2370967164241973e-01 -9.3187997509279064e-01
      -1.2762467541936695e+00 5.2590843549939248e-01
      6.1007191449642428e-01 -3.1232480133453705e-01
      -3.8167491524970210e-01 1.3188720402727960e-01
      -2.7126002679314648e-01 -4.8106750735626658e-01
      1.1355833015862550e-01 6.5287653459860595e-01
      -2.3919581304581003e-01 -1.3040074288719885e+00
      1.3726324330821138e+00 1.3600192978620504e+00
      1.1614959953092691e-01 2.6421191928520404e-01
      -2.9905943153418618e-01 3.6025832979631917e-01
      6.0852261070607261e-01 9.3368302230904954e-01
      -2.9146215671685760e-01 5.1635904160077917e-01
      9.0539675556175303e-01 -7.0867673679195009e-01
      4.5214848679263392e-01 2.3015109270361450e-01
      -1.0052304156814982e+00 9.7589844473820386e-01
      3.6265439417841649e-01 -2.0683234883853654e-01
      -4.9328269848241807e-01 5.3073183625431697e-01
      -1.4840410610524202e+00 2.2279320519070070e-01
      1.5981354418252807e+00 9.1339539327906760e-01
      -2.0019049310174955e-01 -1.1549325510936497e+00
      1.3265438723027867e+00 -8.5774291423347782e-01
      2.4845281060147850e-01 9.5135307684404025e-01
      5.1400454426548381e-01 -6.0663826936233134e-01
      -1.2912906961407689e+00 5.5787401043491869e-01
      8.4345273616535421e-01 -1.5712014393127408e-01
      -1.0937903120511168e-01 -1.1260834708430281e+00
      1.1388610655816507e+00 -1.6238528356391591e-01
      5.7597961385618091e-01 -2.7432368881736863e-01
      5.7244161953333117e-01 8.5015022353664915e-01
      1.9534638659951342e-01 7.0368097168818505e-02
      -3.8505514067098456e-02 6.5675625147759153e-01
      8.8747370775539436e-01 3.3352462988462794e-01
      5.5616782110535679e-01 -1.5336790925145727e+00
      9.8189513932854328e-02 -1.4508907553797181e+00
      1.9069485492371887e+00 -3.7818878736988859e-01
      5.9757693473730063e-02 6.8805615667185116e-01
      1.4191438544934618e+00 3.5967494633136965e-01
      1.8912449465157583e-01 -2.7835393771951328e-01
      -4.4654383465051389e-01 -6.7890002250689996e-01
      2.4186999093813738e-01 -3.2160603385369529e-01
      4.0462263708380813e-01 4.3237469032773068e-01
      -3.0618561400904354e-01 2.6473767887808058e-01
      -1.4070389557455247e+00 -1.1918974638511829e-02
      1.9885483175730981e-01 -1.1254658843929890e+00
      -4.3185200569505050e-01 6.9150513635071709e-01
      -1.3423902907008085e+00 7.7106234755951197e-01
      3.0644217441749994e-01 -6.6149706901850125e-01
      -1.0177914054435698e-01 5.6035326306397237e-01
      -3.1637436139865416e-01 -5.8644364241120039e-01
      -5.9850066033831917e-01 7.2755486913201117e-01
      -3.7192983398364010e-01 -4.1551533254628020e-01
      3.7367982010922551e-01 4.3367156879050373e-01
      -4.3386937208456361e-01 -6.7077208499435026e-01
      -5.2048713960134696e-01 -1.2863404494849406e-01
      1.1771493698970709e-01 -8.1010762593948438e-01
      -6.8564408962538681e-01 2.2086128548680660e-02
      -3.0745993098554247e-01 -4.1819716113907035e-01
      -3.3828635478642483e-01 1.2275188880427870e-03
      -3.9736733287828434e-03 -1.6876801539613695e-01
      -3.5783957602987221e-01 1.0533311101602021e-01
      -6.3679617678077116e-01 -8.6479136895453473e-02
      9.0992603975077135e-01 5.7065450465038148e-01
      1.0322707562219403e-01 -1.1189495825940801e-01
      -3.2152989981365376e-01 -8.0194131717108696e-01
      5.4551963426847971e-01 3.8581547086961665e-01
      4.1972585535764240e-01 6.3204811241415060e-01
      -2.0777658484930644e-01 -1.5632894916848061e+00
      -5.0047856377606781e-01 -1.4840596688485608e-01
      -4.7642798540676362e-01 1.0369169853076067e-01
      -7.6226187392843481e-01 -4.5583404314517351e-01
      5.3100275487673476e-01 -8.0644976961733783e-01
      8.2015044500004275e-01 -5.0346542523915050e-01
      -6.3047489406580989e-02 -5.9445844282348420e-02
      5.7769087803632679e-01 -7.0398723854969636e-01
      -7.1110150142445303e-02 3.7379187080325177e-01
      2.7233714797523647e-02 1.2762918230576676e+00
      -4.7998344115331443e-01 -4.4919230104458108e-01
      -1.3149450257260267e-01 -1.4491772247161276e+00
      -3.8187605034167743e-01 -3.1306766783671997e-01
      -2.1653080697342342e-01 -3.1837797230874182e-02
      -1.7595693526454895e-01 1.2925028267520811e+00
      -6.8723149835054320e-01 1.6405847356652553e-01
      5.3309889503208051e-02 -1.5564701457792700e+00
      6.1865862146104933e-01 5.0610791806503863e-01
      2.4709979457938971e-01 1.2979212492803398e+00
      4.8460749692926286e-01 -7.9599858760472619e-01
      3.3468076611518460e-01 -2.2186741034699398e-01
      6.2609719551141207e-01 4.9650902900548233e-01
      -6.9381975704094123e-01 7.5928368389999545e-01
      -2.4686175996836782e-01 9.2546501077281473e-01
      -6.6082571451297811e-01 -2.0502369868019046e-01
      1.8322886812128197e-03 -1.1828291501235851e-01
      5.1933960323788997e-01 -6.3545921626329238e-01
      9.9943436413680875e-01 2.9256057765072840e-02
      1.1298245813915961e+00 -1.4426091845776297e+00
      -1.6249578670863357e-01 2.4520648279561372e-01
      2.5211731923385988e-01 4.6456761959391596e-01
      1.6266710995091146e-01 6.7590994750809782e-03
      6.3768666569131727e-01 1.4187001471973254e-01
      -8.9747263239706865e-01 3.2260294440025589e-01
      -6.0367489426965570e-01 7.4340573518802455e-01
      3.2621140662001186e-01 1.8562182663290949e+00
      4.0595049638319912e-02 7.5562689225658120e-02
      9.2176898371514437e-02 8.1628709801793420e-01
      -7.3193904242801616e-02 -1.0612927165096955e+00
      4.8814867669401282e-02 2.6914721045681672e-01
      4.1089514336320876e-01 -2.9739098516137519e-01
      -1.2291133305052455e+00 -4.4451809794106756e-01
      1.2046986160869646e+00 -1.3781206397383832e+00
      2.2079738639786753e-01 9.9878075040196065e-02
      1.0736019042647596e-01 -2.6686776091665376e-01
      6.5171547368120575e-01 -3.2304631252572702e-01
      1.1047865448300816e-01 -4.0006828086257984e-01
      -3.1468465399389334e-01 -5.2264063743937261e-01
      5.0539504835571769e-01 -4.1735685871921924e-01
      2.2355914650035451e-03 -9.5278605722089349e-01
